-0.20038213,-0.2605968,-0.0149933975,0.2063033,0.20411244,-0.24416715,0.01670786,0.21066107,0.15327513,-0.043818116,-0.026938614,0.15146871,-0.14271317,-0.045867622,-0.17078863,0.14090587,0.035151932,0.058154657,-0.22461621,0.0029843473,0.238606,0.09469895,0.03485279,0.09177307,-0.01260958,-0.07622554,-0.18226834,0.004016546,-0.1292096,-0.1667861,0.08401625,0.09796652,-0.015979417,-0.17851645,0.084369764,0.0739903,-0.04926671,0.11808105,-0.17626451,0.017359942,0.08067528,0.19884008,0.05731968,0.08560697,0.117057554,-0.0028774284,0.050604396,0.11524782,-0.1234293,-0.1340911,0.04050457,-0.025775706,-0.14563282,0.13371466,0.023632206,-0.062393006,0.008443534,-0.0031224536,0.08594398,0.06483639,0.072368,-0.19315846,-0.2632736,-0.10509976,0.0023918157,0.008621061,0.0110040195,0.08520122,-0.059923396,-0.0083206035,-0.015015781,-0.026362507,0.11211202,-0.15386231,0.017179638,-0.18812457,-0.01215196,0.13815498,-0.06767349,0.24665149,0.22889312,0.061691567,-0.108244,0.078979135,0.123337515,-0.11974773,0.07954969,-0.06424895,-0.07782632,-0.15167798,-0.123755604,0.06310252,0.057488468,0.1089119,-0.027139679,0.01227785,0.059577994,0.03588153,-0.04024476,-0.09330272,0.18700483,-0.11768565,0.0043376707,0.06953778,-0.16591226,0.107036285,-0.15373619,-0.059489135,-0.15944627,-0.012624364,0.12294747,-0.15055951,0.077434346,-0.050212424,-0.057305526,-0.0005838867,0.047573242,0.135672,-0.06880507,-0.1527313,0.01300239,0.03936137,0.028160354,-0.1345657,-0.1437347,0.113665976,0.10882279,0.15531445,0.04004551,-0.0039582895,-0.023035955,0.023900243,-0.025741993,0.13612974,-0.07730891
-0.0061172512,-0.20466354,0.09748506,-0.03691224,-0.08631475
-0.19459715,-0.1721971,-0.11715468,-0.17566346,-0.1359961,-0.10754523,-0.19596016,-0.10911685,-0.22217306,0.14013532,-0.20897518,-0.10960242,0.075652644,0.030719722,-0.12871125,-0.14495243,-0.17497022,-0.04145433,-0.106459014,0.014315085,0.019491203,-0.16912162,0.15228097,-0.056003336,0.13191989,-0.18638787,-0.0971529,-0.3326872,0.17653246,-0.00593586,-0.15054344,0.24857162,0.066719666,-0.12747036,-0.33922184,-0.089098714,-0.14471379,-0.053936932,0.11480868,0.16385926,-0.0067383135,0.044100784,-0.004351673,-0.16854234,-0.06308063,0.05738685,-0.09821095,-0.067228355,0.16999651,0.032147497,-0.06822879,-0.13190338,0.1799792,-0.22857925,-0.12192193,0.07303872,0.10563094,-0.04295135,-0.1146558,-0.05332076,-0.038436055,0.017305773,-0.0819418,-0.20293534,-0.33377835,0.23228824,0.0073572323,-0.24612068,0.012168722,0.33782557,-0.023135584,0.0658557,-0.18458582,-0.37229434,0.15627691,0.40762195,-0.25050852,0.11933736,0.20181766,0.0303205,0.19889092,-0.23288986,0.04694161,0.027146704,0.057152793,0.41151267,0.16857092,-0.35977536,0.21571395,0.0090506375,-0.095782876,-0.08134191,0.2045415,0.20389807,0.08389855,0.010822341,-0.12767906,0.0021004393,0.07379011,0.034816574,0.10646131,0.18671308,-0.100250445,0.17480056,0.19920336,0.21673597,-0.058179334,-0.1939917,0.07533689,0.04404021,0.11294503,-0.13036719,0.17616439,0.24478482,-0.09350348,0.07953359,0.02868614,0.14378156,0.3584567,-0.12472533,-0.19916332,-0.032848284,-0.09532709,-0.19410361,0.15395318,0.104246244,-0.0016469735,-0.10041663,0.032193054,-0.010964056,-0.3662781,-0.084676534,0.5527574,-0.13297649,-0.13906884,0.0076987753,-0.0758073,0.044261087,0.08732188,0.14118026,0.041556608,0.037942085,0.008074579,-0.011620068,-0.20347744,0.0036146792,-0.015786985,0.23320825,0.24646197,-0.19189431,-0.11020121,-0.39820242,-0.029431354,-0.08691369,0.09349573,-0.01597785,-0.04753735,-0.32248023,0.07248515,0.13646758,0.2908859,-0.17251839,0.17098719,0.002270537,-0.20716345,-0.41063604,-0.4471288,0.09415951,0.22166155,0.30754712,0.038694087,0.07172437,0.14308245,-0.10588147,-0.041578956,-0.31912524,-0.12905857,0.06467101,-0.007618499,0.15434933,-0.110413745,-0.04084085,-0.12968965,0.04508709,-0.29629543,0.14814596,0.24362963,-0.2991321,0.007944413,0.12679362,0.34406158,-0.3945051,0.3241187,0.101864375,-0.2319329,0.13439596,-0.19697851,-0.05162286,0.13988279,-0.1854587,0.007888078,-0.0023497702,-0.110049285,0.1519154,-0.12000477,0.12899563,-0.1570615,-0.1270247,-0.30416554,0.3283737,-0.27805272,0.25421724,0.22836763,-0.04534934,0.039638594,-0.15620333,0.19524966,-0.015711451,-0.13046317,0.32023093,-0.223559,0.0072868983,0.023871198,-0.08283261,-0.038743217,0.029187664,-0.25643912,0.16985512,-0.04245832,-0.18814813,0.07175181,-0.06304139,-0.09568257,-0.1868883,0.098293565,-0.059331093,-0.042920914,0.046498954,0.01673486,0.06139991,-0.18254311,0.026704952,0.2047344,-0.07379638,-0.0057962383,0.084799044,-0.31401828,-0.18420129,0.34856883,0.06087126,0.10692593,-0.1656138,0.054046344,0.0024448799,0.11891199,-0.4115301,-0.29594758,0.2262946,0.13084646,-0.010468617,-0.015044482,-0.020163383,0.014405044,-0.026718123,-0.32154244,-0.104440376,0.113010414,0.33382666,0.20863214,0.27728584,-0.18689105,-0.14100601,0.40013444,-0.25382677,0.16868965,0.2948295,0.12702438,0.107176125,0.10074798,-0.20278986,-0.04714832,0.06963332,0.01949868,-0.33100352,-0.112536706,0.38481387,-0.1543514,-0.06320679,-0.0525582,0.094536066,0.030564204,-0.11941081,-0.15719885,-0.08896269,-0.16736783,-0.022392169,0.3745755,0.08151702,0.15816444,0.13188562,0.03060416,-0.09790125,-0.050925788,-0.04737368,-0.104025215,0.066392586,0.13043551,-0.10650931,-0.027755944,0.056392767,-0.011058907,0.027768828,0.16578507,0.38255954,-0.08994602,0.06601629,-0.10229611,0.024926128,0.01614684,0.022132035,-0.30128857,-0.3233566,-0.13153028,-0.0049435636,-0.022268234,-0.16629383,0.07902175,-0.4024263,-0.15735002,-0.022867987,-0.2005243,0.21896301,-0.06678171,-0.1513539,0.123010926,0.17007603,0.16826065,0.015215223,-0.014964408,-0.06355439,0.069925375,-0.034632303,0.04465819,-0.06309404,0.04235163,0.13040565,0.06562764,-0.31159848,0.13219038,-0.011524806,0.02193902,0.22519879,0.28914088,-0.019244669,0.10847425,-0.17926455,-0.2129556,-0.040892743,-0.24178675,-0.12466688,-0.20490976,-0.0018835951,0.12406464,-0.013014458,0.11801975,-0.12745915,-0.07713523,0.016344609,-0.060233977,0.09058371,-0.089101635,0.1910427,-0.044669125,-0.14633362,0.058123834,-0.24012806,-0.23476747,-0.08926378,0.013625123,0.20939162,0.0620941,-0.25960627,0.02576225,-0.033564717,0.0050555654,-0.21342508,-0.10401803,-0.31464097,0.059398558,-0.140919,0.01509188,0.31005764,-0.11273708,0.11873347,0.23656195,-0.03937735,-0.1044293,-0.14838366,-0.13245924,0.03899417,0.031875577,0.06322296,0.13367012,0.0907895,0.20975222,-0.06833051,0.20116648,-0.07271414,-0.019043332,0.20420162,-0.01101796,0.03296255,-0.10088476,0.2598396,0.20510948,-0.29652166,-0.21355622,0.24064837,0.120113514,-0.004218339,-0.14186585,-0.022544624,0.16129304,0.20461076,-0.13684876,-0.12854022,-0.16059013,-0.07956958,-0.0729689,0.0452428,0.14275645,-0.12740052,-0.3347543,0.3330744,-0.22496957,0.005934426,-0.2492572,0.024383068,0.09217365,-0.06515032,-0.1166237,-0.1549579,-0.30990228,0.61588657,0.34511572,-0.069849245,-0.1722875,-0.36403313,0.2813996,0.0010200773
0.25280485,-0.09445185,-0.13211358,0.08333339,0.028389873,-0.04280176,-0.076761656,0.15913917,0.123915024,0.096580975
-0.42580175,0.17254409,0.017296644,0.01561359,0.04606832,-0.095804684,-0.13756093,-0.086903326,0.55965966,-0.31020716,-0.14576812,-0.61474943,0.37144452,0.48574662,-0.20457433,0.051279105,-0.14634843,-0.034239136,-0.04602893,-0.70524037,-0.07515734,0.41806197,0.13556466,0.3451339,0.004768777,-0.09479575,-0.12310331,0.058401905,-0.13940576,0.46115234,0.49263883,0.0039318567,-0.33736566,0.5048606,0.20858225,-0.32939586,-0.3813544,-0.3433083,-0.4129508,0.08355627,0.2782036,0.36300036,0.12266996,0.3741097,0.5554188,-0.20838152,-0.24365169,-0.09584241,-0.17403097,0.63776445,-0.061158273,-0.10591673,0.04129914,-0.10082577,0.17607142,0.35851488,0.029805653,-0.3294044,-0.37172487,-0.1122888,-0.12256477,-0.08181169,-0.24087586,0.1802342,-0.06003152,-0.30079013,0.26673758,-0.19683851,-0.17434278,0.024395648,0.12366556,0.31824479,0.5253833,0.36138716,0.6813915,0.024812436,-0.3580073,0.14856099,-0.5041113,-0.1035858,-0.08807485,-0.36844653,-0.47306588,0.61842567,0.34432963,-0.14825268,-0.36775514,0.11778785,-0.09684227,-0.19086276,-0.17474104,0.312283,-0.043744437,0.261652,0.18907928,0.5414812,-0.37467703,-0.45792925,-0.09096469,-0.0403007,0.14410837,-0.14008331,-0.009538269,0.33992842,0.22737177,-0.27053145,-0.10548064,-0.28741917,-0.22471046,-0.16198228,0.44490084,0.14554827,-0.1846133,-0.37281922,0.46033734,0.17598766,-0.21116862,-0.009731604,-0.6815874,-0.09327323,0.36409348,-0.40059826,0.015225673,0.25876647,-0.058262438,0.14288102,-0.08479117,-0.3035875,-0.014524617,0.6444676,0.31566477,0.20557989,-0.26241487,0.101999916,0.33434117,-0.09484931,-0.20588292,0.2858919,-0.029921172,-0.53316826,-0.47289738,0.12293151,0.7818815,0.0114778755,-0.26908,-0.33502614,-0.35716096,0.44264913,0.45002574,-0.08721086,-0.2839201,0.03451344,-0.42340887,-0.22637582,-0.022974662,0.43436393,0.3770004,-0.06885698,0.044945277,-0.02014326,-0.1790166,-0.13841952,-0.03262128,-0.26206437,0.23660332,-0.20882528,-0.5209471,-0.23220125,0.17437017,0.42800438,0.3990656,0.12990567,-0.1500644,-0.14914316,0.5220518,-0.14741915,-0.12512462,0.2757317,0.20521928,0.20888096,0.24293213,0.17836155,-0.043063384,-0.23795167,-0.3477549,-0.02649216,-0.24600731,0.654625,-0.027858704,0.2983142,0.1344887,0.08842705,0.381425,0.0027960485,-0.17449959,-0.088663004,-0.17481741,-0.13008004,0.6439169,0.06521041,-0.1629964,-0.08284779,-0.6129016,0.29153407,-0.20131095,0.136864,-0.1276709,0.33488584,0.08767606,0.18206951,0.009135036,0.25530463,0.3139409,-0.12987526,0.10322564,-0.04263907,-0.23724133,-0.034214888,-0.17794457,0.052887652,0.6604265,0.42428944,-0.02810307,-0.049647603,-0.100353725,0.041325543,0.26112184,-0.13827418,0.2048405,-0.60877436,0.11540395,-0.31170735,-0.011485471,0.40773404,-0.14775336,-0.38834944,0.36911225,-0.1752562,0.3444129,0.17157403,-0.20338716,0.008040712,-0.27364874,0.09678281,0.3985647,-0.31568444,0.069024935,-0.48670986,-0.31340024,-0.2720841,0.04254057,0.4622064,0.44600224,-0.38849527,-0.76622975,-0.23219228,-0.3696847,0.5179308,-0.3408511,0.5604326,0.11017367,0.23193063,-0.173626,0.3658582,0.27517882,-0.27637446,0.010372435,-0.102839835,0.055489175,-0.046590894,0.048593596,0.11981194,-0.08609971,0.13490236,0.3137797,-0.10570449,-0.0915275,-0.110977285,0.070273526,-0.048325647,-0.08797053,-0.5558605,0.21523258,0.56985635,-0.014534697,-0.10889892,0.08473074,0.25842154,-0.42471498,-0.17322724,0.40800837,-0.083584346,-0.27143058,-0.0462478,-0.0620087,-0.5784396,0.30818465,-0.015239679,0.15064478,-0.25310275,-0.10349262,-0.06886795,-0.23929687,0.08565852,0.39994282,-0.09980842,0.061134797,-0.35799333,0.0018258535,0.52168155,0.28769866,-0.041882332,0.0758964,0.020573404,-0.03135916,0.04814952,0.277371,0.015282523,-0.09660755,0.15098692,0.36492267,-0.1255707,0.26547977,0.0044310736,-0.04482423,-0.02691739,0.05613197,0.196022,0.56062466,0.28592736,-0.13568226,0.15508166,-0.33505893,-0.25330272,0.28861937,-0.098147385,0.10586624,0.2196364,-0.08980311,-0.36628234,0.17740314,-0.0931865,-0.5624233,-0.46229887,-0.024398603,-0.39408025,-0.71235716,0.3571322,0.055246472,0.2110198,0.13418512,0.15538853,0.043391977,-0.10471998,-0.54163384,-0.30290586,0.19355504,-0.06372759,-0.1161771,0.14415026,-0.10107884,0.14876688,-0.17314957,0.3457626,-0.2819251,0.17708664,0.12556107,-0.17294289,0.31257752,-0.25536656,0.14800097,0.49215382,-0.33869696,-0.15032825,-0.14294522,0.14337692,0.08298075,0.18759103,0.4079459,0.13617678,-0.28206122,-0.08963413,-0.21059221,-0.16579796,-0.4980984,0.3974998,0.047013603,-0.577175,-0.090092644,0.6049248,-0.3943118,-0.08652191,0.06281368,-0.3543558,-0.027204152,0.04813914,-0.100402854,-0.2362447,-0.3108147,0.18829031,0.29038858,-0.30235466,0.3218767,0.6739034,-0.05944877,0.19524856,0.30568147,0.13209641,0.18953831,-0.031391177,-0.19627593,0.38971373,-0.24118356,-0.3362072,0.2944989,0.02222834,0.05368786,0.15766655,-0.1099188,0.00984214,0.0027202442,0.13245086,0.069497645,0.14995123,0.27588707,-0.4152083,0.4173748,0.42996585,-0.16539048,-0.11528913,-0.23937126,-0.3729629,0.43267372,0.118921876,-0.7032221,0.29508236,-0.19668041,0.085548945,-0.12180746,-0.35159567,0.34269813,-0.33842054,-0.31807253,0.1161127,-0.39667746,-0.42503765,-0.093188316,-0.4187536,0.20151721,0.26048854,0.34705418,-0.51093894,0.12377354,0.6232729,-0.3160514,0.06589511,-0.06489817,-0.5632793,0.38405395,0.29654613,0.18407336,-0.36830953,0.650803,-0.19176058,-0.08494755,-0.24516502,-0.9123991,-0.09844856,-0.034453053,0.2843589,-0.28281862,-0.48096755,0.14113876,-0.18759073,0.06076115,0.108157024,-0.06970792,0.15852459,0.81943446,0.18026392,-0.58628124,0.65521634,-0.17885539,0.17560121,0.2533723,-0.3582557,0.12605803,-0.16163029,-0.019938644,-0.17084204,-0.46710417,0.20258452,-0.08829682,0.121390924,0.46349922,0.19397084,0.36620682,-0.26844224,-0.5308344,0.3805539,-0.20256586,0.04094956,0.40098345,-0.01983664,0.061951548,-0.26981786,-0.12793192,-0.21077539,0.2816353,-0.06456986,0.005787088,-0.030541388,0.22933394,0.66437775,-0.13725947,-0.22637518,-0.15892886,-0.10831094,-0.41839442,-0.18837377,0.33640325,-0.09086128,0.122074544,0.18365718,0.109706536,-0.52316374,0.29199472,-0.116082326,-0.47960356,0.5184976,0.110985585,-0.26288563,0.35462245,0.06768121,-0.03976123,-0.086659126,0.2755695,-0.09656061,-0.2191002,-0.0071056155,0.18822496,0.05255796,0.18363038,-0.3347941,0.22510447,0.31027475,-0.6128558,0.5995005,-0.4784531,-0.090569735,0.027262524,0.38653752,0.21472265,-0.3245252,-0.2314952,0.25545982,0.31720847,-0.58486354,0.08774918,0.11105531,-0.53024226,-0.08950858,-0.015893392,0.31286687,0.14859429,-0.48586458,0.81475896,0.15657549,-0.37555385,0.2172274,0.45268288,0.083813585,0.018076438,0.24170929,0.06401413,-0.2605935,0.10007134,0.2628206,-0.1154512,-0.2761447,-0.46746612,0.15739594,-0.20188515,-0.23615974,0.25035462,0.4114153,-0.31546614,-0.2932899,0.41668582,0.32756066,-0.25773436,-0.17974135,-0.25211143,0.09721256,-0.14173849,0.123254314,0.15976341,-0.31527567,0.015738985,-0.0686969,0.59659535,-0.039975595,-0.22318585,0.32482105,-0.020247925,-0.28251773,-0.0077518895,0.8243593,-0.4326748,-0.19342314,-0.4093446,0.7995824,0.4947663,0.03829542,-0.21471164,-0.5411748,0.31200275,0.39889765,0.029785212,-0.3914584,0.30134177,0.07506306,-0.035796255,-0.0902201,0.09211864,-0.7626285,0.0509545,0.28223485,-0.22625013,-0.23057292,0.039164454,0.16339254,-0.25577223,-0.69617003,-0.056800373,0.73122334,-0.021992106,0.47078338,0.5520225,0.14337343,-0.012004662,-0.11754108,0.3249016,-0.027240455,-0.18612155,0.0069384687,-0.17848508,-0.048434854,0.1398997,0.49380222,-0.15805572,-0.4904199,-0.24288824,0.19725965,-0.44197303,0.21613687,0.2837928,0.0021512946,0.17977872,0.10414538,0.5191172,0.38546956,-0.059145436,-0.18124041,-0.5670353,-0.33903906,-0.5524988,0.24774024,0.4167206,-0.061949983,0.37441736,-0.16565958,0.22853383,0.15926461,-0.2079043,0.019543355,-0.12100799,-0.16574194,0.536587,0.080967605,-0.25247365,-0.17323226,-0.18938166,-0.32160863,0.34288627,-0.39993027,0.16064046,-0.40972084,0.08586275,0.061026312,0.53097165,-0.053703688,-0.26928768,0.38237104,0.34768358,0.18670163,-0.06607552,-0.5381546,0.2302459,-0.22952381,-0.27184904,0.10281104,0.2255334,-0.39032987,-0.05033428,-0.058562446,-0.17855683,0.27826738,-0.11019019,-0.26831028,0.3929053,-0.31919783,-0.10808702,-0.51978755,0.1269284,0.117881946,-0.13164344,0.36394507,-0.04972524,-0.35674885,-0.15692121,-0.3008529,-0.25404727,-0.19419111,-0.054414947,-0.054066427,-0.10030283,0.16631019,0.4844239,-0.557875,0.013937764,0.18053427,-0.017623374,0.3089707,-0.46054637,0.33860072,0.32251194,0.083121166,0.20644465,0.51036835,0.02119718,-0.048732083,-0.15503184,-0.21421582,-0.17753182,-0.13843195,-0.1862438,0.30794153,-0.19545639,0.13489403,0.22288989,-0.2228174,0.27784285,-0.12790444,0.09702842,-0.53528386,-0.035765346,0.11537532,0.15971471,-0.24962376,-0.1424478,-0.4622604,-0.015318793,-0.111282684,-0.6220758,-0.0044065537,0.10617292,0.18240994,0.33644024,0.6156611,-0.19258378,-0.03802611,-0.6233896,0.15635252,0.12585655,0.029648157,0.04778321,-0.44762012,0.0021802601,0.057775456,-0.040925458,-0.28129598,-0.19140266,0.24074638,0.387298,-0.020046953,0.23303378,0.21399222,-0.1145011,-0.19734682,-0.245272,-0.2333963,0.24111195,0.6382988,-0.27429926,-0.42292097,0.06439215,0.1719714,0.027431235,-0.51612806,0.36892903,0.02540942,-0.080262035,-0.10808685,-0.46137914,-0.10520556,0.1544749,-0.1172173,0.51187736,0.2888735,-0.08090227,-0.15367852,0.10795094,-0.083843954,-0.16084658,0.3485495,0.08566205,-0.14611775,0.11558769,-0.20299873,-0.33601254,-0.39074463,0.034620646,0.32218328,0.33560857,0.37571368,0.23339687,0.097317636,0.28765884,0.3906654,0.6112185,-0.04897989,-0.1971011,-0.18193926,-0.050043434,-0.21302783,-0.23494111,-0.030030018,-0.0443618,-0.2841889,-0.3139608,-0.40437374,-0.30480656,0.2682465,-0.30120805,-0.22560957,0.18990126,-0.060925074,-0.23044243,0.29058608,0.36945656,0.33292907,0.28752682,0.49917954,0.2414777,-0.014184848,-0.18315277,-0.21028908,-0.02274373,0.09034672,-0.42974433,-0.03652874,0.2695748,-0.040241603,-0.42401052,0.6361116,0.011643366,-0.06809875,0.32358953,0.14361806,-0.18362181,0.21311781,-0.05180606,0.058104876,-0.081874974,0.44393018,0.34958583,0.13630013,0.23128806,-0.05091222,-0.075561695,-0.15295124,0.053690013,9.457313e-05,-0.008624741,0.20353603,-0.33654848,-0.50668985,-0.087173656,0.112967186,0.4590541,-0.19766988,-0.1206005,0.20930175,-0.25453034,-0.3653714,0.3007068,-0.20186754,-0.008575739,-0.26737502,-0.028803283,0.42083806,-0.013134243,-0.13516998,0.18635924,-0.40726388,0.09527521,0.25281686,-0.13367303,0.04581624,0.10684966,-0.66495454,-0.20252404,0.2865338,-0.247824,-0.07056732,0.11977116,-0.60826445,0.67711085,-0.23980702,-0.020304099,0.2447244,-0.38976482,-0.4794786,0.21690862,-0.33605972,0.0135779185,-0.16570023,0.40014416,0.20570609,0.21093337,0.37401092,0.1771845,-0.1609298,-0.24738418,-0.12863788,-0.19099395,-0.2122474,0.051237945,-0.15797599,-0.31632808,0.4054111,0.4388388,0.01778984,0.26084518,0.24489723,-0.25171775,0.08057458,0.23680209,0.06709699,0.2816477,0.064143725,-0.4305133,-0.33810598,0.025515271,-0.06339208,-0.5576594,0.20412618,0.33429393,0.14618137,0.14081027,-0.18562743,-0.14325655,0.39716557,0.06770782,0.10337545,0.37355354,-0.109046884,-0.017906064,-0.067449674,-0.06300798,-0.14223647,0.041253574,-0.06662243,-0.23225112,-0.7471382,0.05336132,-0.105866425,0.15412542,0.6009373,0.01947034,0.403897,0.08976406,-0.22480445,-0.09069972,0.55962336,0.0740144,-0.13918366,-0.1288815,-0.5436664,-0.042015135,-0.19812566,0.26516423,-0.3737951,-0.5449818,-0.19989815,0.12523073,-0.017071553,0.40917742,0.15301664,0.48908076,0.29746723,-0.240434,-0.052423,-0.15124212,-0.38310668,-0.20142525,-0.18224971,-0.009534675,0.020451318,-0.04734781,-0.22820455,0.22251086,0.29302704,0.048246317,0.18875751,-0.13397205,0.20150805,0.1380283,0.4914082,0.0054934984,-0.23311737,0.1371218,-0.1833106,-0.084022544,-0.07634704,0.4020778,0.2606584,-0.5068534,0.4863209,0.47704765,0.40221044,0.33326578,0.21057117,-0.044409342,0.19549112,-0.048799083,0.11056206,-0.39890015,0.4399761,0.0122978715,0.22675557,0.20874602,-0.2681497,-0.15733476,-0.4669919,-0.31991258,0.44064054,0.08502388,0.19102807,-0.06197096,-0.025722366,-0.16891351,0.091372766,-0.033706203,0.03363445,-0.13961238,-0.41629103,-0.023449043,0.14893888,0.009853144,0.49222767,0.019316945,0.17450526,-0.11747954,-0.20742895,0.15383284,-0.07407254,-0.0001008397,0.08899339,-0.22804001,0.3250116,0.46034232,0.32667008,0.24604073,-0.009389306,0.03510403,-0.44966513,0.14301838,0.12344626,-0.4315001,-0.32730982,0.5071911,0.38079366,-0.3479306,-0.36708623,0.13798259,0.2933115,0.12201282,0.052392457,-0.467311,-0.20907173,0.44318384,-0.023393933,-0.57578856,-0.3692636,0.5425184,0.5109014,-0.12772237,0.4021109,-0.57437503,-0.41283035,0.15592657,0.32328874,0.2881928,-0.4698561,-0.24806413,-0.16058777,0.38261917,0.49394557,-0.0061207158,-0.35656175,-0.12817557,-0.37660155,0.061937854,-0.18374273,-0.01818029,0.1453524,-0.28984332,-0.10450325,0.039723545,0.07782536,0.3979491,0.08219436,0.058669504,0.016922059,-0.24671508,-0.32898444,-0.36957067,0.51348525,0.07451891,-0.39267078,-0.29177827,0.583182,0.123057224,0.29217777,-0.16847612,0.10604666,0.58919144,0.30358478,0.08670214,-0.4036259,-0.73439425,0.22780463,-0.028536106,-0.19450504,0.018476503,0.64324874,0.12099372,0.16692425,-0.4780478,-0.04421696,0.46624255,-0.06807829,-0.4230136,-0.42553052,0.41009396,0.53817445,-0.1320668,-0.2287909,0.31316096,-0.10026349,0.014179547,0.2043782,0.2996929,-0.463527,-0.24089734,0.06493891,0.1954711,-0.12761538,-0.21973689,-0.44025543,0.42057613,-0.21493354,0.022542298,0.0064407657,0.1316082,0.65312386,0.43778,0.0066758078,-0.28791586,0.22874454,0.32885045,-0.24899535,0.067548245,-0.32599068,-0.39973158,-0.2986983,-0.13506478,-0.057898864,0.09888169,-0.105294354,0.14398372,-0.15569021,0.42497408,0.067790404,0.11288832,-0.017297668,-0.21064746,-0.33983147,0.18412228,-0.42034894,0.17719308,0.17898668,-0.42049032,-0.2793952,0.11348947,0.17404445,-0.051748175,0.3526621,0.21162406,-0.10370237,0.1174935,-0.26429453,-0.3149091,-0.10078194,-0.29781643,-0.6087965,0.12088744,-0.043114703,-0.09180805,0.23068865,0.1140258,0.3839264,-0.124236345,0.2533767,-0.094415344,0.090134494,0.23829803,-0.29603124,-0.123547204,0.032095082,-0.25755304,0.07853908,-0.19996473,-0.07520847,-0.57566863,-0.037383422,-0.033736017,0.035817105,0.71665925,0.17806888,-0.012949784,-0.12214641,-0.16650678,0.18348263,0.17874041,-0.05619321,-0.13444926,0.36331344,0.45482686,0.06101073,0.41250497,0.5675753,-0.08045097,0.03223109,0.19557138,-0.19738719,-0.13460988,-0.5023698,-0.13221858,0.29437393,0.3801754,-0.013651673,-0.32939407,0.10145546,-0.0056894277,-0.33289698,-0.0011350398,-0.13693157,-0.18990366,-0.114336416,0.22272266,-0.07077743,0.41283244,0.044516325,0.19228151,-0.08453028,-0.0860298,0.14891754,0.08776268,0.11129157,-0.14561263,0.06188353,-0.021828992,-0.2646425,0.16247226,-0.044513907,0.2179506,0.51049674,0.40839487,0.18124552,0.2962547,-0.17984389,0.29794452,0.28681433,-0.050832275,-0.01624384,-0.081238486,-0.10953667,0.36937466,0.26545897,-0.73202205,-0.13150729,0.4421319,-0.011077149,0.044945236,-0.1372947,0.01605539,0.103442095,-0.4140393,0.10597353,0.21250154,0.03611874,-0.018669406,0.2415077,-0.16795897,0.18670876,0.4446049,0.10305248,-0.2738159,0.3971411,-0.16198543,0.18441619,0.009895554,-0.10892575,0.28131112,-0.23290071,-0.59288794,0.6605551,0.24229972,-0.21778189,-0.36272573,0.0017342472,-0.31674084,-0.15465413,-0.22225603,-0.015476545,0.08500362,0.054125514,0.14367956,0.13572083,-0.24229044,-0.30278042,0.29276773,-0.16366024,-0.027357318,-0.1547312,0.22858785,0.44151345,-0.33997616,0.34625018,-0.12318202,-0.057618666,0.66224575,0.22007717,0.04272491,0.09707123,-0.11835979,-0.24199933,0.2224071,0.06312325,0.04177299,0.053856794,0.32933462,0.07728571,-0.3422448,0.05804911,0.31029776,-0.59919024,-0.1946325,0.37992302,0.161299,-0.11875848,-0.07386425,0.29169136,-0.09390615,-0.5146737,-0.19024944,-0.13337559,-0.38500145,-0.30043522,-0.23782377,-0.012431976,0.047645982,0.063567236,0.10883628,0.15434189,-0.012995563,0.24112542,0.30647576,0.24946748,-0.06168339,0.029167602,0.17641084,0.08125712,-0.3994734,-0.2644319,0.3235447,-0.5579871,-0.38541514,0.2027461,-0.17205268,0.034180243,0.37086388,-0.10269991,-0.15094133,0.3193606,0.07991801,-0.305572,-0.07058949,-0.01271377,-0.26171747,0.14950325,-0.323949,-0.24614425,0.008542154,-0.39423886,-0.23445351,-0.059915047,0.25638545,0.004941215,-0.10586681,0.00020063366,0.06140243,0.22856435,0.21356179,-0.02430363,0.07875282,-0.027192865,-0.051209334,0.042713203,0.12453821,0.20088992,0.06317286,0.40577772,0.08005718,0.10586258,-0.09881193,-0.42519647,-0.41629672,-0.17218864,0.72038656,-0.5727627,-0.035598837,0.44762066,-0.2747812,-0.478058,0.22246586,0.25623593,-0.17609815,0.33181742,-0.21805747,-0.10148233,-0.2898639,0.2961108,0.5226467,-0.6689054,0.22005111,-0.19113791,-0.18780237,0.44443682,0.52477294,-0.3402428,-0.6352095,0.13706781,0.37528855,-0.10599539,0.14991006,-0.4191894,-0.12621602,0.13673262,-0.18535762,0.620841,-0.37290636,0.2629268,0.30728745,0.01604188,-0.12818138,0.35499263,-0.030204931,-0.36503044,-0.15041122,-0.16071467,-0.1548875,-0.12455037,-0.3871278,-0.14675404,0.36380675,-0.013563655,-0.6275894,0.35824096,0.27430755,-0.061367158,-0.060121216,-0.16272703,0.088459074,0.35494354,-0.45923,-0.040706832,-0.043838114,0.083073966,-0.07240133,0.10050366,0.080055125,0.024017211,0.5624805,0.2808352,-0.88770026,-0.075942874,0.025666265,0.031224439,0.103617415,-0.028639263,-0.17996694,0.13424075,0.026892113,-0.04146577,0.20106265,0.12544768,0.039777882,-0.122784354,-0.27624255,0.43707648,-0.3219572,0.31285584,-0.16683616,-0.39309165,0.5772082,0.06677496,0.097236216,-0.08020482,0.1504714,0.2550801,-0.34326723,-0.21714623,0.12888007,-0.2087323,-0.38151866,-0.19555828,-0.29506576,-0.6334304,-0.19713123,-0.39032125,0.18974352,0.17794952,-0.18600607,-0.104128264,-0.19269823,0.11256931,-0.13909188,-0.24190468,0.45657584,0.09801344,-0.012042531,0.27183834,0.11056943,-0.37760705,-0.14311403,0.11096102,0.39176753,0.22324665,-0.16437943,0.33446774,0.18150695,0.058267128,0.13632938,0.17281689,0.029123139,-0.08310867,0.23080939,0.49357268,-0.08495224,-0.3594861,-0.29161498,-0.04479881,-0.09509112,0.1817013,0.27483466,-0.20694202,0.29773676,-0.50873893,0.21402156,0.15541053,0.46507114,0.06813723,-0.17009313,-0.44013435,0.0042978255,-0.24957404,-0.5538915,-0.013121937,-0.16768867,0.012328691,0.22305842,0.067714766,0.03792646,0.2550161,0.35232,-0.5671886,-0.32848236,-0.15204623,-0.25816295,-0.26846856,0.5701884,-0.2379507,-0.13209693,0.64435786,-0.011082979,0.09185894,-0.17650363,-0.19382964,-0.06929214,-0.06244391,-0.1291876,-0.057291325,0.003966857,0.09943528,-0.17992035,-0.26040074,-0.13476643,0.042971447,0.47292826,-0.22165361,-0.037862904,0.23254894,-0.2972525,-0.05336891,-0.033082277,0.23935929,0.359529,0.35018972,0.142207,-0.113134876,-0.80684805,0.059338704,-0.1898102,-0.027160896,-0.3385883,-0.16356534,-0.4298405,-0.04815984,0.5598203,0.0762937,-0.33374783,0.05346843,0.39174238,-0.2315709,-0.05295369,0.17841963,-0.031850737,-0.27518338,-0.11176512,-0.010671705,-0.5264876,0.113569155,-0.29465604,-0.18618599,-0.18832423,-0.3703676,-0.31843174,-0.15209956,0.036734,0.00085437123,0.9141643,-0.006770709,-0.1356614,-0.0877128,-0.09129042,0.24051674,-0.05248632,0.20445147,0.24598259,-0.055682547,0.18126383,0.2943199,0.0786229,-0.09756145,-0.0033553264,0.09556063,-0.10092781,-0.23693779,0.28426343,0.15834776,0.025137674,-0.23545092,0.23275444,0.4164937,0.4498791,-0.17216367,0.2178507,-0.113331355,-0.029101502,-0.12918791,-0.026439622,0.011711521,0.23807345,-0.06922975,0.49080938,0.07393897,0.013633181,0.11739862,-0.28489128,0.080362104,-0.18622082,-0.12588963,-0.3176784,-0.08414447,0.09454569,0.30696973,0.081792705,0.07403434,0.46924576,-0.31186604,-0.40704185,-0.18479773,-0.34194937,0.11899056,0.108567946,-0.112302154,0.11518807,-0.1437476,0.33136243,0.22916521,0.20645851,0.06961715,0.16863504,0.18570733,0.3061495,-0.1376705,-0.10114084,0.056010205,0.0004347702,-0.113626525,-0.16131613,0.0800341,-0.32309225,-0.65637887,-0.11278589,-0.0121111665,0.08751357,0.36900553,-0.16544017,0.47446692,0.41284043,0.30780885,-0.32881698,-0.65221864,-0.1209231,-0.13610962,0.38529223,-0.34625953,0.61172825,0.090836406,-0.4346478,0.11166863,-0.15797226,-0.051122297,-0.42290214,-0.056210067,0.17577381,0.089094,0.123045884,0.0063667796,-0.14174421,0.19243796,-0.4830531,0.002023456,0.11387676,-0.05776318,-0.2787216,0.022657003,0.40071237,0.26936296,-0.12695739,-0.23962128,-0.26004416,-0.27575704,0.36739242,-0.2779448,0.16439773,0.1654334,0.06581871,-0.39522648,0.50268966,-0.02073117,-0.38299125,0.17085421,0.04803811,0.27987927,0.27674925,-0.11347297,0.24786909,0.40831235,-0.067403786,0.039701037,0.20825678,0.15283073,0.08713646,-0.4578049
-0.077177845,-0.05746456,0.0068128593,0.16046017,0.06794827,-0.0015770681,-0.080626294,0.02020685,0.051734347,-0.14880499,-0.05160044,-0.14733078,-0.030561002,-0.049294107,-0.13005774,0.09270672,-0.0186152,0.12254063,-0.002511396,-0.079361655
-0.21133512,-0.20581561,-0.04707636,-0.0040119975,0.6129229,0.24085833,-0.716017,-0.105539426,-0.047561686,0.18200898,0.0292554,0.28097707,0.09634925,0.016201738,-0.12772822,0.5205518,0.083107814,-0.036735147,0.32627398,0.27108765,-0.46109354,-0.14035518,-0.5878049,-0.4045002,-0.20822152,-0.13398422,0.31129703,-0.16251612,-0.25879648,0.38522893,-0.29222414,-0.21728076,0.30248743,-0.077094264,0.26625857,-0.15612318,0.11889028,0.12161812,0.12116225,-0.23784533,-0.14802243,-0.17460328,0.3350889,-0.17703053,0.053065732,-0.49078968,0.06281778,0.5868622,-0.018105615,-0.1953864,-0.014852263,0.17139775,-0.070527785,-0.086050004,-0.21735507,-0.33958519,-0.32715288,0.24032703,-0.04845314,-0.06387184,0.32738727,0.21251026,-0.21759464,-0.15742421,-0.36888734,0.12625207,-0.21583964,-0.5568367,0.11100911,-0.1589633,0.3327627,-0.033074986,0.048943188,0.1968596,0.13266228,0.15193884,-0.1303788,-0.41348055,-0.0015797096,0.42134038,0.13708387,0.10838676,-0.45058808,-0.41299906,0.49218222,0.3746918,0.19403683,-0.52498156,-0.007502453,0.14698374,-0.26301214,-0.5980164,0.23828682,0.16509394,-0.44372874,0.33837926,0.34051886,0.29949567,-0.4483486,-0.084405065,-0.64675695,-0.10996585,0.37128603,0.5679223,0.63208747,-0.13601016,-0.10183573,-0.20127875,-0.14900903,0.24073645,0.068094835,-0.5916231,-0.13134828,0.1752773,-0.3755778,-0.08624484,0.19417316,0.25630865,-0.050871164,0.3584284,-0.25669557,-0.1250909,0.2988014,-0.19346242,-0.08264741,0.11918009,0.28579026,-0.43192238,0.5983191,0.9353385,-0.73496044,-0.5257163,0.27599478,0.01584309,-0.18905306,-0.09347584,-0.36314246,-0.31557107,-0.30088368,0.45246616,0.4459652,0.27347475,0.39232942,0.042671107,0.68975496,0.4437728,-0.016132848,0.2536364,0.34377754,-0.38365766,-0.0068904664,0.48411667,0.09871814,0.45573676,-0.21109034,0.42264134,0.12353332,-0.48258552,0.0588977,-0.25429046,-0.1361025,0.031249978,0.13610828,-0.2752118,-0.38550976,0.32226947,0.11527857,-0.027283533,0.033644628,0.13371556,-0.0062705553,0.26814097,0.4908916,0.1607089,0.024966555,0.2308982,-0.5267933,-0.37648395,-0.1442026,-0.7570572,-0.01544943,0.3433123,0.31748492,0.8380037,0.15582608,-0.43498528,0.2916726,-0.22047265,-0.6700742,0.063229404,-0.68616694,-0.31164998,0.27593815,0.06566466,-0.083858855,-0.1633467,-0.00067194225,0.118559904,0.28739047,0.13898215,-0.04561557,-0.25085017,0.32368204,0.42439827,-0.25277355,0.32254982,-0.33507887,-0.48519254,-0.095894836,0.46086237,-0.1703593,0.30150396,-0.014148127,-0.45694605,0.7622599,0.027388666,0.02840881,-0.4249701,0.047737718,0.39508474,-0.06139116,-0.40101948,0.13985492,0.09022281,0.22912931,-0.24873076,0.09803242,0.14406252,-0.5450392,-0.13267453,-0.15886202,0.027018705,0.00204971,-0.04031536,0.41686007,0.41493833,0.118196644,0.9034584,-0.47715077,-0.34919637,0.1153643,0.16247547,-0.4788457,-0.16803373,0.14659266,0.22239237,-0.42907783,-0.1896453,-0.24972071,0.043685228,0.18190773,0.14834654,0.52445906,-0.023412779,0.028499069,0.15916803,-0.22171804,-0.049903225,-0.14837809,-0.24841397,0.33595943,-0.18873863,-0.073135406,-0.26017678,-0.45014408,0.031105835,0.566237,-0.37032178,0.17868848,0.25884834,-0.11466301,-0.14432907,-0.06740162,0.2265829,-0.35433942,-0.35316718,-0.2534853,-0.4553791,-0.31065607,-0.1066042,-0.46383306,-0.28930035,-0.084534936,-0.05432275,-0.060718242,-0.25893956,0.07034753,0.17783165,-0.33373502,-0.42252675,0.23222473,0.9517281,0.9504674,0.59717506,0.32710913,0.6224917,0.16620427,-0.22707202,0.019897198,-0.25859323,0.41515914,-0.016463775,-0.06537135,0.020237248,0.22548924,0.05147708,-0.091991976,-0.039004106,0.35919583,0.22751445,-0.1934169,-0.46372288,0.03415735,0.1444653,0.33704504,0.45665053,0.14256966,-0.079212844,0.2073914,-0.07629188,-0.24481067,-0.19604753,0.06828058,0.17299996,0.2644748,0.20507506,0.11667085,0.49003837,-0.23319368,-0.38070166,-0.21876462,-0.15176563,-0.026050828,-0.4371928,0.12553662,0.05379159,-0.052596148,0.72593975,0.010268291,0.08193844,0.22325376,-0.2397449,-0.45910186,-0.31455132,0.12768245,-0.48844132,-0.40626356,0.13410145,-0.14306818,0.12762067,-0.13574488,-0.079586565,-0.26027566,0.40806144,0.21039297,-0.40404287,0.21037696,-0.045810316,-0.48893306,0.18156187,0.2617392,-0.045614887,-0.26814008,-0.22884426,-0.19321373,-0.22536935,0.059612792,0.74184906,0.37914142,0.09462853,0.14950037,-0.22325024,-0.083350174,-0.2285358,0.2764182,-0.44467402,-0.15866533,0.29183167,0.19472507,0.37438837,0.10732016,-0.047164444,0.34219265,-0.093706794,0.28935206,-0.21784215,-0.3355141,-0.2107176,-0.0061285123,0.106290594,0.1921628,0.28362542,0.13587484,-0.0861976,0.3843167,-0.10851601,0.3360429,-0.1413839,0.18462753,0.32969138,-0.19160934,-0.69380033,-0.013641111,0.04841972,-0.45225474,-0.01870397,0.07857441,-0.32323712,-0.24008076,-0.5015584,0.17208362,-0.12380157,-0.30431753,0.44370875,0.119510904,-0.13571201,0.33653596,-0.05595804,-0.8187066,0.018788839,-0.30063796,-0.19988321,-0.2407308,-0.4373641,0.18757017,0.5056032,0.18019263,0.56480217,0.16077767,-0.12468031,0.18583952,0.39374974,0.007823073,0.12650725,0.59613025,-0.18016596,-0.0043639974,-0.02738774,0.27056155,0.48948395,-0.09733429,-0.65927994,0.08632546,-0.0049032466,0.024454173,0.021931555,-0.17901698,0.73191154,0.67789215,-0.23305011,-0.064607255,-0.22359891,0.11847018,0.19203834,-0.12633644,-0.09483309,-0.09459781,-0.04200908,0.09095705,-0.07957421,0.025101632,-0.051487744,0.55781585,0.41898578,-0.51012045,-0.06275724,0.033957526,-0.5040504,-0.5217678,-0.62834036,-0.28335622,0.43560243,-0.61240596,-0.09261694,0.19659445,-0.47106045,0.44354773,-0.19514067,-0.32919326,0.19241096,0.0854771,0.15713635,0.4088909,-0.51487905,0.28706282,0.3200388,0.14816745,0.015027094,-0.3883747,0.5862067,0.13853996,-0.00778244,-0.2118125,0.0519172,0.23950045,-0.0886127,0.5147925,0.20835629,0.14991263,0.29555526,-0.2273115,-0.1381495,-0.12774071,0.11759778,-0.2736662,4.9619128e-05,-0.038491674,-0.07606452,0.051304623,-0.11641187,-0.11287908,-0.13588667,0.26306972,0.026617145,0.29030636,0.30972686,0.20068115,-0.29747403,-0.29193377,0.74937224,-0.036322065,-0.65706253,-0.19936544,0.30133078,0.12556478,-0.13443926,-0.28202772,-0.14499553,0.5377225,-0.1466372,-0.5119366,-0.31184167,-0.15134135,0.39543188,-0.05337297,-0.15373775,0.052448936,-0.19268823,-0.29153287,0.28515616,-0.0077976664,0.09203194,0.1953099,-0.0964171,-0.47894198,-0.20376764,-0.28155485,0.43958023,0.16289544,0.4495675,-0.07307638,0.2475094,0.43276426,-0.74051374,-0.54349655,0.0105918925,-0.74604636,-0.30544606,-0.04925847,0.17315888,0.07166047,0.015211802,-0.12337606,-0.5229803,-0.26699486,-1.0969061,-0.36835524,0.028514521,-0.06332722,0.0132835945,0.19557498,-9.118074e-05,-0.2075251,0.33066633,-0.16961984,-0.55335295,0.041120995,-0.02252982,-0.4266618,0.15127638,0.21118943,-0.11892765,0.29848564,0.35424817,-0.116890445,-0.47890192,0.1631197,0.04004022,0.38749257,0.7264145,0.6267482,-0.49857247,-0.5656429,0.20326394,-0.0074854675,0.13192745,0.09985335,0.027631471,0.013196728,0.23088802,0.26096818,0.2527014,-0.42547745,0.10933263,0.24293415,-0.4745887,0.16836467,0.048238497,-0.2860623,-0.11800927,-0.13600872,-0.15368284,0.087751724,-0.06248874,0.1786221,-0.19042006,-0.28180188,0.1514092,-0.45580035,0.3746052,0.5308921,0.38317823,-0.013339355,0.00392961,-0.20662619,-0.35866338,-0.08273555,0.06269228,0.14295551,-0.06581242,0.1452823,-0.60247046,-0.13471277,0.21421081,0.06926088,-0.5426991,-0.29653528,0.89539325,-0.12287191,-0.36464027,0.022763625,0.12004546,0.17607865,0.27787042,0.365347,0.28432813,-0.33468193,-0.09502983,0.012131644,-0.06321414,-0.24736552,-0.074752495,0.07150633,0.13187797,0.18188497,1.0947869,0.66511,0.1230431,0.4564629,0.42729244,-0.34493425,-0.057965092,0.23785879,-0.39191604,0.66812974,0.3468604,-0.06885452,0.36780202,-0.21726613,-0.26335472,0.40503684,-0.26105395,-0.2337402,0.2706457,-0.30202693,-0.0040934626,0.40197632,-0.19352886,-0.3197486,0.41624683,0.35887456,-0.29529825,-0.051860966,0.048985336,0.0874665,0.19737037,0.3370602,-0.1764349,0.31186217,0.22557865,-0.0032835936,-0.016559374,-0.056939453,-0.116169594,-0.39402562,0.17871258,0.41642964,-0.36950415,-0.40081728,0.33713123,0.72230965,-0.044159714,-0.13729924,0.01027823,-0.20497265,0.18391386,0.030523233,0.23413147,-0.19439515,-0.5195776,-0.15102777,-0.3823599,-0.12009965,0.087077044,-0.13325539,-0.2855589,0.018885048,-0.050444372,-0.082731955,0.22950567,-0.023324622,0.48991415,0.25904945,0.21271731,-0.1407017,0.05819139,-0.23706475,-0.161703,0.16911264,-0.34857464,0.15815437,0.01738727,-0.2595123,-0.46268556,-0.3450648,0.20974934,-0.045886118,0.105121315,0.17490427,-0.022593006,-0.074107,-0.45478222,0.135748,0.19787878,-0.15750287,-0.13574155,0.16856377,0.69064903,0.128003,-0.40590012,-0.27726972,-0.26266792,-0.6636014,-0.13514794,0.10999388,-0.09068115,0.35210124,0.55158037,-0.33396003,-0.27731517,0.116037555,-0.14492096,0.022967413,0.2165556,-0.2560853,-0.0758819,0.069254644,0.2252577,0.25649863,0.12798452,-0.25935075,-0.011334491,0.9583653,-0.18014506,-0.030614382,0.3432518,0.31587392,0.2814299,0.10117291,-0.19436818,0.14082238,-0.18281418,-0.11638862,-0.17523876,0.2138999,0.5303289,-0.6162633,-0.49872923,0.34628263,-0.16851771,-0.5827612,-0.4454902,-0.20246705,-0.2420403,-0.379267,0.13377886,-0.12088986,-0.21624072,0.097595155,-0.007916736,0.19569935,0.18745236,-0.35973263,0.2743174,-0.028908154,-0.74381167,-0.61326224,0.26411295,0.22299491,0.3492321,-0.106892854,-0.572124,-0.49684933,0.22541243,0.10467121,0.10210215,-0.024087198,-0.15933727,-0.01935246,0.24963935,-0.21547127,0.016851507,0.25007254,-0.11640972,-0.034039423,0.18355222,0.11399464,-0.31276637,0.5821415,0.068639085,-0.3405803,0.06872232,-0.6112354,-0.7469214,-0.08234882,-0.35819533,-0.32379588,0.3580365,-0.10878337,-0.12565169,-0.05672319,0.24262267,0.09523372,0.091145374,0.337856,0.8678565,-0.54353964,-0.2932138,0.10551581,-0.32187593,0.055072088,0.4214584,0.1398401,0.19337969,-0.08861174,-0.29255825,-0.38258854,-0.2427003,0.05310174,0.49721587,0.432272,-0.11016915,0.39234474,0.030595578,0.45967826,0.5370753,-0.2059514,-0.7731213,0.36669257,0.6266444,0.058663167,0.17059211,0.17261715,-0.10052492,-0.060185023,-0.0062853745,0.042935267,0.42786622,0.6111153,-0.31736308,-0.3820074,0.55386084,-0.273345,0.6018254,0.4301139,-0.45906833,-0.27910215,0.050155774,0.33553055,0.155856,-0.08444277,-0.059703153,-0.6046628,-0.3862249,0.31333902,0.6293303,-0.21683712,-0.34329614,-0.04584967,-0.20761415,-0.39280137,-0.44546887,-0.105100006,-0.022088876,0.4004807,0.3465636,-0.09195633,0.00031682555,0.18045732,-0.33386534,0.07913292,0.12093208,0.2161195,-0.058079105,0.32623354,-0.33904597,-0.4170354,0.12596215,0.3443921,0.08022536,-0.13936533,-0.32826257,-0.7681137,-0.40408942,0.100985974,0.44714198,0.12615481,-0.06561312,0.15800191,-0.15328705,-0.26891235,0.6704826,0.058901936,-0.46878666,0.503614,-0.13248335,-0.37976047,-0.08355111,0.15575244,0.31519938,0.35663643,0.28628707,0.16544677,-0.09537942,-0.1336736,-0.26126933,0.24975567,0.041988637,0.26436222,-0.03689632,-0.46989894,0.010136917,0.41151255,-0.38732588,0.042868678,-0.38755274,-0.50963134,0.2885862,-0.2007883,-0.37826276,-0.34979558,-0.16178632,-0.23321675,0.43149194,0.24034376,0.018888954,0.054131493,-0.013164797,-0.37025696,-0.3626738,-0.22260584,0.16409135,-0.13918984,-0.057225473,0.1404158,0.57574433,0.32303128,-0.32535726,0.12086722,-0.43792135,-0.4059436,-0.01750832,0.1879827,-0.044421893,-0.2724684,-0.17177604,0.31119043,0.60343254,0.33889836,-0.31073976,0.19521801,0.23706272,-0.2740373,0.09078238,0.3428113,-0.5400377,0.079197295,0.31900978,-0.63005126,0.3282412,0.525603,-0.34781852,-0.22955108,-0.25309354,0.33704165,-0.37015018,-0.84186995,0.07828048,-0.56567115,0.02295831,-0.31105736,0.38233468,0.21309267,-0.6826322,0.35163498,0.35281467,-0.05413121,-0.17016925,0.19394115,0.84362566,-0.21667647,-0.68873006,-0.18264814,-0.30020383,-0.61755407,0.43497646,-0.2770424,-0.062040325,-0.22144847,0.3037043,0.36184558,0.4751776,-0.16566978,-0.29239422,-0.33228815,-0.22175752,-0.2604371,0.29725692,-0.817674,0.23021822,0.41334546,0.054284357,0.3761845,0.015087988,0.17847604,-0.30855253,-0.155219,-0.32657692,-0.4631531,0.52822846,0.22362721,0.040359277,-0.3036849,0.25176203,0.2819298,-0.22271298,0.28717005,0.10932516,0.097172245,0.06198382,-0.28921062,0.3964229,-0.2555413,-0.12338721,-0.18282157,-0.32928264,0.08128862,0.41686296,0.21095659,0.56404823,-0.02169644,0.042076074,-0.14825965,0.77394485,0.32234487,-0.004187394,-0.22461492,-0.24937262,0.15288498,-0.08098297,0.17758438,0.2667829,0.084292434,-0.33880016,0.124945216,0.21366803,0.5227165,0.5735074,-0.0061864574,0.045020957,0.035390444,-0.01205573,-0.12040061,-0.42212352,-0.009913204,-0.032112915,-0.46014914,0.03085967,0.19719788,0.13546783,0.019538272,0.17723069,0.40701392,0.5432077,-0.08200147,0.0009032384,-0.018855792,-0.22766747,0.08479374,0.32353303,-0.1528506,-0.3004736,-0.14570893,0.026986651,-0.08637618,-0.10108625,0.25023878,0.29712924,-0.46255517,0.17533694,0.15486848,-0.5147703,-0.010360859,-0.2773381,0.57095134,0.19910723,-0.10426361,0.2487256,0.43500218,-0.020190747,-0.39216104,0.106468916,0.030685106,-0.12016384,-0.28450233,0.61945105,0.28335458,0.2509628,0.035832055,0.06616969,0.20236303,0.20393471,0.23624577,0.47470495,0.032549318,-0.49640957,0.3279992,0.22983277,-0.016640177,-0.5785035,0.084386244,0.14039826,-0.15139747,0.3339955,-0.0007473437,0.060723945,0.24638668,0.11105058,-0.28461623,-0.094351694,0.29063064,0.11175221,-0.09865999,-0.056535047,-0.57331735,0.10613384,0.7155837,-0.14967035,0.13133518,0.42246664,0.050602376,-0.5732167,-0.033420105,0.011855984,-0.3411,-0.40021822,0.39614314,-0.22627518,-0.6901409,-0.15729968,-0.33174157,0.020783044,0.000109016575,-0.38916674,0.003044743,0.17263697,-0.017964942,0.4020566,0.553696,0.30751678,-0.45849282,-0.40815246,-0.46291164,0.03399501,-0.6278893,-0.6580253,0.58584654,0.16604114,0.09690992,-0.3199026,-0.029988304,-0.079966076,-0.12609409,0.045747325,-0.20239274,-0.31067783,0.029003037,0.20661137,-0.24248427,0.09622746,0.81487125,0.06737685,-0.22981101,0.47498462,0.018441161,-0.100901574,-0.0010794502,-0.21793975,-0.19419788,0.37960565,0.5914457,-0.2050874,0.1373393,0.025896588,-0.23663746,0.066761464,0.26940122,-0.22071493,-0.3763302,-0.67277014,-0.010328404,0.14619458,-0.21896115,-0.19611758,-0.43753386,0.19601253,0.056142733,-0.50597674,-0.082959175,0.18188539,-0.07365717,-0.15186104,0.342142,-0.36600915,-0.074136175,0.046370495,0.105707385,-0.022679135,-0.24570027,0.14434832,-0.0036614086,0.04564384,-0.24611638,0.024969421,-0.08606666,0.026440874,0.114402846,0.17088817,0.49058184,0.0079575265,0.27664086,0.45180425,-0.0545803,0.023223937,0.23398466,0.1022752,0.32656386,0.30348998,0.48848948,0.29599425,0.29053295,0.3559013,-0.4531012,-0.6872282,-0.09759786,-0.23935288,-0.17979388,0.2064742,-0.072652146,-0.3004402,0.09285267,-0.7219531,-0.4869443,0.29643086,0.34763044,0.36209774,0.4588213,0.3301021,-0.08246836,-0.43826917,0.08629011,0.16866346,-0.011341963,-0.038336698,-0.07961817,-0.18920834,0.017758116,0.35521594,0.5254539,-0.28325582,-0.17922546,-0.32135049,-0.1709017,-0.114285246,-0.0979657,0.3200552,0.117564596,0.20386368,0.23833546,0.33763203,0.15888216,-0.4066473,0.15298842,0.22795117,-0.2477078,-0.106554486,-0.37591457,-0.18081228,-0.32518762,-0.52521336,0.07663292,-0.33854315,0.24038215,-0.16420066,-0.2399109,0.26697618,0.049263474,0.08840924,-0.013755261,-0.07625528,0.3025665,-0.285348,-0.05807757,0.19361447,0.3087329,0.042655084,0.01257439,-0.29715508,0.012643326,-0.3067687,-0.29565325,0.32453966,0.66034573,-0.255129,-0.08920685,0.3200612,0.11284403,-0.50433415,-0.31534967,0.1909563,-0.25375393,0.25595748,-0.015375535,-0.26310238,-0.21266899,-0.03800121,-0.40083304,-0.27539277,-0.0025173267,-0.27182516,-0.023015805,0.078065276,-0.14006214,0.48597506,0.14863932,0.11590116,0.33831683,-0.1791048,-0.11062148,-0.22194731,0.38737068,0.3189339,0.016497886,0.12535349,0.68493265,0.15362103,0.06634731,0.15251265,0.15315984,-0.16594094,0.35063937,0.19631702,-0.26438588,-0.25492975,-0.3386931,0.094416924,0.18052416,-0.31466326,0.10083368,0.27800152,-0.24517503,0.085099205,0.14152262,-0.21041505,-0.05709767,-0.07026827,-0.1803207,-0.09766527,0.1300381,0.31166008,-0.312277,0.07117474,0.3687258,-0.12795873,-0.20421939,0.16908282,0.14717937,-0.387406,-0.29776525,-0.15073068,0.2569681,-0.4717376,0.1068174,0.32302067,-0.098886415,0.42553344,0.3755876,-0.33875504,0.12158897,0.2422819,0.25558734,-0.06983301,0.16211572,-0.28299218,-0.40014765,-0.26519105,-0.030061467,0.020917494,0.12956741,-0.004676905,0.16357017,-0.08450407,-0.24828681,0.061007172,-0.049960118,-0.60844624,-0.010640517,0.1427565,-0.100495,0.41343918,0.53483886,0.042622216,-0.31419045,-0.10931707,0.09148621,-0.12351115,0.09022051,0.66646963,-0.031753432,0.14997193,0.120507166,0.14423999,0.25680175,-0.07598733,0.11477153,0.11334218,-0.24734522,-0.07664184,0.27397972,0.24122855,-0.53435105,-0.26597574,0.10766524,0.3320754,0.089257255,0.14005008,-0.42749614,0.16500619,-0.4029868,-0.30394897,0.010369815,0.05849376,-0.22405626,-0.17457002,0.11000801,0.16031408,-0.090488926,0.108447544,0.33612505,-0.09240769,-0.06518951,0.14559485,0.0102081755,0.0969998,-0.04160896,-0.17094031,-0.37696016,-0.20181338,-0.5755466,0.11084928,-0.35305852,0.25883517,0.9636805,-0.06594643,0.22243908,-0.101843886,0.071219124,0.035891682,-0.15010409,-0.040854637,0.18716514,0.2772812,-0.009503592,0.24880795,0.4415726,-0.59167653,-0.6904531,-0.05395531,-0.15828079,0.014502861,-0.4725437,-0.2031096,-0.09148913,0.6988444,0.25022405,-0.27588704,0.11794187,0.9437654,-0.42319837,-0.20384149,0.5598532,-0.0358057,0.09701864,-0.3657495,-0.38770112,-0.3216712,0.36853176,-0.09330164,-0.21851592,0.56198335,-0.25571918,0.008220025,-0.49697953,-0.2028986,0.21080023,0.28902164,-0.2878732,-0.30449265,-0.023069462,-0.36544806,-0.22463785,-0.0065146517,0.5797115,-0.03510264,0.19618511,0.26525423,-0.7239762,-0.037611697,0.12335567,-0.30661887,0.22401431,-0.12510574,-0.38796896,0.45130286,-0.19782878,-0.26023635,-0.03837276,-0.5463525,0.30251968,0.5682071,-0.7614788,0.030342959,0.37756938,-0.36193338,0.41785923,-0.01852825,-0.51649976,-0.07494623,0.028010078,-0.6809901,-0.5433321,0.12031409,0.3975203,0.16197547,0.27598134,0.33346575,0.12661485,0.12629968,0.2538015,-0.15449305,0.14495018,0.30419493,-0.05602765,-0.16673951,-0.03153058,-0.20167166,0.14655475,-0.12611893,-0.19534492,0.08332432,-0.06715697,-0.41115943,0.04564378,-0.20609015,-0.34958804,-0.26078346,0.51539624,0.5975666,-0.09395139,0.30877748,-0.40460157,-0.2705552,-0.15273601,-0.56604356,-0.036163468,0.65376925,0.2095057,-0.0760298,-0.023545228,0.008599955,-0.57228225,0.4101596,0.5910431,-0.09169542,-0.091631494,0.041321848,0.02432972,0.17012411,0.1210189,0.18704933,-0.08521907,0.10309424,0.40760526,-0.14308637,0.30230635,-0.35242048,-0.27141932,0.01114864,0.124031425,-0.124737956,-0.03377476,-0.22304535,-0.10342267,0.4042359,-0.053517763,0.24499854,0.5290103,-0.34703702,0.20816292,-0.6413584,-0.4198629,-0.32387313,-0.41029125,-0.41015303,-0.0762084,0.32276118,0.5196951,0.7029274,-0.568674,-0.23108992,0.35751992,-0.68061167,-0.2444383,0.26503682,0.012261514,0.19036627,0.20193267,-0.6273998,0.08557484,-0.12020977,-0.8351539,0.14031932,0.21243156,-0.02583569,-0.48698637,0.21339086,0.06752357,-0.059810247,0.06753927,0.090495706,0.0550032,0.07099711,0.18715182,0.07362466,0.2217436,-0.3574947,-0.37226084,-0.23154725,-0.25183538,-0.3269433,0.17159197,-0.07510138,-0.45228085,-0.40038902,-0.26042992,0.22828273,0.61995393,-0.111681245,-0.18717065,-0.6572517,-0.37420323,0.10398068,0.3542775,-0.041696277,-0.12159425,0.055793103,0.010221617,0.3697824,-0.21467777,-0.13105002,0.2112455,-0.060901206,0.37690082,0.19722359,-0.12456986,0.5098524,-0.2209206,-0.15396522,0.6458987,0.03163557,0.3465739,0.6286401,0.62660503,-0.11537449,0.16171384,-0.2622593,-0.37282106,-0.089103185,-0.6755513,0.34426153,-0.50465566,-0.1995379,-0.3638014,0.0039393767,0.21271497,-0.3880143,-0.035350006,-0.28584588,0.008037938,0.009303959,-0.22177227,-0.05473633,0.07022956,0.116009995,0.42896643,0.06645935,-0.26510048,-0.15689781,-0.12435249,-0.13113552,-0.17183079,0.34031227,0.36915568,-0.23899898,-0.030092321,0.009221877,-0.36631426,0.19064443,-0.27275556,-0.30616224,0.4736532,-0.17323637,-0.06758251,0.28446218,-0.25502527,-0.5385779,-0.01856446,0.1005119,0.002490279,0.69089586,0.25737795,-0.05360699,-0.15271164,0.3044985,-0.13208316,-0.22739302,0.35950884,-0.0027228186,0.24761525,0.42357174,0.49876565,0.71367013,0.40196788,-0.14823198,0.11575413,-0.24420291,0.10453778,0.018008236,-0.3723775,0.05770496,0.21009699,0.16952166,0.1614207,0.30155084,0.3714124,-0.12817262,0.011928084,0.16267078,-0.06774156,-0.20869002,-0.40138328,0.22159044,0.44342268,0.46705094,-0.0075850394,0.26319453,0.02028929,-0.2494145,0.12507968,-0.15587899,-0.34634715,0.43875578,0.07690026,-0.57554644,-0.4199886,0.08638868,0.18767267,-0.74411994,-0.34875438,-0.2359456,-0.18598425,-0.21178111,0.15682787,-0.013953649,0.40055838,-0.10933372,-0.19030766,0.10310153,-0.18289693,-0.167429,-0.020757638,-0.047837075,0.57975394,0.19369961,-0.11615264,0.18492019,0.24741343,0.565769,0.110319704,0.14569771,0.18834974,0.044059325,0.38967216,-0.30790877,0.16283137,0.13731538,0.46244138,0.032345574,-0.42832512,-0.5131693,-0.2543598,-0.29230407,-0.2329483,0.0026118685,-0.04891052,-0.36931154,0.018063437,0.31423542,-0.18732138,-0.62615263,0.14812279,0.31871203,-0.32744175,0.19145909,-0.19049779,0.43827018,0.34620544,0.12680435,0.5083459,0.27955973,0.5177779,0.33486655,0.21880025,0.34550834,-0.51123327,0.24246341,0.33574995,0.11790937,-0.12523447,0.09535056,-0.07346829,0.07750962,-0.28323552,-0.39220598,-0.13554786,-0.19523664,-0.57791793,0.34497213,-0.07233818,-0.37526762,0.21057513,0.14774755,0.54198176,0.045185246,-0.043187607,0.14372934,0.07535107,0.0491928,-0.23006313,-0.056418624,-0.22035597,-0.020082025,-0.034250777,-0.27618065,-0.22202794,0.17413266,-0.001554098,0.111837275,0.29146534,0.41541952,0.23229502,0.24076453,0.05249259,-0.48335752,0.043111406,-0.11204682,-0.413805,-0.047969684,0.058506783,-0.36190405,-0.15032703,0.30504656,-0.4210196,-0.5705967,-0.5334823,-0.08640712,0.07721645,-0.38313025,-0.25239447,0.061264895,-0.11896453,-0.51636773,0.012485682,0.24043025,0.10354659,-0.11572803,0.39537224,0.16822945,-0.099361524,0.22418395,-0.22030295,-0.017013537,-0.12852152,-0.53958744,-0.04490597,0.4378187,-0.014596478,-0.19574471,-0.21516547,0.06348519,0.18574934,-0.24361952,0.041443538,0.40850317,0.41904953,0.018383907,-0.16330971,0.3624084,0.20473027,-0.05598335,0.23189728,0.6626024,0.24989364,0.42993328,0.52237356,0.02189441,0.6886194,-0.23212005,0.08883284,0.57274866,0.099808216,-0.020154182,0.3428118,0.22988896,0.043680534,-0.5348299,-0.5555595,-0.025800837,-0.04597947,0.35217598,0.010408552,-0.38297662,-0.5884083,-0.05974766,-0.10445818,0.089948446,0.100808814,0.40470725,0.103002355,-0.2691556,-0.21432933,0.05329788,0.1312071,-0.3498627,-0.097219564,0.08340334,-0.14107135,-0.3932506,-0.015381256,-0.32056814,-0.020539647,0.69010496,-0.5613614,-0.059673514,-0.1921058,-0.546558,0.59194154,0.21077517,0.021106124,0.7148265,0.59985423,0.24715957,0.2927545,0.1209397,0.045665912,0.27958533,-0.26689953,0.07176332,-0.21631908,0.39872706,-0.031199483,-0.8307412,-0.05446373,0.2934708,-0.12848155,0.056074698,0.44276878,0.4080459,0.27485597,0.23553453,0.13412693,0.049249765,-0.06417912,-0.10973402,-0.049668096,0.36101654,-0.062091433,-0.24578172,-0.159996,0.14356896,-0.5145318,-0.067537636,0.5579933,-0.058462262,0.11211744,-0.25243524,-0.63922346,-0.22010876,0.11673497,-0.17498133,0.5402118,0.419159,0.16931447,-0.30633253,0.22373474,-0.011046148,0.27359506,0.88042754,-0.026158722,-0.17511648,0.2540273,-0.10557279,-0.20750406,-0.649471,0.17660281,0.30286986,-0.2695381,-0.16787906,0.36733475,0.43251204,-0.2567662,0.08804251,-0.23660031,0.0030628673,-0.17727207,0.09040896,-0.021838887,-0.08115972,0.014365731,0.11732883,-0.058513615,-0.27888742,0.1461653,0.12864447,0.58744895,0.20375608,-0.46463853,-0.54302955,-0.25852662,0.024909914,0.36863393,0.4361952,-0.43519807,-0.21633165,0.20899954,0.3647443,0.19366255,0.068966605,0.025866188,-0.088820145,0.050188027,-0.108552486,0.18106489,0.096303664,-0.019267248,0.033313707,-0.18386182,0.6418986,0.11045315,-0.2462164,-0.40780064,-0.5488981,0.17737669,-0.2500496,-0.27142638,0.15981202,-0.17545354,-0.34537858,-0.06657157,-0.25181258,-0.08858414,0.026522513,0.24589024,0.19715294,0.12691188,0.12622169,0.023242258,-0.3262662,-0.13888514,0.28693518,0.37571123,-0.4139249,-0.19335273,-0.3504104,-0.027276486,-0.03520086,0.48915467,0.45455018,-0.24803409,0.42679465,0.39457095,0.14115106,-0.25062093,-0.10243623,-0.48735765,-0.46162236,0.51477706,0.0817704,-0.24314345,0.014118062,-0.28368464,-0.34087697,-0.29074544,-0.8579055,0.0817613,-0.2351795,-0.3600013,-0.07379012,0.23488738,0.01552767,0.1503834,-0.08951358,-0.088558346,-0.41975752,0.19904947,0.38079947,-0.085006796,-0.18307784,-0.46524367,0.25385088,-0.17443134,-0.24099104,0.39184543,-0.12939885,-0.0006283057,0.37095347,-0.34008044,-0.25642267,0.089771494,0.2555145,-0.112840936,-0.7557882,-0.65373266,-0.09923246,0.019946815,-0.25767002,-0.35520202,0.06662633,-0.20167182,-0.46974468,-0.11337921,0.09749582,-0.2746604,-0.3132315,0.25255224,0.34046927,-0.23435967,0.3524525,0.65779346,0.23182733,0.13669986,0.30685318,-0.12528767,-0.32009247,-0.66491866,0.13858977,0.027132044,0.0057071527,0.4816339,-0.30119455,-0.49698412,0.36121666,0.18841398,-0.41698232,0.31452823,0.28430617,-0.2193378,-0.30229038,0.4137538,-0.2708449,-0.3374089,0.45392415,0.81410277,0.3725201,-0.21735303,-0.24233612,-0.20687315,0.48822322,-0.32848898,-0.45689988,0.11782484,-0.048704457,0.253353,0.06889067,-0.07871021,-0.2536936,0.14872813,0.2302757,-0.22233996,-0.00976647,-0.14614339,0.073604345,-0.46599624,0.35806713,0.41277793,0.06786356,-0.09878412,0.011332777,-0.012230399,0.029643772,0.23292619,0.42609376,-0.31808707,-0.05761219,0.004165792,0.19250496,0.34384963,-0.0057749297,-0.012819028,-0.09524544,0.2801756,-0.32074437,-0.40117428,0.29937974,-0.22006011,-0.17364717,0.27816606,0.12888928,0.25401303,0.12674929,0.37832457,-0.1106247,0.28139448,0.0031289496,-0.5920591,-0.15571088,0.2910318,-0.17325678,0.2802288,0.24215777,0.14317687,-0.3429668,0.28393713,0.46586812,-0.36808896,0.18939891,0.2075502,-0.0045527928,0.31922168,-0.32215333,0.098814406,-0.29174,-0.012970467,-0.14688152,0.18579476,0.076482356,-0.15275069,-0.59455234,-0.2869945,-0.16718565,0.23021773,0.03473691,-0.19896121,0.32395205,0.07872915,0.049477234,0.29809958,0.4383142,-0.53345823,-0.52798223,-0.30808738,0.27302632,0.24603336,0.109133266,0.25420955,0.46051064,-0.122162394,0.58401364,0.011574277,-0.4289404,0.023334334,-0.390116,0.1285599,-0.0895947,-0.5675207,0.16481417,0.18657096,-0.19483307,-0.11726865,-0.18911742,0.00057192944,-0.23900282,-0.5996049,0.5192965,0.6268241,-0.43461677,0.65984994,0.5624119,-0.31896767,-0.020474134,-0.49974757,0.17150904,0.14653963,0.52859807,0.1681645,-0.24048851,0.16292375,0.05004972,-0.17281051,-0.3595654,0.17098367,0.0374338,0.42973357,-0.29628912,-0.102822825,0.4595592,0.09159367,-0.041747756,0.14019415,-0.24408172,0.5726006,0.19863002,-0.037668563,0.52917874,0.43235368,0.23621112,0.08451863,0.0015186474,-0.18202719,-0.28683951,0.23032424,-0.20932513,-0.25914356,-0.043003824,0.3567009,-0.19067691,-0.007865602,0.583608,0.044908535,-0.6441399,0.15099348,0.13249458,-0.4341579,-0.32006064,-0.16606933,-0.29867792,0.017062342,0.20232192,-0.48916256,0.6427375,0.16000853,-1.044697,-0.020246955,0.030280493,-0.026144866,0.27681306,0.44489038,0.10222969,0.30564523,0.08307875,-0.037727233,0.4411682,-0.3854723,0.24095507,-0.054504056,0.023801707,-0.1149938,-0.31726772,-0.12228055,0.122463994,-0.36399242,-0.10836987,0.07290352,0.56947476,-0.20677853,0.5535173,0.059964538,-0.47158304,0.099494785,0.08138431,-0.5796248,-0.22309612,-0.38563687,-0.3611956,0.25425014,0.24847691,0.16149673,0.22945063,0.3433747,0.37438712,-0.10132991,-0.33594427,0.29018155,0.5266893,-0.38642082,0.25873697,0.6309873,-0.12831168,-0.1847889,-0.1065263,-0.46180987,-0.21562965,-0.23334815,-0.3139776,-0.3828763,-0.8351024,0.4352237,0.3333508,-0.1775792,0.049251854,0.20126867,0.12576912,-0.16893025,0.39833868,0.40258473,-0.26368976,0.19258428,0.07492886,0.05226713,0.16707408,-0.12182872,0.100831285,0.1964548,0.3767495,0.15794183,0.093792014,0.21785451,-0.19840091,-0.5262473,0.06543474,0.38628578,-0.27616498,-0.076973476,0.22944875,0.3353551,0.22635695,-0.05694834,-0.20397827,-0.54643506,0.1402146,0.06278052,-0.038625523,0.09326505,0.16909242,-0.05245634,-0.32667232,0.27879015,0.12245323,-0.014925641,-0.2739387,-0.05604791,0.14917895,-0.19021505,0.12382769,-0.11840082,-0.20304775,0.37880024,-0.23935518,-0.6164688,0.15486036,-0.44888768,0.26247725,0.19688328,0.30192056,0.42711908,0.394653,-0.30512378,0.28084627,0.34669816,-0.1753178,0.15452497,-0.10342521,-0.28789693,-0.06618445,-0.21131009,0.25717944,0.47939587,-0.34328005,0.025293149,0.35919368,-0.45550132,0.21118626,0.1875379,-0.13910015,0.11999287,-0.16852343,-0.5656934,0.34017003,-0.09922338,-0.5720791,0.71054554,-0.077658884,-0.21198654,0.020310285,-0.06821163,0.21961969,0.35962036,-0.323058,-0.26851186,0.11740862,-0.31678078,-0.73042375,-0.26820573,-0.13043027,0.23832269,0.1509899,0.11604457,0.3515694,0.18621613,0.30422416,-0.06544569,-0.63460034,0.35681883,0.1786218,-0.12961239,-0.060262553,-0.19802634,0.12632029,-0.3421543,-0.5921821,0.8897269,0.32280636,-0.5323427,-0.3148589,-0.22847435,-0.3352398,0.07006709,-0.038810197,0.6794686,0.14227632,0.5927744,0.27550787,0.027626736,0.27041802,-0.037959512,-0.03414653,0.5555139,-0.4828015,0.5353013,0.6378899,0.20115162,-0.0047833705,0.052408423,0.1656785,0.3005759,-0.32863104,0.041504003,0.4733145,-0.34438005,-0.26250824,0.21885397,0.14288642,0.32040605,-0.18740489,-0.2368076,-0.14662606,-0.3995395,-0.11077483,0.42000586,0.31058767,0.62670755,-0.14377975,-0.24532793,0.2052671,0.65312344,-0.59845454,-0.13884716,0.41711256,-0.14080195,-0.044227622,-0.054151244,0.46007043,0.16764727,-0.056428235,-0.22236794,-0.1222055,0.10863233,-0.23581688,0.40759978,0.13811451,0.19022071,0.565896,0.0891913,-0.38706622,-0.15853429,-0.0025036263,-0.09385691,0.45833874,0.34078446,-0.33992893,-0.15380917,0.55660886,-0.37562442,-0.13722704,0.23599337,0.13043594,0.12514554,-0.112712555,-0.3569297,-0.6906011,-0.31632724,-0.51701033,-0.32490954,-0.021177797,-0.15079843,-0.31232193,0.11428306,-0.21495196,-0.375477,0.25172493,-0.3704048,-0.017275184,0.2709245,-0.3805036,-0.05398869,-0.22220024,-0.30866367,-0.24354678,-0.14555086,0.29019636,0.0056348536,-0.3032115,-0.09604295,0.050654218,0.30747923,-0.36248907,0.115682386,0.13805579,-0.32400015,-0.010357787,0.19529852,-0.040521167,-0.20285523,-0.2222525,0.14645311,-0.06964184,-0.033851594,0.42207116,0.3580715,-0.61898315,-0.3575577,0.085720226,0.04476691,-0.0048730555,0.53663206,0.06193322,-0.072396845,-0.31569168,-0.1695204,-0.06748239,0.13571218,0.005628425,0.32691675,-0.25826907,0.25857544,-0.32550508,-0.36527547,-0.50378704,-0.36668155,0.2146171,-0.094609834,0.67657506,-0.32668865,-0.27482408,0.14948559,-0.22493307,-0.3122375,0.427272,0.1537661,-0.48998284,-0.17441419,-0.20720442,0.23436922,0.34160358,-0.18470037,-0.0529862,0.4634193,0.020381546,0.26761505,-0.25200692,-0.16600636,-0.10606759,0.121393494,-0.020084793,0.02006856,0.073571004,-0.10518114,-0.28703058,-0.18064594,-0.062221795,-0.06981874,-0.08908636,0.22148408,-0.14254779,-0.0022539531,-0.35843083,0.17449592,0.2534426,0.40711114,0.5077106,-0.20655112,-0.12596542,-0.12824738,-0.5273842,-0.08697704,0.2559592,-0.14902607,-0.41445714,0.029644568,0.18566242,-0.054677535,-0.638157,0.3795858,0.5512387,0.045338172,0.40820453,0.21876198,0.1894578,0.2778372,0.29257008,0.087733485,0.2218656,-0.49482536,-0.30377004,-0.15508112,-0.09487253,0.45253485,0.030619236,-0.38064927,-0.076210424,0.35568696,0.34374997,0.098386556,-0.056889493,-0.10493105,-0.44813815,-1.2713536,-0.16379571,-0.30201948,0.08181342,0.30876222,0.14522043,-0.3747214,-0.28456947,-0.5429617,0.07298689,0.47176638,0.14259815,0.24193525,-0.045160044,-0.32812575,-0.17245974,-0.009301004,0.17112376,0.20670132,0.112182066,-0.03893947,0.33282083,-0.44217905,-0.30015692,0.1604843,0.62313914,0.07442856,-0.19954777,-0.08468685,-0.04600984,0.18645938,0.21680976,-0.5551403,0.46362978,0.2804889,-0.48305252,-0.056761295,0.42495936,-0.047443863,-0.101812646,0.10919447,0.29817387,-0.31574547,-0.4548787,0.07394011,-0.7218891,-0.56318396,0.39943504,-0.15757433,-0.09988178,0.19812457,-0.036098413,0.13907638,0.020107444,-0.09885434,0.4432461,0.28786418,-0.43038452,-0.37556344,-0.19128227,-0.2559973,0.0569099,0.073112175,-0.36956176,0.41223428,-0.09145744,-0.45515737,0.40097517,-0.18200073,0.3307403,-0.15105112,-0.39810324,-0.16970909,-0.39619142,0.34642848,-0.0071604135,-0.23104803,0.23004398,0.11562404,-0.43638992,0.16360956,0.041661527,-0.43616673,0.0008843456,-0.16967571,0.473204,0.15577087,-0.17921628,0.12837467,-0.6660357,0.15482324,0.20871823,0.19209267,0.23612645,0.18681408,0.08509627,-0.26150233,-0.1994646,0.55322295,-0.46262512,-0.20160028,0.2805946,-0.3577332,0.12329087,-0.11641307,0.2199789,0.56767756,-0.011829281,-0.16211507,0.30314818,0.21540405,0.19502981,0.11608747,-0.20115972,-0.1896836,0.019765535,0.19210431,-0.0690843,-0.05343393,-0.13248906,-0.2444626,-0.53454214,0.383154,-0.51645404,-0.17327876,-0.25907207,-0.5086889,0.30344266,0.31615028,0.06028387,0.20005623,0.111624226,-0.36964905,0.37554234,0.0049788086,-0.018374976,0.41991156,0.5640002,-0.21037044,-0.23789594,0.7461649,-0.20407473,0.017866593,-0.2654779,-0.2971676,0.18185368,0.36600348,-0.011645748,-0.043776058,-0.14995523,-0.11564,0.10437595,-0.29529807,0.47270596,-0.17845187,-0.19951658,0.34175333,0.24467103,0.15129633,-0.111050874,0.4460878,0.036154583,-0.14498828,0.24274017,-0.080698825,-0.12879531,-0.18029739,-0.0041305684,0.13568768,-0.07596506,-0.046763226,-0.6896338,-0.49945137,-0.0042217434,0.29431105,0.030115057,-0.38382733,-0.049258076,0.46912107,-0.42616418,-0.026512962,0.3403171,-0.10802118,0.21582061,-0.0911696,0.18980464,0.16472393,-0.5234784,0.13426128,-0.079132155,-0.34688872,0.111206286,-0.05722416,-0.28116503,0.032235034,0.0739652,0.7058481,0.31851244,-0.0051402277,-0.29481,-0.17298488,-0.3277314,-0.34410286,0.35209945,-0.48550928,-0.3369852,0.28607136,0.45297524,-0.22477044,-0.48047698,0.28761265,0.29361355,-0.24769123,-0.22256257,-0.31561592,-0.16980779,0.59394133,-0.19332996,-0.3431768,0.19468544,-0.6673608,-0.22163633,-0.41661972,0.13931373,-0.022613892,-0.31855795,0.18374813,-0.14416505,0.25374475,-0.041056246,-0.46921465,0.6095945,0.56535935,-0.26478302,-0.0069113094,0.5508579,0.13914678,0.44825122,-0.19093767,-0.28611526,-0.18534988,0.108946785,0.20767537,-0.5905806,0.58779025,0.49394256,-0.2893834,-0.15107623,-0.5516157,-0.21307239,-0.4364177,0.24135926,0.23806661,-0.21513797,-0.45755404,0.24171273,0.16368327,-0.035996627,0.02285098,0.3355796,0.39303932,-0.14628811,0.29414338,0.21569501,0.08267978,0.049449693,-0.10333466,0.15452085,-0.19665603,-0.2090873,0.043281887,-0.019567188,-0.044300903,-0.23321563,-0.15014458,-0.25912848,-0.06425435,-0.14096957,-0.010545566,-0.23660745,-0.021985725,0.41313732,0.30181116,0.2639604,0.20020047,0.44162565,-0.44652027,0.3392573,0.81220245,-0.17424822,-0.70063967,-0.054667924,-0.40691626,-0.11044351,-0.02883028,0.05702457,0.11595023,-0.027729593,-0.4185108,-0.18822189,0.11126907,-0.18410392,-0.17117526,-0.09390818,0.24569887,0.25315115,-0.2637876,-0.26891732,0.11235246,0.22126622,-0.47876078,0.0303058,0.037283767,-0.039691057,-0.3149269,-0.27458492,0.22113886,0.02356608,-0.20083654,0.11385155,0.074739,0.014783106,0.32716757,-0.097762436,0.27973312,0.30339476,-0.4367277,0.8231199,0.45732856,-0.28563714,0.24172184,0.3508192,0.050246883,0.28925118,0.5921515,0.49756506,-0.46289292,-0.25767833,0.1676915,-0.053129982,-0.1533667,-0.120145686,0.19673987,-0.41367403,-0.12287834,0.4260973,0.06398304,0.023447672,-0.40548113,-0.32019818,0.00058118143,0.32220423,-0.52717656,-0.54033285,0.5676294,0.14662904,0.02873509,-0.07510939,0.14905289,-0.30777207,-0.30552292,0.14828879,0.29882228,0.25167048,-0.22374268,0.021228513,-0.041937158,0.51085716,0.15385903,0.12224986,0.3442642,0.4415744,0.11666263,-0.31524077,-0.27389476,-0.056668997,-0.36876094,-0.043737695,0.05898812,-0.18390386,0.26460055,-0.21563788,-0.42594016,0.21812525,-0.5266631,-0.32664073,-0.22292499,-0.2545153,-0.1898698,0.013563754,-0.13934326,-0.20793009,0.23685516,0.38410312,-0.035806686,-0.37373802,-0.046233796,-0.027892498,0.0017771861,-0.3432001,0.3624905,0.42659515,0.11841076,0.3112015,0.5395354,-0.13903064,-0.08171488,-0.015769377,-0.41028425,0.09368361,-0.15474683,0.23390992,-0.101939924,0.063358806,0.07622272,0.063100174,0.053499304,0.17412077,0.57446563,-0.008670777,0.3232667,0.13541588,-0.39803967,0.3222202,0.57818544,0.061133828,-0.38519725,-0.43071204,-0.26300943,0.40806744,0.32116684,0.46719715,-0.090075605,-0.3864529,0.39439967,0.224843,-0.024264256,0.33868068,-0.18163325,-0.25567344,-0.0010647643,0.46705085,0.28605935,0.17569079,0.3179283,0.6022259,0.13264836,-0.19124387,-0.009817672,0.23538879,-0.080646634,0.009173288,0.3198456,0.06181779,0.19359599,0.31920514,0.3983401,-0.07496766,-0.2095043,0.12474723,0.2526603,-0.44193757,-0.2722832,0.22521427,-0.5110319,0.0051822155,-0.031124188,0.25394508,-0.1504017,-0.35660368,0.21720417,-0.14481178,-0.10580311,-0.2802401,0.44924718,-0.028287686,0.10658097,0.94958436,-0.46564987,-0.62310004,0.11513638,0.11371572,0.08332969,0.25045982,0.17247382,-0.122539796,-0.117061295,0.9603241,0.4983108,-0.4725435,0.15450843,-0.33175004,-0.17632927,-0.24823864,-0.14466327,-0.4449679,-0.45003727,0.027113415,0.092073075,-0.06574158,-0.0405697,0.058542453,0.088874936,-0.31944254,-0.2840329,0.37555388,0.25293535,-0.32028964,-0.017959032,0.06935253,0.25438154,-0.21411216,0.099091314,0.5349213,-0.46252343,0.45693725,0.25361508,-0.13603283,0.413713,-0.14744039,-0.1888926,0.53861064,0.21494438,0.1879166,0.7294575,0.4527657,0.18433368,-0.056466408,0.19308315,-0.00084603525,0.064106315,0.39619824,-0.17951086,-0.09736287,0.33000308,-0.4631939,-0.076409884,-0.7402167,0.14803927,0.12325719,-0.3907501,0.22551073,0.12519796,0.006268525,0.59386533,-0.28008243,-0.27748284,-0.048365682,-0.15902528,-0.1522668,-0.060737804,-0.11019167,-0.34215623,0.5801269,0.10897054,0.15535407,-0.27109927,0.3142844,0.279885,-0.086660564,-0.24659826,-0.3860894,0.27604455,0.15689468,0.144969,-0.46135956,-0.112233944,0.44028175,-0.06733767,-0.29394865,-0.22392547,-0.52725214,0.26052797,-0.097562045,0.43094453,-0.06905047,-0.36862928,0.37010494,-0.3407883,-0.23873977,-0.049188,-0.6625967,0.26363507,0.59846866,-0.06053275,-0.4359624,-0.25463563,-0.21467511,-0.32555887,-0.11761358,0.22705917,-0.47438523,0.22957869,0.5253463,-0.3719641,-0.072821856,-0.5238318,0.24010804,0.44633275,-0.64855814,0.21948418,-0.07666717,0.20037472,0.31657606,-0.1571195,0.57562166,-0.20403913,0.096185975,-0.019768218,-0.10648396,0.42471665,-0.031075157,0.16615424,0.53464305,0.039939787,-0.010764416,-0.4672844,-0.019451896,-0.36491966,0.12926927,0.564083,-0.47245207,-0.078748085,0.48845747,0.6177248,0.32301587,-0.38340324,0.090899885,-0.34347728,0.20835589,-0.47184888,-0.57019603,-0.429249,-0.20921206,0.58113223,-0.09572507,0.23292333,0.009017134,-0.58599865,-0.17652427,-0.052482814,-0.42222404,-0.36036366,0.45851317,0.35772806,-0.32937413,0.08506808,0.21821398,-0.2827589,-0.20679186,-0.03483494,-0.3547322,0.11691044,0.11361351,0.032068722,-0.1885984,-0.29058483,-0.024025014,0.15325384,0.39319542,-0.14959191,-0.0741862,-0.22718483,-0.3035596,-0.48446196,0.74544585,0.82119894,-0.30507395,-0.04899117,0.54812634,0.25813153,-0.10256164,0.3697045,-0.38180566,-0.13884196,0.18693177,-0.52083915,-0.109734155,0.057489872,0.2577212,0.018938951,-0.22518787,0.061770797,-0.3667057,-0.11571212,0.20999,-0.20771812,0.13769683,0.58869475,0.30196017,0.36359608,-0.084197715,-0.3546069,-0.061320074,0.19431113,0.09503437,-0.35665032,0.42474172,-0.12878886,-0.10344674,0.14765762,0.16018957,0.5308256,0.1409339,-0.21125622,0.7591884,0.13096678,0.24767376,0.0012450215,0.16888595,-0.084141046,-0.6064732,-0.068469204,0.00915272,0.24185133,-0.017721448,-0.03853802,0.08902495,0.21291249,-0.2570085,0.12657036,0.16608772,-0.29624215,0.715732,0.22596495,-0.101347625,-0.11725867,-0.39805484,0.31471187,0.24339272,-0.7545466,-0.42238083,0.18661764,-0.054382198,-0.5384559,0.12303409,-0.5467036,0.14052741,-0.23961046,-0.31721032,-0.04244799,0.21636681,0.043926712,0.09277581,0.15211384,-0.055480596,0.2904406,-0.4750309,-0.27909547,0.45982265,-0.38203314,-0.296901,-0.03532448,0.0639534,-0.25169355,0.09985135,0.41915983,-0.22343615,-0.12243587,0.41869208,0.116059184,-0.113393106,-0.101352006,-0.03688921,0.43029022,-0.26040187,0.1749557,0.09497071,0.2786649,0.311145,0.14059034,0.1332488,-0.14091575,0.03304525,-0.4344013,-0.4705255,0.06936495,-0.09586988,-0.3939954,0.027912075,0.026893353,0.24761344,0.28005677,-0.13784014,0.05924671,-0.033478595,-0.10054845,0.60546666,0.021383982,0.13698955,0.29678854,0.08553952,-0.5636599,0.020026242,0.29910836,-0.33543497,-0.2864588,-0.28663296,0.6103738,0.30133587,-0.089371964,-0.29701898,0.43056282,-0.0008459603,-0.62846863,0.24821745,-0.121285096,-0.3468619,-0.011033627,0.37555552,0.3105321,0.12490659,-0.2363189,-0.32507393,-0.31359133,-0.044572618,0.5534842,0.12153932,-0.11212217,-0.14098638,0.00803203,-0.06655569,-0.4923632,-0.16381443,0.0903864,0.10647229,-0.40636545,-0.16537668,0.23113796,0.084700435,0.58219284,-0.30011812,0.39554048,0.25114232,0.4692948,0.4301393,-0.5184854,0.18268184,0.15366906,0.18619172,0.105389245,-0.22404402,-0.006622183,0.25516018,0.18256828,0.40078324,-0.21711153,0.07087003,0.044936005,0.04099759,-0.008597268,-0.0787209,-0.010534046,-0.18911162,-0.016759247,0.9466624,0.15491328,0.25611973,-0.14919518,-0.019259559,0.062476214,-0.499483,-0.27224252,-0.30110225,0.052661676,0.50945777,0.23798324,-0.40970618,-0.10051063,0.07933341,-0.15160926,0.03420722,0.27925077,0.8673802,-0.20991781,-0.187789,0.4219087,-0.30077913,-0.2995097,0.028384767,-0.27820376,-0.37869558,-0.20935534,-0.3889302,-0.14132313,-0.2972089,0.022341019,-0.22356488,0.12913916,-0.546721,-0.31861702,-0.16783564,0.53427386,-0.077137746,-0.49367148,0.5072716,-0.16910622,-0.3240156,0.09547091,0.294099,-0.057703342,-0.39914653,-0.017590348,-0.06703062,-0.27011508,-0.03643485,0.020552821,-0.22948022,-0.027623745,0.038875394,-0.29948285,0.02347434,0.15624747,0.014296661,0.21293208,0.514842,0.26272807,-0.02576113,0.60120404,0.103603914,-0.41670635,-0.09860465,-0.108676545,-0.061294425,-0.44712317,-0.14097914,-0.15749544,-0.28776115,-0.14492352,0.14127183,-0.16229378,0.11813678,0.26765952,0.13272557,0.37743518,0.06111477,0.30680454,0.15928455,-0.15697871,0.17088708,0.31559858,0.38565773,-0.29902864,0.12601392,0.12889545,-0.034664385,0.13783792,-0.021792553,-0.2790702,0.57283443,-0.27283108,0.5443378,-0.33147955,0.3378139,-0.17807117,-0.49876943,0.4057995,-0.10525465,-0.07294433,0.036067855,-0.045476977,-0.19969977,-0.29031873,-0.2627274,0.2578983,0.018626379,-0.15854996,0.21475558,-0.114590466,-0.2706491,-0.380665,0.3806874,-0.2852711,-0.21429633,0.18920158,0.4403041,0.61922586,-0.22268142,0.008094746,0.05063235,0.082699805,0.7392195,0.7593344,0.56389546,0.42726028,-0.19111902,-0.43976462,-0.10788191,0.3159847,-0.15956181,-0.30799732,-0.1717355,-0.43527117,-0.05430267,-0.26946622,0.052315816,0.1686392,-0.037736055,0.15598929,0.5246299,-0.25729242,-0.13751741,0.21832763,-0.20679474,-0.5930449,-0.15173109,-0.018157175,0.21284163,-0.6419398,0.13618235,0.3987087,0.45108235,0.3211588,0.15566537,0.10334019,0.1798358,-0.15719509,-0.105258875,-0.6559396,-0.3101815,0.0473006,-0.2747609,0.2712211,-0.2592492,-0.7262945,0.10608787,-0.49442092,0.36813623,0.49837705,-0.08595705,0.66981536,-0.031766266,-0.0679775,0.3559975,0.43289515,-0.5512286,-0.3493714,0.06653667,0.047823094,0.032939013,0.19616935,-0.10107008,0.045009416,-0.2913187,-0.36371318,0.35944167,0.06288279,-0.21139169,0.23055428,0.015550194,-0.14609613,-0.09973739,0.067966275,-0.3417841,4.355326e-05,-0.61033934,0.031043908,0.6099238,-0.29451007,-0.18477347,0.35168058,0.22663729,0.41045523,0.06280634,0.020107234,0.55847275,-0.07747956,-0.52498,-0.2538445,-0.106688485,0.49283782,-0.51895833,0.29975936,0.61091083,-0.20089945,0.19028555,0.18924265,0.4112271,0.31211013,0.17924257,0.2308737,-0.32434526,0.0066953734,0.3792251,-0.2940275,-0.062649816,0.8755432,0.8312481,-0.3293952,0.46688628,0.6893323,-0.38052177,-0.49563694,-0.07105855,-0.14405523,-0.10385567,0.032720987,0.17133942,0.17425847,0.05400391,0.24589418,-0.3304399,0.07466205,0.425251,-0.03183851,-0.3689875,-0.31021872,-0.0002127017,0.031310197,-0.08662827,-0.2521109,-0.19777025,-0.07135782,-0.18833305,0.02537725,0.24402294,0.16076201,0.3931245,-0.32277676,-0.17829119,0.3047469,-0.60504466,-0.35404179,-0.7984712,-0.06267776,0.21313329,-0.23729588,-0.16605456,-0.099887855,-0.18071929,-0.53746647,-0.18247698,-0.017581813,0.025880264,-0.31654638,-0.4760969,0.015634414,0.23149739,0.15955041,-0.13474509,-0.30921325,-0.7066819,-0.15422675,0.66910785,0.037775278,0.008045567,-0.46594366,0.091821544,-0.17584641,0.2902776,-0.08037494,0.29624566,-0.23751906,-0.33059072,-0.013253429,0.16985118,0.3783072,0.020857308,0.0065080086,0.1480211,-0.19552477,0.823775,0.5983837,0.12416975,-0.095702924,-0.045074444,-0.6490859,-0.09480343,0.06794852,-0.43059784,0.22607765,0.374182,-0.43304726,-0.075797655,0.41312504,0.21666312,-0.3036391,-0.19440313,-0.285568,0.0059846137,0.3864175,0.5288625,-0.20715295,-0.42794603,-0.20808953,0.24258424,0.056705073,-0.32301345,-0.18183702,0.35378596,0.5284043,-0.2239182,-0.0886702,0.29191908,-0.09693413,-0.29224265,0.018081808,-0.3468747,-0.39277038,0.15608612,0.35812935,0.39910954,0.40153277,0.047081254,-0.25453418,-0.0032581813,-0.13083242,0.40523428,0.4356891,0.37264845,0.30507138,0.058549225,0.49813727,0.12440046,-0.21920915,-0.43748,-0.5302332,-0.19423735,-0.19551948,-0.28338465,-0.32597193,-0.0604589,0.019527333,0.02570791,0.13911043,0.58712405,-0.17151769,-0.34054157,0.14799416,-0.5309558,-0.22776435,-0.16176642,0.003908186,-0.06794051,-0.25589642,-0.12113866,0.21357274,-0.040515583,-0.22602919,-0.12758206,-0.17187527,-0.11180704,-0.4941567,0.083346955,0.22049761,0.06421247,0.029764948,-0.05556243,-0.32454634,0.068859,0.1169271,0.9516556,0.8929484,0.34669986,0.075563505,-0.27514344,-0.05273398,-0.60189104,0.01566559,0.44497183,0.24351938,0.26160222,-0.1458381,-0.2001095,0.379384,0.5541534,0.37955987,0.11935252,-0.36000115,0.04553637,-0.2504091,-0.57910967,0.1101522,0.15047517,0.11895139,0.5646711,0.31868154,0.46775365,-0.2535926,-1.0640293,0.087967336,0.19127157,-0.20842414,0.16172361,-0.5519009,0.063018106,0.30525443,-0.31717443,-0.13238329,-0.37497264,0.17382416,0.22980572,-0.38234967,0.028439738,-0.045076802,0.14926684,-0.44862026,0.16130884,0.6439471,-0.0034792956,0.15913962,0.4224373,0.7060355,0.2564764,-0.41458112,0.23217297,-0.18075915,-0.33725291,-0.118562065,-0.3565651,0.14870317,0.18000773,0.12413257,0.23846436,-0.101477616,0.25978255,0.34571654,-0.44986123,0.08235444,0.11736381,-0.5380094,0.19607872,-0.121281214,0.012261968,0.68778396,-0.1529423,-0.01587076,0.55852884,0.113906495,-0.13009393,-0.25923222,-0.17723705,0.33372003,0.04765836,-0.731373,0.15034479,0.22207494,-0.41555002,0.17590533,0.13769205,0.019514699,0.1645817,0.060113043,0.08023129,-0.10379005,-0.47475553,-0.1175864,0.55675876,0.30093607,0.14541918,0.31375098,0.06629805,-0.15780337,-0.01505734,-0.22270569,0.09539832,0.08027056,-0.32384437,0.43629363,-0.33581516,-0.70323825,-0.32034332,-0.20426103,0.16466324,0.13407117,0.03036834,0.042119514,0.08133935,-0.34326652,0.3791483,0.42174911,0.20866461,-0.07525419,-0.27733815,-0.23597878,0.13885334,0.09240759,-0.24420439,-0.6108821,-0.0024159506,0.08804813,-0.7712916,0.20097505,0.20713235,-0.5684464,0.054664124,-0.16888778,-0.09490385,0.017328883,-0.22856258,-0.18056335,-0.009832741,0.55109674,-0.12715206,-0.20700443,0.4421504,-0.64318734,-0.7857724,0.48741984,0.023389965,0.07863716,0.34830946,0.008808614,0.34768036,-0.5177247,-0.36530867,0.83392835,0.103699654,-0.3457402,0.033539638,-0.26742652,-0.5699799,-0.013577247,0.26797682,-0.2742258,0.278634,0.43433574,0.33656114,0.4055247,0.20725514,-0.0145401005,0.39838034,0.4543219,0.10871765,-0.13479225,-0.013869948,0.16714172,0.20768611,0.089037195,0.24902344,0.3224472,0.15045315,0.41797796,-0.22967745,-0.22944488,-0.38393492,0.09520882,-0.108426385,-0.069956735,0.43562967,0.24325272,0.38967717,0.23563641,0.103524454,0.06485314,-0.06546301,-0.16332273,-0.1336527,0.42104316,-0.53578055,0.20657244,0.3752396,-0.5185002,-0.08422332,0.04435929,0.3623286,0.24160683,-0.5084481,-0.085514605,0.28704402,0.20101625,0.04974032,0.2990629,0.11945627,-0.45920885,-0.037306104,0.00704877,-0.15650772,0.68092304,0.4888859,-0.35111934,-0.61626625,0.16144265,-0.3052786,-0.21974798,0.18234867,0.4483819,0.66638,0.17520846,-0.1540864,-0.22630714,-0.27709067,0.1002419,0.11089931,0.26263425,0.28584164,0.34831035,-0.514827,0.3940741,0.22681294,-0.3237293,-0.10823304,0.2686386,-0.27556688,-0.2519436,0.05238709,-0.2504953,-0.13480383,0.30706605,0.14163017,0.18460101,0.10858748,-0.2694189,0.13294336,0.5645591,-0.14089312,-0.37824696,0.22944263,-0.29664555,0.019151093,-0.44107082,0.44090965,0.40500253,-0.09666949,-0.21973155,-0.16425563,0.070777215,0.029088741,-0.08457168,-0.21040963,-0.25816676,-0.09235124,-0.007865783,0.49451727,-0.3200976,-0.2835651,0.16754423,0.966667,-0.23225759,-0.09138626,-0.010504301,0.2566419,0.077526115,-0.6449157,0.5687373,-0.6525681,0.08636854,0.019574001,-0.36365232,0.192562,-0.18607491,-0.3170692,0.32689047,-0.0025780492,0.019709667,-0.16090627,-0.33000305,0.078267984,0.41182387,-0.7781135,-0.36188743,0.33974743,0.3721446,0.22119565,-0.15731406,-0.1442846,-0.19985487,-0.1064401,0.33213577,-0.25268024,-0.08936075,0.47376263,0.08636447,-0.543439,-0.66866213,0.5287075,-0.46995464,-0.111347735,0.77680856,-0.12972207,0.020787526,0.304165,-0.17503214,-0.27403164,-0.19649653,-0.74208647,-0.4177163,0.1595425,-0.51786476,-0.39600903,-0.0155845145,0.03854953,0.076576576,0.22597204,-0.22799942,-0.29751503,-0.46035528,-0.12596509,0.4033744,0.37499824,-0.3704916,0.37697726,0.7239828,0.23480046,-0.14662403,-0.427638,0.22440389,-0.22971815,-0.14378764,0.37368265,0.21287695,0.36116552,0.06665912,0.210856,-0.16611123,-0.06205216,-0.46845624,0.020065758,0.42672032,0.09854374,0.030546842,-0.15442646,-0.0067549637,0.33890945,0.58208936,0.4609374,0.4248193,0.45794752,-0.4712519,-0.29497945,0.4642507,-0.13069837,-0.28118902,-0.18775585,-0.011931954,0.12843806,-0.09425707,-0.4602331,-0.28207636,-0.08180976,-0.10317071,0.39333773,-0.00853619,-0.19240487,-0.06104829,0.113723926,-0.19690269,0.031734567,0.08091358,-0.23287304,0.06252644,-0.010266735,0.051389668,-0.15730709,0.061757512,0.27981696,-0.4294365,0.52538514,0.6146569,0.22310114,0.094570845,-0.8358869,0.027712185,0.30289418,0.26645333,0.40751675,0.08795422,-0.1500819,-0.27428526,0.3934511,-0.17752191,-0.07817234,-0.34699473,0.37631226,0.76937395,0.10490245,0.1531697,-0.13769044,-0.21488602,0.34586865,0.31204262,0.2533209,-0.12443377,-0.0069245347,-0.19081737,-0.14639741,-0.070405446,0.38869205,1.1621931,0.2570158,-0.26664177,0.42468888,0.34926617,0.23733212,0.09218335,-0.12234723,-0.06703698,-0.30426225,-0.31051108,0.35954717,-0.10463084,-0.26054734,-0.020471206,-0.22074975,0.13573773,0.13979223,-0.06258531,0.08383606,0.14337353,-0.44100896,-0.41161996,0.16312271,0.33343396,-0.30569893,-0.41571543,-0.12032965,-0.6196544,-0.23354667,0.30728868,-0.052586332,0.13635428,0.41172796,-0.22949032,-0.31384307,-0.17944524,-0.44761944,-0.040894102,0.07201678,-0.05417266,0.0431143,0.12331239,0.018872425,0.05802148,-0.09411618,0.28918722,0.23494954,-0.57060677,-0.088911645,0.15584394,0.17013386,-0.1337872,0.49174476,0.46277797,-0.00199355,0.0624168,0.4380066,0.4375459,0.24577814,0.658022,-0.41590884,-0.20565212,0.62094283,-0.11847869,-0.17061238,-0.11665618,0.4731686,-0.086593114,0.19208023,0.47858495,-0.27406436,-0.33422974,-0.132357,0.11509447,-0.039529976,0.41330728,-0.05630779,-0.24038301,0.008365038,-0.09735654,0.14996345,0.14540403,0.12908582,-0.1933705,0.19840838,0.140252,-0.39909235,-0.08584889,0.33512905,-0.21597408,0.29164484,0.113674454,-0.37919852,0.06615382,-0.17798617,-0.22011334,-0.14709835,0.34118873,0.37011915,0.6145539,0.16012861,-0.45617822,-0.13919055,-0.25676656,-0.30803174,-0.40880984,0.034245536,0.3721919,0.23088072,-0.8266055,-0.17054282,-0.024461722,-0.24129273,0.010973466,0.3095379,0.23144506,0.5552605,0.067066446,-0.1653711,0.40973043,0.64642656,-0.4789136,0.6037287,-0.010279245,0.022846997,-0.053459067,-0.14665994,0.6643252,0.015672123,-0.8330292,0.01935083,0.3602847,-0.3349253,-0.06796675,0.022253742,-0.43323535,-0.23036647,0.3018105,-0.06729305,0.011625819,-0.1796931,0.05428327,-0.22893254,-0.6340568,0.16827233,-0.09673939,-0.031246671,-0.205132,-0.026601503,0.5902649,0.1335655,-0.023583228,0.42781815,-0.17585006,0.10174651,-0.4106703,-0.17168477,0.2479427,-0.10416553,0.11659014,0.24399456,-0.49540725,-0.43237248,0.0331692,0.14372289,-0.5560991,0.035932004,0.18403272,-0.46753472,-0.18757468,-0.051947106,0.07669313,0.14224711,-0.047116604,-0.42841312,-0.25944072,-0.035436064,-0.043863907,0.039265655,0.6795143,0.3408174,0.2635911,-0.36855176,0.49147815,0.4032302,0.0661785,0.58315295,-0.13501208,0.16076316,-0.07699569,-0.00604015,0.25303745,-0.3034095,-0.016218198,-0.37123168,0.26712766,0.028044922,-0.53038,0.3827166,0.39146549,0.47159362,-0.22487758,0.41362122,0.39427677,-0.14663906,-0.5713366,-0.54167527,-0.024170432,0.3704186,0.061269786,0.44344082,0.31476533,-0.06321572,-0.36721745,-0.20720205,-0.25253382,0.19469373,-0.19939509,-0.06291311,-0.06768696,0.10006536,0.04660968,-0.1743596,0.12666996,0.36970404,0.21320568,0.11550049,-0.09914154,-0.014588536,-0.6129731,-0.5794674,0.14337997,-0.23900272,-0.5419787,-0.47454667,-0.02642321,0.27542034,0.041030016,-0.045976873,0.006214411,-0.4676629,-0.59622467,-0.3422096,-0.03401143,-0.07693933,0.039191008,0.16189793,-0.55880696,-0.059255682,0.13629742,0.26757675,0.45667896,-0.28780696,-0.3515723,-0.19190468,-0.018685624,-0.38232166,-0.5825345,0.19398592,-0.10351722,-0.37454182,-0.011264677,-0.036551807,0.11602477,-0.3301841,0.31369224,0.32395136,0.13778427,0.20702618,0.15612279,-0.199012,0.08149603,0.076507986,-0.026778797,-0.3260351,0.1458432,-0.20122956,-0.06099015,0.43721768,-0.17066891,0.48355773,0.008721094,0.0072391382,-0.087364614,-0.2912687,0.32404527,0.052006487,-0.17165396,-0.24139258,-0.19044767,-0.0123258,0.10051942,0.898766,0.66811156,-0.26517808,0.41000628,0.39362374,0.028012061,-0.22972216,-0.5779857,-0.049294446,-0.20919952,-0.4340924,0.21446489,0.17782934,0.46690175,0.13295864,-0.040021326,0.30749673,0.6584936,0.49824667,0.44720793,0.5260105,0.12500027,-0.27874243,0.010628063,-0.035956517,-0.13377006,-0.07475775,-0.06006669,-0.13587633,-0.12030207,-0.09688642,-0.0744634,0.3632069,-0.010157321,-0.22298928,0.21550521,0.28792137,0.33379957,-0.11768157,0.13169628,0.22058,-0.10904162,-0.12002276,0.22058149,0.15416989,0.28940678,0.014255903,-0.23984033,0.0037539504,-0.02713229,-0.04531621,-0.17395817,-0.4944188,0.09515623,-0.1708626,-0.11160373,-0.24848853,-0.10262839,0.11683289,-0.21283564,0.43089554,0.1765766,-0.33852127,0.53279155,0.21870594,-0.18527491,-0.086452894,-0.58200103,-0.45194367,-0.54721445,-0.018521354,-0.28226548,-0.5868538,0.23474127,0.052111983,-0.3168192,0.41228238,0.043230806,0.0022201599,0.49293554,0.40439934,0.039719418,0.51498437,0.33668798,-0.19076058,-0.23615418,-0.11229329,0.061864242,-0.3872441,-0.40160236,-0.5581175,-0.5414943,-0.26147646,-0.5075736,-0.22288339,0.022446547,-0.5526978,-0.24907419,0.1689774,0.35012937,0.008890931,-0.3277239,-0.028888132,-0.03981401,-0.16716826,0.31427816,0.16408344,0.07921987,0.03241862,-0.038343374,-0.15515362,0.31388426,0.37805575,-0.034330837,0.5027667,0.2697762,-0.22095464,0.34025863,0.13995907,-0.48260114,-0.3778242,0.0014722684,-0.064212784,0.1053225,0.26549485,-0.43903786,-0.23134387,0.24671343,0.00451944,-0.050720476,0.35406566,0.32487756,0.016095417,0.36053395,0.17201486,0.23857327,0.11963555,-0.17205699,0.12118848,0.14412767,0.35006016,-0.3010394,-0.07730844,-0.31311145,0.18968222,0.9245224,0.09373806,-0.1228998,0.11437966,0.064022526,0.0017993137,-0.17269461,0.20189476,-0.47735834,0.069380604,0.6310187,-0.49530652,0.24077779,-0.24217519,0.21109194,0.210485,-0.024508413,0.10563322,-0.37158778,-0.10462348,-0.18396123,-0.57396615,0.028058408,-0.23310363,-0.15619016,0.12487821,-0.2921492,0.7122985,0.5117676,0.0340832,0.7911296,0.23669346,-0.49956813,-0.18906665,0.32519445,-0.30145836,-0.10275481,-0.55241317,0.23042533,0.0026111945,-0.76591665,0.28810742,-0.051038884,0.18211089,0.64166504,0.35775024,0.5401612,0.19489911,0.108673364,0.029174345,-0.18559103,0.2396576,0.09517955,0.29515347,0.49482566,-0.27667156,0.019999554,-0.10018254,-0.25993267,0.182149,0.24207109,0.08011105,-0.16190666,-0.60423124,-0.5433781,0.10682275,-0.42427766,-0.45644048,-0.33796838,-0.119645156,0.17128524,0.2822672,0.039658327,0.068800926,0.35441226,-0.112479165,0.4028107,-0.28618422,0.17302012,0.38940957,-0.4421946,-0.39084002,-0.033685803,-0.08596828,0.10031876,0.22747818,-0.07120924,-0.25923637,0.33944517,-0.2281529,-0.22787835,-0.013167419,-0.013823424,0.055700548,0.26732296,-0.3945396,0.009312128,0.3322789,-0.26293477,0.47833288,0.26129183,-0.23831321,0.20935744,-0.078429736,0.20704167,-0.06899845,-0.5574039,0.25913084,0.06319095,-0.8908187,0.057850737,0.31072524,-0.26218128,0.26185083,-0.05790284,-0.15191858,-0.007962134,-0.1302991,0.36956242,0.5266836,0.15010302,-0.07516175,-0.20272416,0.1632858,-0.6887313,-0.2797404,-0.2038046,-0.3503234,-0.23941495,-0.0016814179,-0.090501174,0.1559084,-0.06601616,0.03916126,-0.17017943,0.099653825,-0.5511684,-0.39813128,0.3926547,-0.07713112,-0.33579272,0.025036545,-0.25383863,-0.27015024,0.42285585,0.18310069,0.47673672,0.23136003,-0.38074586,-0.13821672,0.07618354,-0.20993024,0.08351514,0.23399472,-0.6065106,0.069421925,0.20206359,-0.21293679,-0.16803956,0.17004819,0.6084169,-0.025446009,-0.042149764,0.119979024,0.16176866,0.064261116,0.17443205,-0.21148077,0.48929638,0.18900643,0.18988258,0.27272046,-0.25810358,-0.15503652,-0.07353319,0.1494478,0.102345765,-0.27800563,0.33950135,-0.035259686,-0.1289032,0.5965102,-0.02714966,0.07999689,0.6036607,0.08952068,0.22294024,0.16820225,-0.3736104,-0.15219612,-0.4195843,0.25889403,0.04990763,0.14658622,-0.52435607,0.11005716,0.40025416,-0.6370584,0.05434767,0.35847408,0.15950483,-0.30336526,-0.21958669,-0.2990477,0.04124776,0.23222989,-0.10406233,0.2584873,0.19328086,0.26839596,-0.04352875,-0.33685234,0.5168399,0.07184308,-0.64174443,0.24246183,-0.020248923,-0.17694916,0.11907049,0.15985262,0.8221922,0.19728085,-0.21764435,-0.24483022,0.23154692,-0.028890898,0.34472883,0.56953615,-0.07665419,-0.5301143,-0.09610684,-0.89908063,-0.10288366,0.091191076,0.06674176,0.18001054,0.08306348,0.30203855,-0.27453142,-0.43690616,-0.1293497,-0.0050556003,-0.053240504,0.18992712,0.13550617,0.014866747,-0.029969035,0.17042737,0.18376532,-0.23238644,-0.3705436,0.07021596,-0.2110313,-0.035794914,-0.3548183,-0.3962549,0.3041183,-0.34233215,0.05441995,0.023468439,0.18549547,0.63290626,-0.0072389715,-0.52390635,-0.40040016,-0.31164128,-0.007940896,0.15456581,-0.26853922,0.14859663,-0.33191505,-0.66341054,0.24899738,0.15494351,-0.062408514,0.49218118,0.1728369,0.25990877,-0.06735913,0.016356919,0.34113365,-0.060595356,-0.21677065,-0.47543013,0.30244893,0.44043842,-0.2410592,-0.015083959,0.28176567,-0.5883808,-0.14408632,-0.04469632,0.0093125915,0.095041044,-0.1428189,-0.12174196,-0.2016985,-0.8873276,0.08707659,-0.0004093133,-0.45003605,0.6076836,0.055556558,0.3275487,-0.24340007,0.052697618,-0.113479175,-0.12842138,0.030585969,-0.13497998,-0.16105406,0.01770917,-0.0048736185,0.25078505,-0.14691526,-0.23401722,-0.16181527,0.20538802,-0.047048576,-0.60111713,-0.16543408,0.4162491,0.42051336,0.14184132,-0.22306572,-0.8213809,0.5414241,-0.040920015,-0.33783564,-0.6203957,-0.13805774,-0.07867931,-0.33170813,0.07840942,-0.15589695,-0.4939407,0.58199316,0.10008493,-0.57683504,-0.28711438,0.12399332,-0.096084215,-0.29507214,0.17826566,0.29041395,-0.059785925,-0.5520176,0.30684182,-0.6734242,-0.36691904,0.29148862,0.2754508,-0.06649117,-0.4473628,-0.28485608,-0.15449052,0.43287873,0.3787193,0.47314107,0.28638235,0.24850462,0.059448656,-0.011023654,-0.16529071,-0.04072077,-0.15458536,0.06960605,-0.44517356,-0.0084791565,0.63339543,0.121837445,0.11551592,0.086691916,0.14989595,-0.26841024,0.13288873,0.37837762,0.5024942,-0.06605673,-0.83063984,-0.12374093,-0.37787074,0.19225718,-0.060319554,-0.2736739,-0.33223605,-0.3883067,0.76576096,0.52960217,-0.28039348,0.79398555,0.49552548,-0.31121328,-0.23885275,0.19138882,0.17872556,0.38657656,0.15793534,0.34202957,-0.1522005,-0.26057777,-0.015399486,-0.3042739,-0.17816232,-0.22193377,-0.78845674,-0.10822906,-0.54704255,-0.72913224,0.1940046,-0.14167838,-0.111917004,-0.44999853,0.32849374,-0.008914513,-0.13118632,0.055366598,-0.3284821,-0.3419982,-0.21154812,-0.102078035,0.0029091625,-0.31375834,0.33927596,0.7120762,0.1254129,-0.0076390044,-0.07439738,0.5329618,0.5936758,0.0068082246,-0.23908804,-0.232423,0.26720792,0.057231616,-0.022415388,0.15107219,0.0441064,0.54899836,-0.15489687,0.16085492,-0.26801965,0.05912461,0.042848825,-0.22954552,-0.014525485,0.3830373,0.35150164,0.13973275,-0.15767281,-0.013664564,-0.23359832,-0.1169967,0.0027175674,-0.5913858,0.09452622,-0.4270421,-0.27673125,0.24471715,-0.09610018,0.06908372,-0.0558944,0.4436109,0.45102718,0.16480862,-0.15479092,0.26509166,0.65260696,0.3214664,-0.44156536,-0.27685,0.36328462,-0.2256928,0.29313827,0.15760575,0.24376321,-0.19114073,-0.51307505,0.39250988,0.29092655,-0.25323266,0.29112643,-0.26976272,0.28254643,0.27059633,-0.27148855,0.34052998,-0.21562535,-0.27511656,-0.35010418,-0.44664595,-0.041424535,-0.4285841,-0.33972043,0.26320538,-0.8104853,0.017598309,0.49199107,0.011435385,-0.14682275,0.058983546,-0.010564229,-0.08912169,-0.051035453,-0.16082698,-0.3974371,0.13454582,0.22663663,0.14961651,-0.09791024,0.6377096,-0.36464477,-0.13325837,-0.010144563,0.0668624,-0.47906053,0.026745966,0.08010081,-0.099621154,-0.11744085,0.20282722,-0.0553929,-0.49878126,0.12843078,0.43143824,-0.12178732,-0.085235946,0.029600833,-0.08227411,0.11036369,0.16865084,-0.16968971,0.0077033825,-0.083741456,-0.48511928,0.08151111,0.2012453,0.17053494,0.75552976,-0.38316515,0.026677184,-0.16406041,-0.18320628,0.06487824,-0.45489922,0.08751127,-0.0071336743,-0.38016734,-0.11925963,-0.047552872,0.3794514,0.110641226,-0.50970566,0.31124672,-0.2279735,-0.13272919,0.30132377,0.6100318,0.03617523,0.35142505,0.19062975,-0.3889957,-0.032918353,-0.64357543,-0.52955157,0.2534243,-0.705214,-0.35217702,0.9401444,0.0119665,0.076493084,-0.15931463,-0.2552751,0.030906253,0.041164767,-0.39224017,-0.79933375,-0.40924194,0.068673536,-0.10702721,0.07953402,-0.08304102,-0.23309398,-0.13335809,0.09376164,0.14528972,-0.17514133,0.09599828,-0.16208093,-0.23576997,0.78096074,0.34005046,0.10371394,-0.014486082,-0.56530875,-0.5227068,0.038266227,-0.03981431,0.2582608,0.21375246,0.1211209,0.11072251,0.25709555,0.22683436,0.03277515,-0.07722648,0.13630301,0.22642414,-0.5266677,0.28807458,0.10252826,0.31250697,0.22657661,-0.12662143,0.45101357,-0.11946585,-0.09821756,0.049761195,-0.30132988,-0.10390705,0.12327417,0.3723313,0.09291212,-0.5939557,-0.08825037,0.049770534,-0.31349668,0.15029891,-0.14561327,0.25846153,0.110971704,-0.4762003,0.007861863,0.41575962,-0.19953819,-0.038779985,-0.18214492,0.019305062,0.36969984,-0.3544982,-0.21212745,0.11674284,0.27696857,0.51690304,-0.12752478,0.1930573,0.15307406,-0.44302377,0.12393804,0.17067239,-0.063316435,0.3547271,0.22318065,-0.25683606,0.27005935,0.13268606,0.24265255,0.046127662,0.06470561,0.16263753,-0.59656703,-0.26874033,0.2865021,0.01674767,-0.48959306,0.426718,-0.17382994,-0.64619356,0.2239026,-0.30988216,-0.15417871,-0.08290501,0.18726195,-0.094484076,-0.6390215,0.23890889,0.37791198,-0.038186166,0.41726267,0.28114268,-0.017775733,0.12755209,-0.33516556,0.57411534,0.43323526,-0.43933675,0.22634722,0.046991423,-0.19782738,0.13201113,-0.011080974,-0.3764405,0.16464336,-0.015583935,0.12923482,0.34391823,0.3569421,0.19798057,-0.14724652,-0.5867509,0.41051468,0.40199172,0.4196695,0.10333108,-0.42645356,-0.18886176,-0.01793777,0.3861968,-0.29338703,-0.43691024,-0.3342129,-0.07249017,-0.108016185,-0.3781125,0.03432046,0.10532982,-0.6763283,-0.26976448,-0.11181555,-0.31392783,0.37741473,0.052151717,0.09609335,0.088496245,-0.26053593,-0.30431095,-0.40700367,0.29980424,-0.2016841,0.055123135,-0.11008747,-0.23981969,-0.014897033,-0.32510218,0.16629116,0.12821807,0.15401249,-0.42093125,0.1819588,-0.140961,-0.1535371,0.12417604,-0.5067714,-0.37835282,-0.09464418,-0.7184356,-0.09138677,0.102008104,-0.4597035,0.4998412,0.27408248,-0.010107504,0.19183019,0.17448223,0.03214656,0.5936176,0.5978103,0.9805346,0.26705635,-0.38104945,-0.25808522,-0.005551249,0.05283693,0.07336076,-0.122693226,0.21063554,-0.024685333,0.06349672,0.13116191,0.14842579,0.5856735,-0.22188874,-0.033997398,0.4451683,0.08149962,-0.35188866,0.38029838,0.076235525,-0.05820778,0.105302535,0.2489424,0.42640182,-0.37594903,-0.16819912,0.46812588,0.24578905,-0.41333026,0.19997168,0.770396,-0.10067881,0.19554533,-0.49645257,-0.36836,-0.056190316,-0.074442096,0.50293607,0.028580358,-0.07407065,-0.08284552,-0.19428001,0.38673905,0.3265089,-0.15515436,-0.07427469,0.025703633,-0.23912103,0.30207127,-0.33473763,-0.37544674,0.35348228,-0.43733373,0.2766669,0.16121806,0.4986259,0.7280282,0.07310157,0.12379355,-0.12409541,-0.71246165,-0.47833782,0.36051443,-0.5156782,0.1625905,0.30231804,0.4741346,0.48331565,0.05222253,0.11195324,0.048221424,0.12921469,-0.72644305,-0.3751568,-0.1153569,-0.5083066,-0.17521346,-0.56559837,0.35656634,0.45377597,-0.34262735,0.07444526,-0.15400034,-0.22709207,-0.037204552,-0.22208142,0.4862901,-0.36556706,-0.14091271,0.01713361,-0.025709026,0.23585686,0.061655425,-0.24769871,-0.39656445,-0.031177487,-0.22547625,-0.13937862,-0.164032,-0.116619945,-0.08585865,0.07505383,-0.017411415,-0.10419115,0.034382522,0.71774036,0.5144481,0.20935577,0.046060998,-0.22373326,0.1626998,0.5072502,0.5950069,-0.1048774,-0.14026305,0.20527594,-0.60418856,-0.26379058,0.26952034,-0.23637195,-0.61712074,-0.9672366,0.15666395,0.0019216412,0.12394155,0.43282178,0.15158416,0.37107155,0.0013149473,0.23188756,-0.1245301,-0.29901934,0.47930485,0.14584969,-0.3670741,-0.0002510407,-0.3163315,-0.018042179,0.5024523,0.15630373,0.12436927,0.029174319,-0.26463214,0.7392392,-0.03920734,-0.017518133,0.30672786,0.114361115,-0.20214261,0.29281965,0.10245029,-0.3637392,-0.22694741,0.020285476,0.40406168,0.4190747,-0.42634606,-0.17290722,0.017060023,0.2081248,-0.26279265,-0.2931907,0.2400058,0.18956709,0.22294387,-0.20809431,0.2999543,-0.29083106,0.1910228,0.032047033,-0.3888611,0.45316425,0.26828095,0.42926133,-0.1197007,0.6255002,0.30609637,-0.5898312,0.4117644,0.15715812,0.070448674,-0.023528123,-0.31529775,0.24141338,0.024183404,-0.2212972,0.10709617,0.19476275,-0.03451723,0.10412492,-0.0187726,0.43522924,-0.028949037,-0.10189568,-0.20729719,0.40083522,0.040113833,-0.052897923,-0.26767793,-0.36132306,-0.12793848,0.17266701,0.23184314,0.307641,0.5273488,0.041101288,-0.25519422,0.07292551,-0.22131935,-0.33617127,-0.120899156,-0.21678084,-0.6587298,-0.37617663,-0.12118128,-0.12853728,-0.8012882,-0.42180407,0.055811014,0.3340186,0.5773422,-0.4111368,0.17978072,0.36778218,-0.40366617,-0.014356142,-0.010176409,-0.20984578,0.474861,0.22327706,-0.120097734,-0.32917306,0.0646134,-0.14967903,-0.12933758,0.4324493,-0.105610125,0.02223758,0.59740955,0.11715195,0.0008199863,0.058578562,-0.1367362,-0.07472626,0.05702698,-0.18918878,0.056389444,-0.17233777,-0.53365576,-0.3193877,0.089049734,0.08575162,-0.3486617,0.32574266,0.2438666,0.12501128,0.6120701,0.40985897,-0.24991265,-0.23397666,-0.30242097,-0.6371822,-0.029333688,0.56322694,0.16622183,-0.43520695,-0.15849894,0.2599014,-0.027341781,0.07985224,0.29129288,-0.01319746,-0.14467731,0.15714948,0.3753913,0.4624298,-0.15173227,0.5129807,0.2187844,-0.6445776,-0.07180069,0.04997472,0.38293704,-0.76583374,0.22545755,0.36499998,-0.28423858,0.26752138,-0.028688457,-0.3923468,0.1745543,0.13645272,-0.16745935,0.071957864,0.44224495,-0.19335985,-0.57333684,-0.5869374,-0.23127222,-0.21030591,0.7555662,0.7445445,0.36067155,-0.26257616,-0.29402193,0.2564995,0.006376527,-0.112493634,0.017875306,0.25517032,-0.3877225,-0.6073105,0.051547542,-0.23749287,-0.09246314,0.16336036,0.011508666,-0.30177167,0.0026569355,-0.448713,0.44286174,-0.23482479,0.8516008,0.51234144,0.1742465,0.28596008,0.15844448,-0.08564686,-0.50504494,-0.09778745,-0.45097092,-0.03596195,0.34637946,-0.26700413,0.21939942,0.5506222,0.012761148,-0.10058725,0.11366358,-0.33982745,-0.33543366,0.10998841,-0.025472876,0.028333979,0.16823015,-0.0207054,-0.026084563,-0.063667424,-0.41237232,0.004272755,-0.10355456,-0.5707601,-0.26817918,-0.48390698,0.15980996,-0.31990805,-0.2249115,0.13158946,-0.08108531,-0.12162242,0.44172966,0.26525223,0.017708335,0.33927092,0.019323077,-0.2340581,-0.27874923,0.02973708,-0.2601391,-0.46566898,-0.07911993,0.01766113,0.43740168,0.021424634,-0.66919345,-0.2847087,-0.15344344,-0.021252964,-0.44991738,0.08575227,0.49854073,-0.1346084,-0.50608605,0.2182772,0.08455832,-0.58005935,-0.05667632,-0.20191635,-0.15342672,0.28208277,0.025577866,0.30272394,0.20976993,-0.03878825,0.06370306,0.118647926,0.19594496,0.019805742,0.0073728873,-0.09555182,0.27106288,-0.114896834,-0.12986629,0.75874025,0.17674977,-0.3685195,0.48044494,0.026292756,0.24851362,0.10146955,0.025527129,0.20485374,0.03496547,-0.04567602,-0.0848377,-0.57415724,-0.05776197,-0.09442896,-0.24934693,0.07119127,0.44866842,-0.09884821,-0.33040076,0.26886493,0.09319688,-0.4305777,-0.11026915,0.13471003,0.10743306,0.4902458,-0.025831558,0.08293212,0.31890377,-0.23689125,-0.30050087,-0.75454104,0.71107996,0.6928688,-0.23555495,0.34272215,-0.05460593,-0.22807248,-0.20949206,-0.7334895,-0.15518942,-0.22607347,0.15224516,0.21657453,0.42074245,0.08506608,0.080221586,0.30120456,-0.17321898,-0.061388887,0.06651994,-0.42188147,0.16461696,0.24121012,-0.09276587,0.07034986,-0.30645278,-0.032730754,-0.2734014,0.14916557,-0.09306578,0.07760081,0.19000825,-0.19487976,0.46395248,0.04330338,-0.11666312,0.080873385,-0.23728727,0.041862432,-0.018885372,-0.27242073,-0.10598945,0.5517676,0.13394164,-0.46571487,0.19705905,-0.005187745,-0.46419656,-0.025148252,0.41255715,-0.1444719,0.32464147,0.14982013,0.112189114,0.015688157,-0.36772582,-0.3855511,-0.17334591,0.6165124,0.16722183,-0.023641085,0.32669747,-0.40462896,0.08710415,0.008296805,-0.27709654,-0.26470497,0.042848118,0.6486017,0.37567118,-0.03860077,0.42468998,-0.029112352,0.4493277,0.3785593,-0.4255676,-0.15332486,-0.080677025,-0.54759026,-0.103261404,-0.121630125,-0.2495239,0.38245597,0.16461694,0.44997042,0.19693367,0.77485347,-0.06294828,-0.08556325,0.47452772,-0.16745278,-0.28680363,-0.09005244,-0.5862504,-0.10747383,0.0945678,0.21113867,0.13022767,-0.0229773,0.22572099,-0.3412467,0.1421988,-0.11483783,-0.40812075,-0.041760433,-0.34109426,0.32719868,0.36547586,0.512342,0.53243935,-0.2724403,0.042720206,-0.65254515,-0.7366062,-0.018890584,-0.46700674,-0.04411076,0.04742106,0.00042770515,0.45489863,0.2849525,-0.22192669,0.11512098,0.42082044,-0.01088778,-0.20569493,-0.102377094,-0.14159939,0.06599298,0.010798134,0.17324875,-0.5123015,-0.3716104,0.2573449,-0.20391934,-0.30500475,0.08566235,0.02692339,-0.5872552,0.36491477,0.2320132,0.03224733,0.44204745,-0.27898818,-0.33386472,0.36710736,0.020995498,-0.38095748,0.20821726,0.009470147,0.07955209,-0.033266224,0.28197342,0.16975014,-0.24556766,-0.50730675,0.06427509,0.069077276,-0.19435167,0.27296376,0.41889432,0.19938444,0.06635287,0.0051728897,0.41405416,-0.4407618,-0.20988864,-0.11346846,0.18017294,0.26870584,-0.29358009,-0.19097887,0.2571727,-0.3831088,0.34334376,0.86325365,-0.08735512,-0.48054045,0.039107576,-0.33898035,0.09487928,0.22070095,-0.28486028,0.42902184,0.68695605,-0.075425416,-0.026287163,-0.18059154,-0.10656668,0.33020672,0.13078,-0.25339887,0.16153614,0.1971692,-0.10622257,-0.61890894,0.16323686,0.00060552824,-0.13156319,0.0797381,-0.01610707,-0.5448607,0.02617288,0.280629,-0.013738811,0.16298011,-0.7510103,0.029882312,-0.5382524,0.20088844,