0.10278599,0.007877673,-0.002311827,-0.106651925,0.0002501075,-0.092779584,-0.0030508637,0.055453897,0.04435246,-0.044196654,-0.06483617,-0.06043824,0.020753182,0.037816424,0.11972714,-0.078822725,0.087846495,-0.11809563,0.016099112,-0.064934745,0.088842094,0.022022087,0.034269627,0.015042014,0.0707091,-0.07679233,-0.004762368,0.021047106,-0.07103308,-0.035743024,-0.0042870166,0.0568941,0.0046167164,-0.036293276,0.013460276,-0.040889706,-0.0326645,0.07810482,0.0413918,-0.03615508,-0.0311938,-0.058064487,0.11112004,-0.011927977,0.04516406,-0.0038994057,0.08059736,-0.07083504,-0.014705104,0.021479392,0.09270041,-0.028750734,-0.081402466,-0.017754799,-0.11870065,0.010677712,-0.026052542,0.07396346,0.11828273,-0.058221698,0.014258333,-0.009145336,-0.029027075,0.07755435,-0.07536747,0.1659147,0.016712833,-0.085490584,-0.047641248,-0.13161361,0.13000718,-0.065489136,0.08468663,-0.04872221,-0.08408681,-0.023045393,0.020578507,0.01604765,0.08318475,-0.113959245,0.100148134,0.046710484,-0.052648578,0.029503675,0.01497535,0.11880607,-0.051301416,-0.063293085,0.024747498,-0.07053587,0.03889037,0.024216197,0.009638272,-0.064678915,-0.1392986,0.054444462,0.019755008,0.055684566,0.012095106,-0.08251162,0.088586025,-0.048868366,-0.037428115,0.06425929,-0.03495288,0.098806776,-0.14203559,0.08608715,-0.02215611,0.098958425,-0.021673435,-0.004215524,-0.047322355,-0.06451091,0.020578317,0.021607138,0.014636341,-0.025456399,-0.009584184,-0.044392075,-0.012074218,-0.010509206,0.043458425,0.044478163,-0.05850351,0.037147865,0.015501098,-0.00053644716,0.057983845,0.031497627,0.040697176,0.000108700246,-0.01934348,-0.019447574,-0.063524105
-0.081827015,0.12159905,0.1874318,0.15066163,0.2703853
-0.01668711,-0.035947613,0.04707411,-0.02596247,0.032064676,0.015292153,-0.031032205,0.036194015,-0.012460512,-0.0231885,-0.009231056,0.055620424,-0.043353356,0.08240303,-0.022145104,-0.01980176,0.03715637,-0.057314757,-0.035073593,0.014874529,0.024580145,0.03725722,-0.08985569,-0.008033593,0.017683322,0.053351328,-0.051401295,-0.0021711101,-0.014544117,0.0037112306,0.009609919,0.026328571,0.0017411256,-0.043213416,-0.02892691,0.08743319,0.07264985,-0.08679349,0.04569886,0.025970455,0.05619161,-0.115068845,-0.042725004,0.046021998,0.01885446,0.003882089,-0.08612877,0.06511731,0.09089286,-0.008968409,-0.04984159,-0.03737187,-0.018703857,0.016467797,-0.055715736,0.035727385,0.013814621,0.0028189828,0.011770892,-0.040510222,0.026529187,-0.007858721,0.02717574,0.0432114,-0.04153909,0.013261703,-0.082539886,0.044416703,-0.0002744821,-0.018659959,0.05651259,-0.06236092,-0.06537937,0.05559656,0.05811545,-0.0059170797,0.0017003021,-0.03327459,0.079163305,-0.04328225,0.008323024,0.014449212,0.032706704,-0.04921461,-0.05318043,-0.015979555,0.06165844,0.031113174,-0.032481015,0.044404607,-0.02376887,-0.014411976,0.029104361,0.02014247,-0.023139382,-0.013811908,-0.029097758,0.027738975,0.017070912,0.03359242,-0.041031014,0.05841094,0.037615392,0.04211168,-0.057033245,0.023776986,-0.052462604,0.013700768,0.020614171,0.03409875,-0.012679344,-0.053759046,-0.0071891607,0.016178686,-0.020791722,0.026923174,0.01729781,0.020862054,-0.06913605,-0.03335666,0.009962058,0.0014208504,0.06490264,-0.08314338,0.08944117,-0.06804138,0.017394159,-0.019060781,-0.05359832,-0.059785154,0.07219662,0.08476534,0.010878209,-0.047479935,-0.0667103,0.06473523,-0.02997544,-0.065790154,-0.06737948,0.008057222,0.124380164,0.0046310904,-0.016000494,-0.056002084,0.015917087,-0.0437927,0.11525429,-0.06314668,-0.02180224,-0.062791355,0.087860204,-0.0016361342,-0.037639983,0.02921491,-0.0017955323,-0.06349475,0.0710302,-0.063438736,0.07344547,0.07386322,-0.09355717,0.040523116,0.008806642,-0.049765915,-0.005609834,-0.07098071,0.09120357,-0.074043915,-0.10941336,0.06961292,0.05618505,0.010150856,0.06260738,0.014567928,0.008664132,-0.004141052,-0.02347814,0.073030934,-0.029958434,-0.004996041,0.031326532,-0.032360204,0.039016202,0.06675235,-0.064371146,-0.051490296,-0.035677284,0.015439007,0.06468646,0.03774842,-0.083128385,0.013967877,-0.039467264,0.0630074,0.096375376,0.03594964,0.039467283,-0.1437054,-0.02654259,0.055666253,-0.011671289,-0.08307432,0.07229994,-0.099360995,-0.039593726,0.02082498,-0.011743823,0.037075177,-0.10417064,0.047164917,0.09520132,-0.036124215,-0.028009934,-0.02273494,-0.04033976,0.06598234,0.027021354,-0.02465138,0.041167345,0.07282186,-0.060715556,0.0019098901,-0.07685793,0.06134052,0.032706574,0.02868867,0.061909072,-0.031521343,-0.05434787,0.05213974,-0.05635404,0.018122803,-0.036692463,0.037785962,-0.069604665,0.031098263,0.041261498,0.058208052,-0.09333089,0.01175895,0.0012708997,0.060991805,-0.035247497,0.031303678,-0.07177184,0.02618301,0.077922046,0.04943069,0.0150083685,-0.059138972,-0.036973678,-0.031353846,0.063856006,-0.09965775,0.07214612,0.033703525,0.008781493,-0.06164597,-0.108099125,0.1171894,-0.03865349,-0.017181147,-0.06867335,0.05165366,-0.058051616,0.06344668,0.025943028,0.05693941,-0.07092902,0.021665206,-0.06721277,0.042547137,-0.038892582,0.08955891,-0.02803311,0.044956632,-0.0115452,-0.040399935,-0.013429252,0.065934576,-0.03899299,-0.03201114,-0.06737577,0.07708505,-0.012028798,0.012431522,0.07520656,-0.07962158,-0.017804625,0.011401452,-0.037136212,0.046940733,0.010661681,0.023086514,-0.010862012,-0.037802774,-0.006761661,-0.053755,0.04264387,-0.041492414,-0.021851296,0.039195966,-0.013845724,0.027122492,-0.066179164,0.050234444,0.024332568,0.0451122,0.023077434,-0.009283453,0.011667388,-0.05964967,-0.042790003,-0.006477174,0.06315594,-0.01330146,0.01919758,0.02239807,0.023891274,-0.03384209,0.0045819976,0.011150308,-0.078164406,0.03770549,0.07063547,-0.10996679,0.034574833,-0.012206344,0.060627993,-0.046664845,-0.08825677,0.059266157,0.011652036,-0.056906603,0.08763587,-0.044084363,0.094942436,-0.08324638,-0.049531236,-0.09722565,0.031536758,0.085459545,-0.037770852,0.0356598,0.042115975,0.043993097,0.017411156,-0.049183145,-0.037577514,0.050527506,0.034592327,-0.04983821,0.031252544,-0.0012261299,0.05049994,0.04912204,-0.062078014,-0.037288062,0.062291656,-0.054396093,-0.02242846,0.049241677,-0.0608709,0.03939498,-0.07069928,0.067955345,-0.06185523,0.066481,-0.026205031,0.049175642,-0.07119358,0.021259287,-0.03213315,-0.07214508,0.037763294,0.0071915057,0.111011066,-0.062170174,0.025397854,0.038815744,0.043383285,-0.04703674,-0.015478413,0.06745024,0.036784,0.004996092,-0.07582786,-0.010150474,-0.028052947,-0.0069607063,0.035096023,-0.060954735,0.07510403,0.045557633,0.0035900506,0.03406485,-0.03405708,0.015716815,0.012070782,0.03119606,-0.047907095,-0.016745042,0.0055147586,-0.0648372,0.03205659,-0.0042715375,-0.038729314,-0.019721841,0.0054495637,0.019690858,0.017996233,0.006354738,-0.023885299,-0.017568922,0.048340857,-0.0923146,0.079991356,-0.07886389,0.083191894,-0.04911894,0.0651286,-0.07640234,0.014975229,0.0115621425,-0.050819427,0.019777998,0.0016017695,-0.026055822,0.08489914,0.075694785,-0.038949203,-0.07763587,0.08486036,0.05062502,-0.037400395,-0.15296043,0.053042796,0.004586412,0.022695767,0.0857257,-0.0022912093,-0.041907877,0.053655047,0.0073430873,0.032507308,-0.096789844,0.058018193,0.060780574,-0.008620783,-0.0052940054
-0.70059747,-0.4685333,0.7362799,0.027347222,-0.32155907,0.10955468,0.6121872,-0.7847774,-0.09545052,-1.1297977
0.01002607,0.012079836,-0.03659082,0.02566734,0.026250424,-0.019488603,-0.06324644,0.036583953,0.0019347528,-0.01642218,-0.031652812,-0.04342497,-0.013631565,-0.000962095,0.06412035,0.0014723383,-0.01808533,-0.02617596,0.0020098067,-0.017064901,-0.032245256,-0.014052413,0.045944516,-0.013937752,0.034480974,-0.028332919,0.027595632,-0.021939108,0.017043965,0.050105978,0.009454959,0.058870584,-0.025715426,0.0357524,-0.008535285,-0.041427065,0.03772413,-0.00024591494,0.004434201,0.03444637,-0.009924343,-0.013385105,-0.01876735,-0.014670351,0.032360356,-0.018039962,0.015409842,-0.0098522855,0.019820146,0.015809767,0.025467418,-0.014894029,-0.05444565,0.006453739,-0.025041923,0.0009992792,0.010724229,0.009770916,-0.00034859902,0.022396604,-0.09534465,0.038947277,0.0025358081,-0.007545289,0.008559685,-0.0068213013,-0.009556396,0.025863424,-0.0069226595,0.023534814,-0.023322215,0.015650071,0.037629448,-0.055708017,-0.015839439,0.0038285407,0.010516038,0.005974284,-0.013137182,0.0027737005,0.025207158,-0.021392329,-0.02697099,0.03114353,-0.0025692075,-0.004331016,-0.020943929,0.009780122,0.025471736,0.009370803,-0.00608457,-0.022395356,0.0048237806,0.020242298,0.04214255,-0.07257164,0.01691323,-0.0109773595,0.034476187,0.00901613,0.027175404,-0.027108831,0.016971879,0.0045483853,0.004463431,0.028181158,-0.030585123,-0.024577687,0.02639333,-0.025828267,0.015881518,0.0023785112,0.006179635,0.021270296,-0.0132807195,0.03531824,0.014618368,0.02227929,-0.004237978,0.0007929965,0.069031626,0.03842347,0.0020995548,0.024074659,-0.03173434,-0.017011382,0.032795783,0.036707874,0.017677244,-0.046591975,-0.043982204,-0.028505532,0.022234945,-0.0030681686,-0.005138144,-0.00093707157,0.021281838,0.02283084,0.03845398,-0.0047224984,-0.008842963,-0.012400469,0.026469182,-0.045290887,-0.015899932,0.019462898,0.0046174293,0.020959387,-0.007857219,-0.018110601,0.03965226,0.033187594,-0.0015712844,0.020348562,0.009816233,0.010872983,-0.009683941,0.013268389,0.012634243,0.0057876776,0.019099262,0.03125097,-0.03504991,0.030487929,-0.01846965,0.027688652,-0.0045487494,-0.026349965,-0.020143116,-0.00854328,0.010318615,-0.02355357,-0.012120997,0.044341475,0.0145499855,-0.033730857,0.0018209679,0.0014799659,0.001406911,0.038969122,-0.014528055,-0.0054349536,0.019159677,-0.0031911638,0.014261295,0.026011327,-0.03265091,-0.0026150465,-0.0016500844,-0.044386744,0.017184947,0.0039427336,0.017575022,0.035333563,-0.011500284,-0.01232481,0.014837089,0.016635263,-0.013546553,-0.011038628,0.00988167,0.0022311239,0.007481859,0.015523523,-0.017392503,-0.03807455,-0.024358274,-0.005593821,0.008894859,0.00598271,-0.00714482,0.054000318,-0.022860378,0.0020675275,0.011423928,0.02020568,0.02504168,-0.0075582643,-0.010544541,-0.006570008,-0.007220615,-0.039251756,-0.01618749,-0.041594915,0.026035493,0.044544075,0.031867508,-0.0056999065,0.013782346,-0.038253628,-0.020774933,-0.014125822,-0.031967755,8.7686145e-05,-0.039068647,-0.0058599478,0.045162704,-0.003070751,-0.030763287,-0.00033024448,0.011900827,-0.013494403,-0.055405427,0.01237775,0.020324847,0.009618252,-0.018424558,0.0014177824,0.008879798,0.013617607,-0.011828663,-0.0010078349,0.003625178,0.023415118,0.0058661564,0.034816448,0.023282873,0.025242789,-0.0069793914,0.02669127,-0.033586305,-0.013533404,0.020169927,0.0048872316,-0.024325343,0.022603467,-0.022977937,-0.011187332,-0.011845358,0.0028394298,0.011741294,0.0046689087,0.007245722,-0.02413271,0.013431667,0.0077015413,-0.051107857,0.029488478,0.028855506,-0.025306104,0.019510193,-0.012200903,-0.026116489,0.0026565427,0.029239349,-0.0010133476,-0.015411646,-0.027433122,0.02671853,0.010365018,0.0025059737,-0.009999775,0.04110839,0.004378734,-0.027374364,-0.007999232,0.037871584,-0.010450688,-0.05003467,0.007410352,0.019334232,0.01332004,0.0043367967,0.05029496,-0.010856973,0.0062720077,0.026435584,-0.01824128,-0.0060966127,0.02161171,0.0060783895,0.02730961,-0.003637368,-0.008605328,-0.008061583,0.009693452,-0.0384318,-0.0045941435,-0.023455203,0.014821689,0.017811377,-0.021881977,0.0123049095,-0.018369034,-0.057679135,0.009989105,-0.007396094,0.045984805,0.015394031,0.018762294,-0.016954267,0.011234303,-0.02694108,-0.01756953,-0.0140437335,0.022095704,-0.011194729,0.025794273,-0.01516209,0.05341828,0.0094931945,0.04576309,-0.002133289,-0.025585985,-0.061150257,0.01129713,-0.037318144,0.00017424156,-0.006176834,0.027772833,-0.005790027,0.022192298,-0.0034387948,0.03517391,0.026023546,-0.02134609,0.015558764,0.0088677155,-0.0029447004,-0.026141658,0.029406808,0.014252571,0.018486721,-0.0133863,0.023924226,0.008549635,0.0020668688,0.0063202647,0.029475411,0.018621942,-0.017615765,0.007709515,0.0015568378,-0.0025372566,-0.0016958746,-0.044047456,-0.033137508,-0.02409858,0.02677202,0.004979469,-0.026734926,-0.021975629,0.037551463,-0.01864987,0.0005247538,-0.018015293,0.028805733,-0.004350428,-0.033154458,0.00043261895,0.014914633,0.021806892,0.009591064,-0.0149938,0.023508098,-0.005830028,-0.05713972,-0.011689007,0.030680545,-0.01590558,0.0106340805,-0.012496238,0.008440765,0.01033457,-0.021739447,0.020651143,-0.012383169,-0.020353857,-0.029504463,0.0069493707,-0.00030461457,0.01642836,-0.035169832,0.03443145,-0.02803823,-0.036056392,-0.03794308,0.047064498,0.0017276776,0.032861933,-0.01474861,0.029518917,-0.0019479502,0.023590924,0.0010029547,-0.0014939868,-0.032090522,0.00050480454,-0.0150954705,0.025201548,0.012998964,0.03215948,-0.034420896,-0.00021985086,-0.010461979,0.006211034,-0.02658233,-0.03182468,0.0014255374,-0.019799639,0.011938469,-0.013068432,-0.0012724636,0.030368645,-0.02443785,-0.02794655,0.019302651,0.0035744512,0.0050462736,-0.009410221,-0.012443728,-0.0038276303,-0.010579392,0.031299274,0.01330731,0.009411083,-0.004800699,-0.002997536,0.0040722885,0.039691124,-0.044499014,0.0034124753,0.05572556,0.0075328513,0.0008988573,-0.00934464,0.016993256,-0.056032844,-0.009431246,0.05487155,0.0035233372,0.009176553,0.004428948,-0.0082107,0.039171178,0.0089567285,0.0061921934,-0.016065568,-0.005603272,0.01059191,0.040447965,0.010043866,0.01560602,-0.004842705,0.0071733226,-0.03541711,0.011926244,-0.009155189,0.016317125,0.010753571,-0.044998918,0.041473508,-0.032774772,-0.021065613,0.0022184865,0.046616193,0.014046529,-0.037071776,0.012271105,-0.013719556,-0.045380995,0.009756788,-0.02318253,-0.014786856,-0.00065343274,0.00024360842,0.044289034,-0.030529357,-0.021262702,-0.013189794,-0.0008645739,-0.009004422,-0.0034713882,0.01551029,0.01830411,-0.020908898,-0.025318291,0.0046569384,0.03630298,-0.014401525,0.035531614,-0.028829155,0.016589114,-0.022069255,0.019888971,-0.02824987,-0.01829113,-0.03640289,0.0036493808,-0.019702142,-0.05130279,0.0063544996,-0.018562855,0.004038785,0.017250974,0.0013550343,0.032397345,-0.009027708,0.023979751,0.03854017,-0.016314145,-0.04410838,0.036560204,0.012574108,0.001746099,-0.0231444,-0.003905957,0.009301792,-0.009982114,-0.011862773,0.015705835,-0.025174187,-0.022305531,0.005058488,-0.001228092,0.00712767,-0.00079182396,-0.007838712,-0.04492966,0.012668025,0.029158102,0.007638324,0.020920994,-0.018086452,0.010974336,-0.03120727,0.015380599,0.018868119,-0.022885932,-0.014220043,0.011619931,0.02583877,-0.018336179,-0.0028246073,0.0022063274,0.020699374,0.0070126927,-0.030917875,0.012119627,-0.014784841,0.008690766,-0.025561433,-0.020557558,0.0046031913,0.0031988332,-0.021972967,0.009982154,0.015197839,0.021344522,-0.023110515,0.0024410926,0.023706257,-0.022553684,-0.03404146,0.031410422,-0.032697503,-0.012273934,-0.026716841,-0.0077724815,-0.022376848,0.0417227,0.013499391,0.020529257,0.032202784,0.019719912,-0.005444869,0.01736505,0.014651575,-0.023918482,-0.0094091995,-0.004236388,-0.028458921,0.025512306,-0.0011321194,-0.025225379,0.013211104,-0.025418635,-0.0021574243,0.020359257,0.027607363,0.04246486,0.047046516,-0.05052284,0.052020542,-0.0151625555,-0.024861239,0.015268599,-0.018289825,-0.01656816,-0.018566476,0.04655416,-0.03470509,-0.011647171,0.029140668,0.014109566,0.025634887,0.025882699,0.025929421,-0.040688977,0.03179029,0.014787853,0.039318718,-0.001229124,0.009883922,-0.03521675,-0.029517666,0.010311301,-0.017508026,0.0033942112,0.0013813027,0.004090304,0.026747203,0.017901143,0.025589028,-0.032498322,-0.01971514,0.008309176,-0.0058289813,-0.03216116,0.02168402,0.030571494,0.002724881,0.011779197,0.024218358,0.0064067626,0.04949918,-0.022413503,0.011797925,0.0019713521,0.016363496,0.03338599,-0.03054104,-0.06231505,0.0020369792,0.0077240993,-0.006796962,-0.041241795,0.03692511,0.02954273,-0.026258236,-0.02271637,0.035618525,-0.0037506656,-0.0866357,-0.0012690772,0.028663304,-0.009491746,-0.0024302534,-0.0062724506,-0.017028496,-0.06188914,-0.012387214,0.006886902,0.024642283,0.023043519,-0.0034188097,-0.018222392,-0.0009378649,-0.05713787,-0.021973481,0.021515321,0.0055933064,-0.017775955,0.0035554888,0.027137915,0.015576157,-0.012956163,-0.012788807,0.021161702,-0.029964782,0.015619346,0.004724386,0.015941981,-0.03584108,-0.022258453,-0.003567077,0.043175608,-0.012627513,-0.0032577957,-0.021089824,-0.0041041914,-0.0048371623,-0.008921311,-0.025282232,0.013264363,-0.020407496,0.017447464,0.04339162,0.008989984,0.03311731,0.032373894,-0.013416631,0.013608936,0.010523185,-0.006571689,-0.0053322325,0.0091906255,0.02627192,0.0016230402,-0.016800165,-0.023619413,-0.023005491,-0.016338922,0.0050731963,0.009259954,-0.0063282014,-0.024748435,0.010115884,-0.010976959,-0.0046083652,0.013412396,0.03440767,0.016630521,0.01416201,-0.015810052,0.0053889183,-0.023871323,0.0145680355,0.031075995,-0.009208583,-0.071342774,-0.03207472,0.035104472,0.027363492,0.059275754,0.021276113,-0.0075933817,-0.00087651063,0.03487713,0.034692064,-0.011050609,0.0040875906,9.8132994e-05,-0.0049909516,-0.019673659,-0.026792075,0.03981816,-0.020184532,-0.013885006,0.017978642,0.0036492213,-0.029479736,-0.005383791,0.013236252,0.01751572,0.021971783,-0.0019711715,0.029032951,-0.016731665,-0.003727632,0.030188669,0.011223753,-0.031728994,0.0019674858,0.0049075903,-0.00029273969,0.049388733,0.024163228,0.0005592529,0.028127262,-0.0031279384,-0.013158214,-0.020143453,-0.014900782,0.001979473,0.008795555,0.017532919,0.0070657423,0.019143559,0.005240206,-0.03164855,-0.026455048,-0.004310387,-0.010185034,-0.023574885,0.0049866317,-0.02765954,-0.04987157,-0.035985686,0.009023547,0.007522671,-0.044205297,-0.0062669734,0.007834062,0.02596364,0.015933614,-0.023496734,0.004514748,0.027493177,-0.007927179,0.038457412,-0.0072737704,-0.018955206,0.046315733,-0.0033455354,0.01214895,0.0075877034,0.011630115,-0.02199675,-0.006157769,0.010618227,-0.015100116,0.021040196,0.004234976,0.0063644615,0.014838206,0.017585,-0.023016494,0.025836706,-0.016665965,-0.015388726,-0.022209546,-0.022956435,-0.010708983,0.0065459386,-0.03522113,-0.014818374,0.016806182,0.050579946,0.017070794,-0.018886076,0.011483762,0.015597345,0.0080334,-0.02355709,0.004127847,-0.017514406,0.009177659,-0.003964044,0.020825984,0.013263054,0.02318809,0.0076261363,0.0011585392,-0.044898964,0.02045918,-0.035110734,-0.01720326,0.007649086,0.03237906,-0.009659046,-0.010932609,-0.006447218,0.013601659,-0.0014333926,-0.025316754,-0.02448285,-0.008985875,0.055520937,0.014738496,-0.01390037,-0.020163704,0.003671615,0.044681117,0.021291789,0.004563379,0.014816931,0.027463313,0.00959971,0.023580577,-0.02437605,0.006302346,0.011011932,-0.022038065,-0.0072017154,0.014480165,0.004170814,-0.007192517,0.014300407,-0.034693245,0.00484835,-0.01956051,-0.008726857,-0.0025027462,-0.030847749,-0.043596655,0.01764443,0.0006182785,-0.024255393,0.0045756428,-0.023437113,0.0017518896,0.016421283,0.008585832,-0.028513538,-0.0016716768,-0.017939333,-0.012927012,-0.027798522,0.010222944,-0.0057439897,0.019450672,0.0060444186,0.019670108,0.026674889,-0.011694292,-0.0015507103,0.013328294,0.003965719,-0.000583922,-0.0033639593,-0.007386856,-0.004842232,-0.00025573315,-0.030286739,-0.019847745,-0.0008369641,-0.012386916,0.0061893812,0.02828925,-0.010663848,0.0063259583,0.0054955194,-0.013880513,-0.032136902,0.015015217,0.03348465,0.0031361126,-0.0056889257,0.0056289043,0.030578854,0.01406711,-0.012835175,0.0201823,-0.018992199,0.013876772,-0.0373577,0.0052884985,0.008592585,0.007549586,0.055055205,0.004245592,-0.028796118,-0.026866298,0.011395525,0.024657177,0.0057944683,0.0019032472,-0.01498471,-0.039175265,-0.02058651,1.2831768e-05,0.023829184,0.018959474,0.019979086,-0.0005511371,0.0074925493,0.023716161,-0.014088858,-0.025065739,-0.022831043,-0.008859174,-0.032674316,-0.0037859133,0.0013191933,0.016761294,0.003892356,0.0013764022,0.02594342,-0.0045924964,0.002572269,-0.0261914,-0.016491683,-0.013882301,0.014317905,0.031541873,-0.0011190734,0.002709343,-0.024147782,0.015123689,-0.02004247,0.00067689945,-0.03788383,0.030308973,-0.017887468,-0.022984508,-0.02832838,-0.045314204,-0.029817602,0.04701783,0.03243814,-0.007608081,0.02980145,0.00631432,-0.025462057,-0.0016915248,0.014170685,0.026230004,0.010869264,0.007960386,-0.006859403,-0.03394742,-0.018370364,0.02161888,-0.017271746,0.02949687,-0.007826351,0.016204167,-0.0020914422,-0.008694876,-0.010501509,-0.004871909,0.0064997147,0.007070586,-0.0006777759,0.0114166895,-0.006494387,-0.0010622515,0.0065070027,0.0064849625,0.023779616,0.019472275,0.0017037702,0.007440407,0.012837435,0.015459867,0.016758753,2.6509893e-05,-0.016058162,-0.025487266,0.017672563,0.036626715,-0.0044787773,0.007215563,-0.024526425,0.02558051,0.0041771047,-0.0038749084,0.035169356,0.018138494,0.03576978,-0.011974913,-0.0071778316,0.01557196,0.020066738,0.004766395,-0.04790144,-0.038421888,-0.006383586,0.021596393,0.0217046,-0.026618607,-0.03401434,0.022216953,0.016310057,-0.019365694,-0.0018234483,-0.029160332,0.0028812352,-0.005032141,0.04380743,-0.0074516437,0.01232341,-0.013378375,-0.01092502,0.018265588,0.02388959,-0.011103803,-0.0052381554,-0.012708673,0.047990374,-0.027605759,-0.006587885,-0.029759223,0.023704931,-0.017908178,-0.013863054,-0.044336352,0.008431453,-0.032980803,-0.04015454,-0.02904192,0.016655697,-0.030391524,0.032163713,0.013682694,0.012820992,0.013262836,0.032346684,0.042619444,0.029937087,-0.020484792,-0.009472867,0.030118393,0.010713214,-0.027247483,-0.005474506,0.047297712,-0.010841076,0.0046036327,0.025341861,0.028350143,-0.06451281,-0.013783159,-0.021215353,0.001151502,0.0132788075,-0.03663077,-0.02174597,-0.038446184,-0.03519274,-0.017272368,-0.011861094,0.014512658,0.0033249434,-0.00045220638,-0.016312571,-0.01596805,-0.0027663938,0.007198115,0.008053128,0.004692129,0.026103796,-0.027538916,0.026331201,-0.012966319,-0.0035747539,0.021117685,-0.009016459,0.016409822,0.00093126384,-0.005919156,0.011917292,0.009273346,-0.00015331151,-0.016829077,0.020618055,0.0038045293,-0.010142622,0.0022317867,0.019092992,0.0102849165,-0.013596052,0.02435682,-0.007229988,0.026741432,0.022725387,-0.019867664,-0.021511203,-0.017590944,-0.00519569,0.022606798,-0.0016736526,-0.014789376,-0.017838236,-0.016291117,-0.0107574,-0.03266101,0.003173346,0.03154306,-0.00660483,0.024014639,0.0124624055,0.033853855,-0.018758269,-0.011033241,0.04491332,-0.014860635,-0.025722947,-0.002683414,-0.03787615,0.0067332285,0.02964275,-0.008014475,-0.0073088473,0.023621486,-0.0034387424,0.000831982,0.041858863,0.006407052,-0.0031944658,-0.012788973,-0.004268775,-0.03810582,-0.017435193,-0.01982273,-0.0017635458,-0.035117038,-0.03990946,-0.015926272,-0.012329514,0.018969113,0.021094171,0.0014812171,-0.020260625,0.016729288,-0.027738804,-0.012778497,-0.015269517,-0.004726708,0.018516662,0.03659377,-0.016809976,0.010957328,0.0219689,-0.008849581,0.011292407,0.0010355989,-0.026894411,0.015813254,0.02091717,-0.031306077,-0.021362646,-0.0038325917,0.021987345,-0.012802735,-0.034303304,0.04273372,0.032612,0.0047468864,0.005734676,0.04375295,0.004146046,0.010345593,0.00927155,-0.0041893343,-0.0365366,0.046637684,0.0055203,-0.054067627,-0.019207535,0.011098546,-0.01976934,-0.0035866164,-0.032965265,0.0014956921,-0.012792214,0.02817502,-0.007444915,0.043661095,0.022206083,-0.025752995,-0.013860333,-0.006136932,0.027087329,-0.040110163,-0.01114199,0.02822285,0.0055339793,0.009681608,-0.012696494,0.00611571,-0.061731845,-0.011552558,-0.021699527,-0.020036219,0.04952001,-0.050913222,-0.0021495887,-0.0064734123,0.00038236286,0.061734598,-0.028226541,-0.041448034,0.02335843,0.016572649,-0.011059399,-0.034238305,-0.013770004,-0.0071883905,0.000670309,0.035798874,0.03475925,-0.03329541,-0.029217273,-0.041520882,-0.02145433,-0.008079008,-0.002494817,-0.028752591,-0.034585986,-0.0049601234,0.045587644,-0.013195939,-0.00541145,0.009796216,0.043281052,-0.010918618,0.029036008,-0.016991967,0.004735946,0.0083105685,-0.008274817,0.019115532,0.043259118,-0.01993235,0.00920585,-0.026544744,-0.02167309,0.010431443,0.010365453,-0.0008713883,-0.01977661,-0.023972655,0.011097256,0.0005737923,0.0058388826,0.03256181,-0.030657232,0.0036640314,0.020223735,0.008932277,0.005383291,0.034793746,-0.034269482,0.0027643978,0.007500207,0.032447644,0.0010216795,-0.035151083,-0.027088804,0.007302216,-0.0056358357,0.04939219,0.036420096,0.008790136,0.022494977,-0.0024851037,-0.0016507712,-0.005377741,-0.0025626605,-0.03826743,-0.009395427,0.061774377,-0.022057474,-0.0026882992,-0.029728124,0.018715473,-0.056666587,0.029185077,0.011819851,-0.010982287,0.024175188,-0.022671226,0.041157022,0.027179286,0.013095111,-0.016538013,0.01028646,0.061493006,-0.007042498,-0.018947875,-0.0016309601,0.032885127,0.0018601652,-0.06620765,0.015967727,0.009286792,-0.009360962,0.032270245,-0.010632024,0.009796452,-0.010579799,-0.010495162,0.02857063,0.0013116683,-0.055669617,0.024298375,-0.0026950631,-0.022317214,0.009641888,-0.06353129,0.012472417,0.005754628,-0.036469966,-0.008367168,0.014387019,0.030619023,-0.0028172054,-0.00057224993,0.015232234,-0.036366038,-0.0061276676,-0.07215065,0.023076933,0.024260066,-0.0007377565,0.016370364,-0.01844587,0.020117108,0.005309515,0.010864942,0.013198241,0.0010182677,-0.020218149,-0.02952894,-0.019676268,-0.034013335,0.025857555,0.015794601,-0.03432621,0.029844468,-0.024490753,0.02667946,0.027222306,0.034646694,-0.019230187,-0.0018885203,-0.02258038,-0.0010711094,-0.014703805,0.00679328,0.007711462,-0.016044227,-0.01883425,0.03550716,-0.02187921,0.03585908,0.020378426,0.015611535,-0.019467339,-0.003305068,-0.04074798,0.0074310405,0.028201368,-0.020583274,0.008164155,-0.04206646,0.007171724,0.010525615,0.02228259,0.01084294,0.0057120426,-0.013067105,-0.019692821,-0.031159349,0.00058412406,-0.02440456,0.021381706,0.021846568,-0.0009440409,-0.015941262,0.03294023,0.029751433,-0.03539082,-0.006823699,-0.00757834,-0.0035848203,0.041161034,0.0010571413,-0.009662411,-0.041340757,0.028999884,-0.02145828,-0.033999935,0.0054523046,-0.035754025,-0.0059359465,-0.021079289,0.012858267,-0.01832618,-0.03352437,0.01743952,-0.018889835,0.020944715,-0.02677918,-0.03631653,0.016121043,0.014408882,-0.010574623,0.007555996,-0.010141553,0.01728977,-0.03731717,0.0011250624,0.009874004,0.0142027205,0.0033249578,-0.019017765,-0.01800328,-0.01849183,-0.004394559,0.0067506107,-0.011278833,-0.007642919,0.02270899,-0.024330528,0.043323286,0.005138237,0.017232498,0.030052314,-0.009328054,0.020690097,0.002620642,0.01928008,0.008002974,0.01818186,-0.011821387,-0.028439973,0.0011097359,0.020012453,0.0049801967,0.0037523927,0.011387893,0.00073249766,0.018006671,0.007093207,-0.004411048,-0.01446049,0.0045675845,0.0030350427,0.0127354115,0.013357106,0.008616382,0.009308147,-0.013944153,0.008930494,0.014509231,0.011758719,0.009062447,-0.0106582,-0.003044238,0.0002582752,-0.023313347,-0.023750803,0.03200324,0.001372887,-0.03508387,-0.0048659416,-0.019264678,0.024838425,0.024337124,0.02771657,-0.015764778,-0.021841075,0.010128126,-0.00034664272,0.0373147,-0.01590125,0.023735259,-0.027379243,0.016959012,-0.028067982,-0.0047097798,-0.016596302,0.010763698,-0.026525147,0.014839392,0.015238276,0.020179903,0.009756306,-0.017716272,0.0031707785,0.01668091,0.03452148,-0.035981517,0.011145179,0.0064641587,0.00010104688,-0.0064212047,-0.009812738,0.033641327,-0.003712751,-0.0079252105,0.020707864,-0.003402645,0.03731911,0.0018339956,0.014752181,-0.011591918,-0.021446425,-0.019899284,0.011972425,0.018911963,0.048893437,-0.055262186,-0.020579088,-0.018451288,-0.02598821,0.018756926,-0.0044861757,0.0416425,-0.025610324,-0.027184047,-0.012148087,0.04229505,-0.016160905,0.036224812,-1.5209938e-05,-0.0125550935,-0.009757273,-0.006519824,-0.0029453172,-0.008733483,-0.008894715,0.039763425,0.025648091,-0.04863458,-0.031104531,0.0056397915,-0.04784706,0.011418284,-0.000979647,0.007307378,-0.003688458,-0.02284191,0.02341216,0.022205751,-0.025726253,-0.006296785,0.0411263,-0.011407735,0.00816634,0.033181243,-0.016690675,-0.03224294,-0.004483236,-0.024918323,0.0077450806,0.01655873,0.0014572745,-0.046562526,-0.009466986,-0.043459445,0.026830997,0.0037621914,0.03238875,-0.024928885,-0.007754585,0.026072651,-0.0006105433,-0.013471751,-0.055838447,0.016297063,-0.01925116,-0.0037626293,-0.037316393,-0.0065033273,-0.028794847,0.008123573,-0.018191181,0.007570772,-0.0019360086,0.037520662,-0.0179417,0.014461403,-0.0017306252,0.018175341,0.036217704,-0.013298049,0.03347956,-0.027572311,0.01702904,0.0029580505,-0.005177313,-0.043738294,-0.00969023,0.035021327,0.006799314,-0.00042557478,-0.012809648,0.014227224,-0.035122223,0.015928457,0.010618753,-0.019545643,0.016348856,0.030954361,0.0026854093,0.0034382076,0.035188086,-0.01068984,-0.03841845,0.0012640415,-0.009800959,-0.029641155,0.023554215,-0.03496053,0.019586768,-0.01983893,0.010310915,0.041331146,0.02058789,-0.027967095,0.006252088,-0.039184783,-0.015785467,-0.019876486,0.017063158,0.015345408,-0.009105418,0.003957534,-0.041170705,0.05320783,0.0037300566,-0.0049496694,0.046954703,0.019219683,-0.0109745,0.040077914,0.037991706,-0.03481369,0.009433192,0.023227189,0.003219561,-0.00021047227,0.01958112,-0.021853575,-0.021356678,-0.043427464,-0.02122372,0.05116748,-0.04378589,0.0061968034,-0.007266669,0.016456772,-0.0009962879,-0.018724125,-0.027384102,6.6193235e-05,0.024490243,-0.008498943,0.01138846,-0.018808203,-0.0003419198,-0.0044031744,0.04193894,0.0074358075,0.014583403,0.008982292,0.010137042,0.013041208,0.025030723,0.027497048,0.029659586,-0.007950536,-0.02082472,0.005195463,-0.019390961,-0.005670059,-0.020418005,0.008590156,0.021286285,-0.0362121,-0.02676286,-0.0326367,0.00323885,-0.002669053,-0.030835403,0.022130158,0.0065662377,0.020935027,-0.006346107,0.0074567865,-0.0071718344,0.0096433,0.029937515,6.2340245e-05,-0.011976118,-0.032035746,-0.01236357,0.029922998,-0.0147718685,-0.037560504,-0.011981609,0.02156792,-0.001530178,0.03311498,0.027766591,0.013837277,-0.029145703,-0.00052656815,0.00218302,-0.019257324,0.05624184,0.05853218,-0.013473778,0.023066241,0.015249889,-0.030934924,0.0038823152,-0.029359458,-0.007544035,0.02386604,-0.03234845,-0.023026003,0.025312856,-0.004056593,-0.037030984,0.04094558,0.02779747,0.010069825,-0.042660404,-0.011204128,0.027346855,0.00011070276,-0.007635931,0.024953261,-0.026664577,0.012788677,-0.0118673695,-0.0071082185,0.006067969,-0.046222772,0.021886919,0.042749345,-0.012345391,0.010245718,-0.009953553,0.014522515,-0.011065317,-0.020734364,-0.006178877,-0.0017017979,-0.005307786,0.00877809,-0.011042984,-0.007522965,-0.03020572,-0.021838019,0.0033251452,0.008899097,0.044662703,-0.04010271,0.0068573807,0.009601812,-0.018206524,-0.019759607,-0.0076803346,0.033802483,0.024714908,0.036610372,-0.008220924,0.055856127,-0.011056805,-0.009592878,-0.02016674,-0.022228697,0.011063686,0.01048243,0.01743011,-0.036498748,-0.009085289,-0.037087873,-0.014076838,-0.007880989,-0.0012097674,-0.00071781385,0.051225144,0.032602753,0.03184463,-0.054462593,0.038529743,0.020545198,0.052917436,0.018459098,0.007824079,-0.028492082,-0.005094384,-0.009882588,0.037157156,0.0014092413,-0.025361534,0.0265557,-0.017561633,-0.017374247,-0.018835051,0.0084972875,-0.048328973,0.0129299415,0.008903905,0.0059395507,-0.019487806,-7.9411104e-05,-0.013709448,-0.018835371,-0.03725522,0.045909524,0.007158493,0.006447478,-0.00619358,0.010215259,0.040142458,-0.016392596,0.015528069,0.03342641,-0.0072833747,0.029731434,0.029517947,0.01825176,0.019291729,0.04152067,-0.013018744,0.023130246,-0.05261677,-0.01136343,0.017448856,0.03810823,0.002824194,0.0067260438,-0.027413249,-0.008086931,-0.045804206,-0.0070947274,-0.02871526,0.01327285,-0.0030660334,0.024701439,0.014701234,-0.009070897,-0.015588462,0.034724474,-0.0051392945,0.053311948,0.005714776,0.007250566,0.0023535439,-0.007708131,-0.0043403367,-0.015419042,0.042621706,-0.020058343,-0.017950263,0.02426167,0.013791553,-0.018540245,-0.010611437,0.026218379,0.0055767703,-0.005220513,0.007670153,-0.03730315,-0.015552877,-0.0035371117,-0.015461415,-0.008526586,-0.009488749,0.00083089346,0.010094987,-0.025086235,0.023915878,-0.03112213,-0.002324487,0.011406211,0.010385863,-0.021443505,-0.003024592,0.016082395,0.019671926,0.005344201,0.016029252,-0.024366628,0.019276178,0.014504326,-0.0075368015,0.015881835,-0.055186763,0.0023270603,0.024055917,-0.023857877,-0.031378508,-0.029712902,-0.008247492,-0.008999871,-0.002713271,0.010101646,0.04152518,0.034399718,0.042274326,0.004679411,0.026463842,0.006840165,-0.036938082,0.03860675,-0.0035959044,-0.00060910534,-0.018846655,-0.006901699,0.021703953,0.0015072552,-0.027623063,0.011314161,-0.007436606,0.019005006,0.022968011,0.031500068,0.025376366,-0.02680074,0.006369815,-0.007953417,0.0014888815,-0.04641834,0.007701337,0.0010444166,-0.045824457,-0.047136378,-0.011679994,0.0050005037,0.043693155,-0.01988154,0.010209744,0.040513977,0.00090026803,-0.034284025,-0.0016485468,0.023248794,-0.009294737,0.0065812147,0.0050989836,-0.0146653075,-0.036825415,-0.02578,-0.026509255,0.011036183,-0.014042858,0.012338258,0.0025432752,-0.016971404,-0.014531564,-0.0072949734,0.021092938,0.022813492,-0.0036565624,0.022222428,-1.3778933e-05,0.020401279,0.0017833037,-0.017055944,0.019837923,-0.008878903,-0.005306546,-0.014330902,0.034041915,-0.0068006297,0.009552095,-0.018214215,0.00035973167,-0.0089405365,-0.016517326,0.017310617,-0.005641487,-0.010208906,0.039412398,-0.011774211,0.01675192,0.03011067,0.012594113,0.011494928,-3.405841e-05,0.0009682273,0.030933404,-0.02467459,-0.005760934,-0.019600604,-0.034823436,-0.017178724,0.0005200758,0.014811604,-0.005274243,0.0220919,-0.012414294,0.026294304,0.01387342,-0.036391225,0.0035018795,-0.0121257715,-0.013387672,-0.024981527,0.04007057,0.019470174,-0.024701275,-0.019714138,-0.025402648,-0.0053465646,0.0108188465,-0.023235388,-0.010442083,-0.0042142575,0.0013664261,-0.023543755,-0.0013389878,0.018949617,0.0036020577,0.026652783,0.007739574,-0.0028089413,0.024182307,0.007945677,-0.020947011,0.013056008,4.945683e-06,0.013396735,0.00029333378,0.0013561482,-0.0067133857,-0.02916692,0.00730535,0.012351461,0.0107574975,0.04260525,0.013555879,-0.033806182,0.020251412,-0.011160585,-0.0027523204,-0.033364553,0.008500299,0.005267089,-0.011888954,-0.00767221,0.016005326,-0.011294888,-0.024147753,-0.017598582,-0.029782781,-0.0022011525,0.007575575,0.01904848,0.00020537488,-0.008748377,0.02649425,-0.0021666682,0.016295187,-0.03520027,0.011301017,-0.005640675,-0.041183386,0.009692532,0.007540625,-0.0074177915,0.0315731,0.02769753,-0.026963465,-0.019571297,0.01582439,0.003556203,0.0017812685,-0.0027247032,0.004582433,-0.020223454,0.0032544755,-0.033242162,0.03557638,0.0020915968,-0.03755359,0.03485179,0.0012742975,0.037143964,0.012677633,-0.017214576,0.013021127,-0.004560012,-0.04488639,0.022074135,-0.029914442,0.01980411,0.016697876,0.025036618,0.020455327,0.02991836,0.003323737,0.023846468,0.0041992674,0.020913824,-0.024306385,-0.0006964688,-0.023864,-0.033216946,-0.023074998,0.0040236902,-0.032117266,-0.0040109125,0.016468562,0.003247945,0.027883576,-0.004922997,-0.018669842,-0.0040531945,0.00077360106,-0.018270828,-0.03268171,-0.010230952,-0.02726342,0.037639286,-0.018488044,0.024261348,0.000748108,0.007232015,0.035602283,-0.0037108003,-0.0041492353,-0.025376393,0.015185053,-0.024920462,0.023390204,0.0062268595,-0.0025644125,-0.019848237,0.02167323,0.017847048,0.011795371,0.008349021,0.032015655,-0.012137097,-0.00089290226,-0.030264478,-0.00015779155,0.020799274,-0.017697146,-0.007937397,0.020458994,0.0041564927,-0.028138427,0.020241069,0.012858807,-0.021667503,0.011698049,0.029047403,0.009271511,-0.0047250157,0.0073675946,0.032757405,-0.03180177,-0.02240073,0.034883775,0.026023883,0.028108215,-0.014487951,0.008731459,0.01786891,-0.020121444,-0.033189572,0.0051192576,0.014313842,0.0029700329,0.0044779875,0.013471755,-0.004186092,0.006896185,0.023694348,0.026594546,-0.02173787,0.017434457,0.008124853,0.022389414,-0.015876995,-0.007699456,-0.054056764,-0.0017485998,-0.038314622,0.0140080685,-0.003929274,-0.013194252,0.0008380579,-0.011296003,-0.000996824,-0.0027921756,0.0149676185,0.010763583,0.0007666918,-0.050192267,-0.036774874,-0.031136509,0.0071157566,0.0003826904,0.006191693,-0.009977404,0.008431037,0.017792972,-0.057088383,-0.01987067,-0.025777448,0.019489644,-0.017901259,0.0023061014,-0.024033353,0.033538554,-0.018008593,-0.0070662675,0.024587203,-0.027469894,-0.014425909,-0.02045889,-0.010560976,0.03336827,-0.045071784,0.028010812,-0.005311093,-0.031066902,-0.013302675,0.012434057,-0.01975245,-0.0064634713,0.0017630392,0.005725936,0.005975161,0.017957136,-0.0049568024,0.010446994,0.01404017,0.034822047,-0.015859162,0.0080174655,0.0071639577,0.010723909,-0.026717829,-0.0031155006,-0.003323836,-0.0029015352,0.030772993,0.012221617,-0.0037153738,-0.0010001771,-0.0036006004,0.007025394,-0.0030404113,0.0037221776,0.008609025,0.030452358,0.006596761,-0.002011942,0.036450833,-0.011855866,-0.038447745,-0.00422268,0.0106989695,0.00929184,0.013258391,0.012161324,0.025405008,-0.0009888147,0.017655792,-0.005833783,-0.008564272,-0.020955576,0.030925475,0.005423566,-0.015679859,-0.0020420556,0.010831573,0.029252674,0.02236802,0.025850102,-0.024895802,-0.03623379,-0.005226581,-0.018160786,0.0195329,0.018770924,0.01748647,-0.026073303,-0.0023826617,-0.033904433,-0.018675534,0.0031038732,-0.0011428277,0.030902242,0.003293978,0.02470913,0.012280312,-0.010658143,0.017974751,-0.0061174235,0.03810649,0.026672963,0.020111741,0.01587986,0.0025741565,0.015218468,0.027446793,0.0004612569,-0.005828998,-0.029149534,0.019425,0.036076073,-0.0069116163,-0.03515377,0.0024633112,0.02218469,-0.005808252,-0.05310141,0.033309925,0.011016066,-0.007076756,0.009010168,-0.03776685,0.01495791,-0.0025312684,-0.033616733,-0.025692314,-0.030194016,-0.0487415,0.003090415,0.024364028,-0.027463557,-0.018150952,-0.017937722,-0.037376866,-0.022182537,-0.03749272,0.026732752,-0.016966684,0.00026334394,0.028584976,0.0049804277,0.03856252,0.038648486,-0.03650815,-0.022281675,-0.020158393,0.016727764,-0.008240628,-0.019011648,-0.01491656,-0.0010849572,0.012600452,0.019380482,-0.0073797912,0.004335034,0.016232105,0.008845019,-0.026350977,0.015853314,0.013537442,-0.021630362,-0.034535665,-0.01112743,-0.0067734956,0.026998468,0.014814166,0.0040251175,-0.013762029,0.00882598,0.014862092,0.0061346367,-0.0052120765,0.017796133,-0.03511377,-0.007511762,-0.004202388,-0.01933053,-0.033554655,0.018438457,0.013024108,-0.0290926,-0.02377923,0.02171534,0.033619355,-0.01688535,-0.012360866,-0.0003562602,0.026408968,0.018464955,-0.029137578,-0.023656309,0.008657056,-0.013715026,-0.010155138,-0.013673045,-0.017302545,0.004084634,-0.015784483,0.039745454,-0.008791791,0.012526832,-0.006133555,0.020635327,-0.021620106,0.028981065,-0.04669111,0.0058077215,0.028232237,0.003986773,-0.0036808513,-0.044478923,0.008714062,-0.03694404,0.012850086,0.024765335,-0.014587186,-0.013502934,0.033352975,0.0345445,-0.013806791,-0.021137223,-0.023214644,-0.003374682,0.016303588,-0.028194858,0.053912707,0.0088036815,-0.00045075128,0.012729861,-0.03350394,-0.0025757344,-0.009873983,-0.0040658484,-0.0056597292,0.0022268575,-0.01621895,0.019640928,-0.029439962,0.029553253,-0.0139980335,-0.025148809,-0.058037315,0.0145497685,-0.011360082,0.0061267717,0.0029153358,0.0036511424,0.004509335,0.027473724,0.011024595,-0.010833468,0.019643435,-0.022294581,0.004248248,-0.027859345,0.024006743,0.018121336,0.018207453,-0.015575047,-0.013660619,0.034685828,0.0022908133,-0.0022234481,0.02046122,0.047639303,-0.040759265,-0.011451748,-0.0153516,-0.05019385,-0.0057992768,-0.028503835,0.037421007,-0.03282497,0.021892121,0.033992436,-0.011496968,-0.004571682,-0.019578917,0.0072911554,-0.011297726,-0.035984047,0.0049920445,0.036445238,0.03723916,0.04110002,0.012329395,0.0034282228,0.005881292,-0.012536684,0.007506508,0.010787081,0.016970355,-0.028863875,-0.018539418,-0.04905267,0.015132083,-0.02224634,0.0004939051,0.024637392,-0.037716642,-0.030778956,0.008997332,0.015056848,-0.012271472,0.017769331,0.035673376,-0.024739927,0.032274332,0.03260689,0.0037746879,0.015878174,-0.015808249,-0.021450205,-0.029156778,-0.04186643,-0.008932226,-0.00012716244,0.030164868,-0.021401644,-0.011747746,0.009954444,0.00043043366,-0.027635323,-0.01388244,0.0089363605,0.0110191945,0.0035233719,-0.0032403609,0.014041292,-0.019798553,0.026696458,-0.00044946745,-0.011790543,-0.0008241353,0.025344552,0.021601819,-0.004417834,-0.021401312,-0.043097395,-0.013569897,-0.020493874,-0.0018064573,-0.0465923,-0.00449463,0.033162087,-0.030530546,0.03083657,0.018719992,0.033050627,0.022155011,-0.037197556,-0.039278544,0.020047968,-0.01412316,0.005177051,-0.02882387,0.039339308,0.012754739,-0.020626126,0.012735207,-0.026442727,0.0062766206,0.05019204,-0.024227144,0.0024719879,-0.00138381,-0.028402325,-0.039152164,0.004331464,0.023963181,0.01827508,0.0027729294,0.01005051,0.020175735,-0.015255037,-0.026692556,-0.0091159735,-0.04167656,-0.01619538,-0.03086521,-4.034828e-05,0.0341153,0.016363904,0.020951504,0.0038637454,-0.0025101092,0.034350347,0.021277737,-0.0042849034,-0.046676807,0.054079045,-0.0013024767,-0.011377388,0.02140455,-0.031067103,0.01597731,0.005363736,0.039145656,-0.0005529461,-0.0011825095,-0.04786872,-0.055343177,-0.04093325,0.00520076,-0.008026686,-0.019748518,0.04458865,-0.0019152113,-0.047789123,-0.03717876,-0.009379526,0.060459282,0.028028471,-0.008420272,-0.00946659,0.00865673,-0.041588914,0.0035976812,0.018714637,0.0031294946,0.018657954,0.020945773,-0.033920422,-0.040756796,-0.019203015,0.021398243,-0.00406062,0.02441375,-0.02105831,0.0137351155,0.020008221,0.010881942,0.010652789,0.0192442,0.0097760605,0.020785283,0.027193151,-0.011639177,-0.029608529,0.0037391798,0.003010335,-0.012582384,0.052562326,0.034336578,-0.012536961,0.009417742,-0.005387066,-0.009362772,0.023120547,-0.020212509,0.02222161,-0.02468696,-0.023630122,0.01066642,0.0029739446,0.018828535,-0.0106002735,-0.01972071,-0.018356591,0.018708795,-0.0318456,0.02706522,-0.04369108,0.016342156,0.040278237,-0.013683309,0.0035338448,0.019908372,0.0072945193,-0.03523209,-0.0049848384,0.008809953,0.036908377,-0.022878923,-0.0027515567,-0.060254943,-0.0046201623,-0.0056685978,0.002788965,-0.008154546,-0.008368755,-0.014912209,-0.0015052848,-0.03321768,-0.006491199,0.01972731,0.019379757,0.0016160922,-0.0048979213,-0.020650124,0.004403211,-0.010957645,0.02111554,-0.047109917,-0.029173208,-0.016872216,0.010551887,0.016693773,0.036092393,0.0050124265,0.006537928,0.021337315,0.050018925,0.021336913,0.015957039,-0.021452745,-0.023377402,0.037124526,-0.024629759,0.016782518,0.039247166,0.020481722,-0.030201212,-0.015671855,0.014102761,-0.008833475,-0.02687597,-0.031008752,-0.0062385863,-0.02544076,0.030268837,-0.02147064,0.011053493,-0.0055008163,0.0128533505,-0.028676117,-0.025251608,-0.025634645,-0.0031534994,-0.04490203,-0.009054676,0.0045273285,0.015957763,-0.02474363,0.028521787,0.037965186,0.019613156,-0.027375132,-0.005578236,-0.02771736,0.0009696794,0.014533384,0.044855483,-0.020295143,0.051260654,-0.027249262,0.006266238,-0.0013619345,0.0050373706,-0.01165981,0.043674726,-0.038870532,0.03679322,-0.013591198,-0.014778532,0.02872168,-0.00432847,0.029412832,0.003397564,-0.0155445,-0.018515388,-0.030687762,0.035181083,0.011327188,0.019801404,-0.004130925,-0.0032042847,0.023370631,0.006921175,0.003520871,0.01060734,0.012355295,-0.030821964,0.011780156,0.06758455,-0.0019737089,-0.021118376,-0.03550246,-0.0065386,-0.03335184,-0.008047923,0.013559379,0.03191325,0.011011735,-0.03621098,-0.0021906372,-0.011535358,0.013948988,-0.023930728,-0.028863885,0.02134965,0.0014443315,-0.027772373,-0.00095290964,-0.008306344,-0.016879752,0.007120074,0.01462075,-0.004106447,0.02799993,0.0030618482,0.000973572,0.045798503,-0.07030054,0.008793448,-0.013065073,0.0448019,0.023653785,-0.0015184602,-0.011307573,0.044308607,-0.012763255,-0.014482694,-0.04037569,0.019335905,0.023170967,0.033235013,-0.028591663,0.0016091058,0.00065726985,-0.021665672,0.022430275,0.012990268,0.03957901,0.024692759,-0.009813174,-0.006871289,0.027539626,0.005567988,0.014670315,0.015439029,0.02338921,-0.009065666,-0.0017628281,-0.018669609,0.025329417,-0.057068355,-0.018640961,-0.017527556,-0.018233512,-0.02010249,0.004581325,-0.02182092,0.0028885487,-0.0075123617,0.015326885,0.0019840654,0.0052291877,0.007031791,0.055137157,0.004086293,-0.024637107,-0.018527523,0.028627703,0.01621223,-0.010781092,-0.010652112,0.00682415,-0.02378907,-0.050190255,-0.05471273,-0.019241713,-0.019387769,-0.012821356,0.0034621323,-0.012094362,-0.010491093,0.0064881137,0.008256133,0.002002309,-0.0036132352,-0.038637195,0.0045972643,-0.010221201,-0.013341676,0.008136478,0.00870235,0.03656031,0.011227995,-0.006194369,-0.0036628821,0.0019281048,0.015890269,0.011854071,-0.00298492,-0.014900503,-0.00097006274,0.016127262,1.6483435e-05,0.03675733,0.019105585,-0.025168598,-0.02247265,0.0024871363,-0.025527937,0.033916246,0.007823586,-0.032579914,0.018273823,0.028381852,0.06772949,0.049133897,0.04663895,-0.023506975,0.016977904,-0.014210987,0.033659797,-0.012543741,-0.004684447,-0.0019277307,0.0072298762,0.046883646,-0.023547104,0.03481847,-0.014594948,-0.008596916,0.0052552037,0.02873003,0.025998324,0.015567726,-0.002035778,-0.022378247,0.00804601,-0.0073929965,0.019442378,0.00321583,0.026748449,0.013517793,-0.010630587,0.04399527,0.0049331053,0.0023033782,-0.0010304103,-0.030160831,0.0071013896,-0.025590476,-0.01842867,-0.006803388,-0.042472795,-0.0076054377,0.007990407,0.009634536,0.0040768893,0.034100927,0.028088795,-0.00027345,0.011215663,-0.027295098,-0.03739849,-0.030664373,0.024641944,0.034207575,0.027994165,-0.00846209,0.018389309,0.00852123,-0.024475992,-0.007643696,0.018951805,-0.04111809,-0.015296136,0.0036074826,0.021883268,-0.048509818,0.0036588167,0.04795885,0.020315161,-0.0062671234,-0.0126625355,0.0100291725,-0.032358106,-0.00541526,-0.012886279,0.015485824,0.038970172,-0.010540979,-0.018352387,-0.008641673,-0.003514399,-0.011692224,0.023542084,-4.5024433e-05,-0.022143006,0.026798679,0.014711227,0.01778892,-0.020578735,-0.020975992,-0.01056528,-0.0012571036,-0.0031974514,0.023890788,-0.011528849,0.012935722,0.036679223,0.004993165,0.0010879624,0.020642638,-0.0057445434,-0.016801313,0.004701259,0.018765412,0.008334707,-0.020498365,0.01768941,-0.0050168647,-0.0032661627,0.02138824,-0.040328138,0.0068989606,0.0038763725,-0.014040876,0.06286609,-0.015334793,-0.00776143,-0.04996613,-0.04729518,0.011813111,-0.01867389,-0.006591437,0.04598603,-0.027905209,0.022222137,0.024230337,0.037625358,-0.0038255542,-0.01410441,0.0050477497,-0.014855774,0.0076877847,0.0078088087,-0.012271364,0.016704673,0.0068541206,0.017169746,0.001547791,-0.019375574,-0.02428563,-0.012788232,0.022558102,0.0026977651,0.008830377,-0.011550705,-0.00429598,0.033124574,0.00023209551,-0.0056042895,0.029060515,-0.00090781256,0.00831242,0.01858885,0.02035018,0.04575121,0.027230795,-0.060460728,0.01894793,-0.040176794,-0.013154195,-0.019324359,0.028198363,0.02208453,0.012247803,0.029457197,0.016699087,-0.017330099,0.020504683,0.0032749523,-0.04890775,-0.0016231763,0.0016387718,-0.021201918,-0.03228352,-0.0075201006,0.019711107,-0.0049532107,0.0033719672,0.014404662,-0.031293165,0.030145409,-0.0038149739,-0.021778429,-0.037286468,0.01464526,-0.0016520384,-0.034681235,0.005480725,-0.025870586,-0.02431223,-0.049480375,-0.019663412,0.030836992,0.02651169,0.02329737,-0.02662524,0.023773666,-0.018279273,0.01979502,0.007998085,-0.032948386,-0.023136254,-0.015196033,0.004385397,0.015467469,0.010629076,-0.03293913,-0.0145495,-0.019868981,0.0037486763,-0.0033528593,-0.011822876,0.01847437,-0.014412033,0.032574393,0.02013895,-0.0023019647,0.008422856,0.03293302,-0.0057379627,-0.020470567,-0.03660967,0.030372547,0.021798134,-0.0035389133,0.03323685,0.00987443,-0.006884846,0.018476835,-0.012489356,0.016444698,0.0037927513,-9.341459e-05,-0.018995386,-0.011516383,0.0067413575,0.021666737,0.022006597,0.002966419,-0.0059149726,0.034992788,0.015877908,0.021690866,0.021220759,0.007343796,0.015343896,0.0012171022,-0.016022759,-0.023448465,-0.03219902,-0.030778205,0.022880489,0.016832097,-0.020017507,0.009865648,0.019547733,-0.0048456807,0.02894095,0.010718374,-0.01972801,-0.052125834,-0.003245926,-0.0009935731,0.046431407,-0.030715538,0.0031922944,0.010156426,-0.048218153,-0.050789755,0.03337981,0.00022591968,-0.028473513,-0.04811163,0.010659006,-0.007642349,0.013205778,0.04508623,-0.022473583,-0.0033969078,0.069820955,-0.028565992,-0.015369424,0.015400669,-0.008553164,-0.019409116,0.0026658555,0.029281488,0.024051288,-0.025105106,-0.028337453,0.009361014,0.015756788,-0.0052467207,-0.0055510527,-0.03086699,0.014380049,0.009862037,0.0017993134,0.00038058806,-0.0042336867,0.01781007,0.0053535793,-0.039443273,-0.014438891,0.013628409,-0.015921498,0.00980625,0.021272708,-0.0072134356,0.022868278,0.010165456,-0.016395798,0.032124378,-0.028523289,0.04840346,0.0016110683,0.053408436,0.029154606,-0.015063359,-0.027160145,0.027872158,0.006473685,-0.03414993,-0.0069919266,-0.0366049,0.025619235,0.022187978,0.02409728,-0.015640214,-0.011729288,0.0023060453,-0.020927219,-0.035410337,0.028381249,0.038212087,-0.013403793,0.0018250057,0.015640743,0.016129214,-0.017393693,-0.012639338,0.025676845,0.006828815,-0.02744462,-0.045978233,-0.0031978039,-0.00031222668,-0.021230325,0.012749539,-0.03982172,0.023977607,0.010952995,0.0011695783,-0.004921306,0.028041232,-0.033527486,0.0006303736,-0.0037009683,-0.006456377,-0.018457826,0.0044841133,-0.015885133,-0.024774726,0.0030009067,-0.026510123,-0.009389129,0.018686088,0.010020295,0.013583885,-0.031132782,0.020168358,-0.007750789,-0.025477845,-0.008798825,0.024552878,0.010292601,0.022466859,0.007710686,0.041665703,-0.013145571,-0.027980298,-0.0005568744,0.0166498,0.018069,0.022861516,0.00025848314,-0.0047567054,0.011571449,-0.032081276,0.0031038653,-0.044841766,0.044025466,0.032518335,-0.023814186,0.049707673,-0.027250597,-0.032415453,-0.020022172,-0.013240212,-0.019720025,-0.010870293,0.013258933,0.0013686754,-0.0053683654,-0.018047523,0.033358283,-0.010832837,0.01651141,0.03720659,0.032870043,0.016116183,0.012916493,0.027249513,0.018173309,0.027544593,0.018910924,-0.033807766,-0.026387392,0.0013447971,0.029366754,-0.011567342,0.01985857,0.020050481,-0.04357887,0.010626958,-0.016328206,-0.04744045,-0.031534523,0.007472821,-0.009556064,-0.008590418,0.013445473,-0.012568234,-0.006219459,-0.011862547,0.0034565942,0.036012556,0.0010521952,-0.012849921,-0.0012942252,-0.010938351,-0.015003234,0.047705986,0.012281151,-0.032008413,-0.015505177,-0.034163255,0.024799636,0.0077896956,-0.020534426,-0.0208535,-0.04041458,-0.014201325,-0.005600754,0.033092614,-0.052060694,0.019931184,0.012720172,-0.04924287,-0.029197562,-0.037931316,-0.010599754,0.064569764,0.007397509,0.0233576,-0.027123349,-0.017894873,0.015265803,0.00047665738,-0.019282015,0.010293615,0.007857224,0.022097519,-0.020368313,0.004765678,-0.014578249,0.003984649,0.024674127,-0.0064354916,-0.01926123,-0.022533495,0.025410866,-0.024077175,0.010969434,0.007921323,0.0151787205,-0.03005583,0.0031406602,0.031113861,0.0027852545,-0.0071882242,0.016219001,-0.024579944,-0.008445728,0.03416886,-0.004150008,0.010871462,-0.027725047,0.010880573,0.037377626,0.019961348,-0.0016933919,-0.01743826,0.014865718,-0.012744974,-0.03457626,-0.02782293,-0.024102325,-0.048103653,-0.011762509,-0.02271466,0.004967218,-0.0156210065,0.0053532263,-0.023573553,0.007055357,-0.0038630564,0.016387168,-0.040539563,0.004158057,-0.010926391,-0.025868692,0.028889626,-0.028223211,-0.0010204389,0.02370089,0.016276881,-0.024939325,0.002631097,0.020178966,0.00035106848,0.020113427,0.018484311,-0.016457308,-0.027076103,0.011467776,-0.039205186,0.006657017,0.0121734105,-0.005056973,0.020338623,-0.0045273155,-0.0007949182,-0.019804865,0.03232049,0.020761162,0.0035446137,0.041807014,-0.008370071,-0.018387368,-0.0045040185,-0.009986387,-0.0068476154,-0.036018908,1.2727904e-05,0.038509425,-0.0138643915,-0.042669505,-0.02041778,0.01809856,0.008210014,0.055399723,0.04083497,0.020610087,0.008592667,0.001361554,-0.013562899,0.038522728,-0.011278132,-0.01984326,0.010418096,-0.033714473,-0.00531298,-0.051639218,-0.006166365,-0.002008927,-3.2511725e-06,-0.030938204,-0.012795598,-0.018957626,-0.016385468,0.007951724,-0.008696063,0.035086595,0.00939659,0.013104938,0.013822558,0.017351704,-0.037574038,0.0059827366,4.2911583e-05,-0.021948269,0.0012387938,-0.044799365,-0.011631755,-0.007717208,0.0152855,-0.04439429,0.015031053,-0.013332624,-0.0058943317,-0.02774203,0.0039923186,-0.00060331967,-0.017040912,-0.02826739,0.012498599,0.0022920643,-0.008721234,-0.018346548,-0.043437082,0.0028080677,-0.03753868,-0.023217356,-0.034930136,0.031314597,-0.011166045,-0.028673835,0.03484113,0.012247669,0.007355337,0.031285226,0.018565211,-0.024613595,-0.013347549,0.03899333,-0.03089193,0.0031982588,-0.05104895,0.02336912,-0.019145155,0.029901465,-0.014908069,0.024786271,0.030515684,-0.019976808,0.014507677,0.0045439154,-0.023629475,0.022391807,-0.020070296,-0.00021263116,0.01981713,0.03907718,0.0085228095,0.030643964,0.019853303,0.015088439,-0.033687714,-0.0031844852,0.008197042,0.012618677,0.07909389,0.007264583,0.08344216,-0.0053434363,0.04106084,0.0106896395,0.019510916,-0.0032285417,-0.03338469,-0.04003953,-0.018815238,0.03361355,-0.0030266917,0.016565256,-0.0013015564,0.0103761405,0.0031472412,0.040592298,0.00585262,0.0026922126,0.022898462,0.02793554,-0.0023659714,-0.013058002,-0.015327036,0.024958137,0.0070048147,-0.011447488,-0.020183198,0.030544324,0.019643502,-0.020127743,-0.009604692,-0.00821617,0.037648316,0.036677293,-0.014178484,-0.031536836,0.041169096,0.051604554,0.0010148487,-0.044912137,-0.021913363,0.0110411085,-0.0045930143,0.004411009,0.017666616,-0.014798571,0.0154214995,-0.008118367,0.02188823,-0.0017365288,-0.03804976,0.025790004,-0.049970757,-0.031256095,0.017852314,-0.03215005,-0.05713048,-0.047910765,0.053841535,0.0067796377,0.008578031,-0.02418226,-0.03562555,-0.015210302,-0.007060808,-0.02147823,-0.04854045,-0.023831993,0.01541105,0.02531873,-0.0009960049,-0.023252266,-0.0040602945,-0.019791441,-0.051459275,0.0064496924,-0.016618691,0.008235244,0.015148587,0.0085630035,-0.04026295,0.022015112,0.017268682,-0.0071650296,-0.026563881,0.013488828,-0.01799463,-0.010483329,-0.03392325,-0.019674916,-0.035069242,0.011700348,0.031896804,-0.019904323,0.004780465,0.022896394,-0.004163587,0.014518936,0.014794515,0.0031983298,0.016685868,-0.02311776,-0.0236284,-0.02391231,-0.0039030355,-0.008161558,0.03047078,0.00962668,0.059514564,0.026613742,-0.024671247,-0.048657347,-0.006390363,0.037191056,0.04134848,0.0018918765,-0.0441118,-0.013379006,0.013176663,-0.02059033,-0.004296516,0.015611438,-0.028567933,-0.03184219,-0.023039898,0.016225507,0.009155549,0.012245333,-0.057186242,-0.004394864,-0.0075135035,0.03828089,0.0058643864,0.03920076,0.020587785,-0.021822968,0.007959791,0.03744709,0.0032653857,-0.029425444,-0.033395816,0.010816937,0.005409186,0.011655361,-0.048229948,0.0006202723,-0.033044007,0.009263455,0.0010215548,0.0047676084,0.06787272,0.012812133,-0.015088861,0.013674408,-0.020101724,-0.044141654,-0.0079053445,-0.014322513,0.007027053,0.011739104,-0.012701409,0.014233961,0.022557706,0.029066538,0.027685473,0.015011369,0.0035501323,0.0072184987,0.018158587,0.023101037,0.023464322,-0.007374646,-0.037715405,-0.045045022,0.045427207,0.0070529836,-0.007726286,-0.016561551,0.01526495,0.0070351046,-0.020612163,0.0023714975,-0.019410035,0.041160278,-0.063472345,-0.015463567,0.005155743,0.0016890145,-0.027771255,0.008125914,-0.045512978,-0.03904689,-0.050424848,-0.021702452,0.03010603,0.021131195,0.009443591,0.013830697,0.008747391,0.020584324,0.006636564,-0.013668881,-0.050419927,0.036607604,0.008599611,-0.01857299,-0.0043133707,-0.047196988,0.018359635,0.017569767,-0.009352523,-0.030939272,0.031346396,0.022362608,0.021844717,-0.009468325,-0.016112283,-0.0023214603,-0.015884938,-0.019642904,0.028144358,-0.032407355,0.0122739915,0.009090595,-0.012302994,0.024098426,-0.007917609,0.0043005412,0.046972692,0.059124123,0.025707606,0.019963466,0.016887568,0.029944845,0.004441681,-0.011851813,0.0013968707,-0.039869394,-0.061977968,-0.101029225,0.016710777,0.005295588,-0.022648925,-0.01902672,0.0014145403,0.009948755,-0.01801409,0.027375653,0.009102214,0.008177943,0.027557964,0.02344054,-0.013182921,0.014206259,0.009565196,0.0042726654,0.02413313,0.0024042975,-0.010451363,-0.03406993,-0.03777823,-0.053093288,0.055102084,-0.02124771,0.021017777,0.06793719,0.018413717,0.032292858,0.016027661,0.020170394,0.020857966,-0.010203688,-0.030451588,0.035302654,0.017644541,-0.0230323,-0.022602307,0.03484037,-0.00012117781,0.013241363,0.010549539,0.041347273,-0.029420573,-0.0077444385,-0.007854627,-0.0072050886,-0.039852336,-0.0020900383,-0.012726246,0.0008789954,0.022866588,-0.011051087,0.028158387,-0.007842318,-0.010527229,0.010466929,0.028212482,-0.0068892413,-0.011861603,-0.00578664,0.033643898,-0.028134735,0.031593487,0.017835917,0.03354798,-0.018973392,-0.0049151084,0.016714036,0.008525413,-0.027161747,-0.015473669,0.0053094374,-0.023151312,0.010677145,0.009608419,-0.06733132,-0.0020700085,-0.029084146,0.03233689,0.014097147,0.030367356,-0.04555574,0.042653285,-0.020195935,0.0070208125,0.027042123,0.038492493,0.042054627,-0.017071016,0.004222321,0.016113106,0.016783716,-0.05608493,0.00027704742,-0.0017273108,0.0428121,0.03165718,-0.016703542,-0.017879374,0.0036737274,0.0040507824,0.044286486,0.042265877,0.0107217515,0.0031058798,0.011464599,-0.01884702,0.01506318,-0.015388927,0.022916174,0.021569654,0.005505131,-0.026038079,-0.02059098,-0.0056443587,0.0040415246,-0.023993537,-0.026211023,0.020563278,0.009306761,-0.024982914,-0.03808564,0.023628544,-0.039350737,-0.018239425,-0.040849637,-0.03914637,-0.0155598065,0.005486532,0.03868538,-0.016550964,-0.029206725,-0.0007908585,0.004819851,-0.024584094,-0.017754028,-0.014482303,-0.003608318,-0.021146417,-0.0124093825,0.03369513,0.036571965,0.005058198,-0.032134235,0.00809902,0.04835878,-0.016400225,-0.0039601834,0.020544564,0.010275302,-0.013965761,-0.0012956258,-0.03616317,-0.030107284,-0.02274989,0.0053181546,-0.0035440535,-0.018768758,-0.021446466,0.00968109,0.014917219,0.010707706,0.026387539,-0.008795438,0.0019530416,-0.022959784,-0.021017691,-0.003187935,-0.0085384445,0.028252237,0.0004289744,0.002457853,-0.0039905035,-0.024172418,-0.013906756,-0.014514772,0.035200316,0.025373101,-0.014541652,0.0010228192,0.03840103,0.021013087,0.029840995,0.00502987,0.008212753,0.009799029,-0.029198084,-0.013942153,-0.032282423,-0.0200922,-0.013903778,-0.02935617,0.029810358,0.021511437,0.0043355944,0.024006773,-0.029416075,0.010519777,-0.035971608,-0.02953941,0.0026554475,0.016689891,0.005361879,0.028094903,-0.0018643846,0.013177034,-0.0058742305,0.009894996,0.02381476,-0.025839366,0.0058954726,0.023103362,0.016755575,-0.015977256,0.0022458627,0.009062529,-0.02076171,-0.01115569,-0.024264725,-0.0117581105,0.011757181,-0.039722312,-0.012198528,-0.0032096114,0.023731323,0.03539763,-0.0037475608,0.026930116,0.014937368,-0.026518222,-0.039242733,0.013707129,0.003826391,-0.026351102,-0.024182666,0.016887145,-0.011656003,-0.011546882,0.0012439261,-0.022437233,0.008788879,-0.036536906,0.03288425,0.025316985,-0.009267109,0.0051802373,0.0148183005,-0.01606214,-0.043892797,-0.020224532,0.0008695924,-0.0006947311,-0.010467966,-0.012919707,-0.007906432,-0.014517685,0.020594474,-0.021500112,-0.038278647,-0.0006104359,-0.027434373,-0.015894316,-0.006862196,-0.0142763015,0.014493406,0.024615465,0.047356937,-0.0031339964,-0.017703097,0.014622408,0.0038891365,0.021957953,-0.01143795,-0.032843098,0.029196681,-0.01607344,0.0029625432,0.004421468,0.017365506,-0.025299275,-0.012734852,-0.008607886,0.031414427,0.01806735,0.022574916,-0.004377148,-0.044394586,-0.0431944,-0.03288203,0.035693347,-0.0051584025,0.0064314464,0.02954431,-0.03682678,-0.026355628,0.037726182,0.00564865,-0.055698138,-0.0013405626,0.010781547,0.016788792,0.0041524475,0.04989787,-0.0026307805,0.04772852,0.051720202,0.0047012344,0.024561014,-0.0255672,0.0071990294,0.017876698,-0.05640094,0.019434033,-0.015737228,0.008584102,-0.019935422,-0.0036224632,0.039963882,0.04091095,-0.034195237,-0.010676546,-0.0094019035,-0.009403833,-0.00044627613,0.0006383771,-0.0368722,-0.09163105,-0.013369454,0.029128311,-0.0017604869,0.018081544,-0.058136377,-0.037156794,0.005064998,0.04048332,0.019384928,-0.0049481993,0.026961783,-0.02323821,0.01241975,0.008400173,0.045187604,0.021374194,-0.009140284,-0.0021814508,-0.0117055075,-0.002713314,0.0014309167,-0.0066689267,-0.008883707,0.02069783,0.0018087492,-0.028767025,-0.044161316,-0.005982157,-0.030441066,0.02106013,-0.019313533,0.03674699,0.019664403,0.00044477475,-0.038799793,0.016155941,-0.024811039,-0.024115372,0.0015913233,0.06502721,-0.0155660845,-0.018725932,0.018146189,0.028842421,-0.020709854,0.00055394426,0.028011171,-0.031130841,0.027092882,0.01808707,0.051453125,0.029438354,-0.014457371,-0.04033221,0.0027564429,0.013615492,0.038377564,0.018110009,0.042140804,0.009617409,-0.0355238,0.021907333,-0.010643414,0.007279463,-0.0021641639,-0.04149038,-0.002845627,-0.022165949,0.014553585,0.04151546,-0.005987519,0.008681629,0.0074686734,-0.011260065,0.009069181,0.007943478,0.029589346,-0.031714603,-0.02555179,-0.020795705,-0.02113415,0.01850118,0.029955627,0.01521905,0.0041397633,-0.006856508,-0.015626486,-0.032232452,0.020641493,-0.035543542,-0.010843111,0.017548177,0.008190696,-0.01704264,0.017465109,-0.01020612,-0.00026644536,0.003441524,0.0482084,-0.018439788,-0.006382867,-0.023401994,0.0033670177,0.0041658436,-0.015705414,0.015739908,-0.026218163,-0.027078178,0.02607999,-0.0182378,-0.010108674,0.005504635,0.0013234979,0.019763328,-0.023181535,0.025048666,-0.006211779,-0.011601875,0.015457743,0.028595505,-0.029072315,0.014566672,-0.007160109,-0.00927388,0.01644108,-0.046856932,-0.01917006,-0.005651872,0.019558037,0.036360126,0.018885897,0.018537384,0.032877296,-0.024794945,-0.031538587,0.01047147,0.015837336,0.016469482,-0.015344202,0.019434005,-0.02631778,-0.020233413,-0.032895464,0.004887019,-0.0020058695,-0.0016209922,-0.024500368,0.012198138,-0.001819131,-0.013676509,-0.021680765,0.0035945391,0.02040286,-0.02422838,-0.020274194,0.025415003,0.0009690886,-0.017545398,-0.033727445,-0.02902181,-0.0045729456,-0.042157654,-0.002183946,0.00096160197,-0.028910084,-0.005844139,0.035149932,0.009484588,-0.01690322,-0.009181067,0.020089792,0.014742967,0.0022027583,0.011179297,-0.0052944943,-0.020539831,0.008241983,0.028217357,-0.007038627,-0.014308999,-0.011971087,-0.011125607,0.0056289183,0.0011726987,-0.003721816,0.011629862,-0.03831369,-0.01432982,-0.024569647,-0.0050104763,-0.0054178555,0.018367726,0.003925166,0.013616988,0.032954544,0.0013555066,0.019357968,0.022615954,0.02415115,-0.0040197535,0.007958357,-0.034287922,0.008877737,0.028396308,0.030936383,-0.046138383,-0.054085575,-0.022785643,-0.0344816,0.006707694,0.001720249,0.009045742,-0.042877454,-0.007129135,-0.029392421,0.017261053,0.016646897,-0.020981664,-0.007897316,0.021686161,0.04679244,-0.010242676,0.026713736,-0.025386572,0.0039422447,0.017151719,-0.016354896,0.026929023,0.013843026,0.006967599,0.024285816,-0.034440234,-0.027692987,-0.0063120048,0.015944313,-0.01292052,-0.012921808,0.008957853,0.028043738,0.019767666,0.0013241519,0.0014663079,0.01749201,-0.035083234,-0.008063688,-0.043981217,-0.019342922,-0.0034416066,-0.05158158,-0.05523379,0.001960677,0.008902018,-0.019034877,0.010948858,-0.040568754,-0.03196198,-0.04720081,0.016137965,0.021715472,0.0012831164,0.045264397,0.0034296613,-0.022077434,0.013042621,-0.02716852,0.01402713,0.04986814,0.0018322227,-0.019401038,-0.004011157,0.000703222,-0.045851775,0.009370703,0.0025343488,0.01607253,-0.0127895465,-0.010671195,0.015250908,0.05880972,-0.03694002,-0.014083266,-0.026600104,0.015401669,-0.028163236,0.015114806,-0.014051065,0.0037147063,0.026262375,0.0072349804,-0.0098149115,0.0020371506,0.00500746,-0.01939712,-0.031738803,-0.045465596,0.014148449,0.04971723,0.022152327,-0.0053503574,-0.020577257,0.02931205,0.0013753412,0.0017862993,0.015236184,-0.044139527,0.013976734,0.0009115992,0.007028906,-0.003874723,0.034587257,0.029518032,-0.02617002,-0.027129829,0.04489223,0.04168105,-0.013445443,-0.00181679,0.043188497,-0.065940306,0.028701706,-0.00062755676,-0.053890303,-0.00065530295,0.02562145,0.06639053,0.016506353,0.014150369,-0.03152425,0.008545968,0.079093136,0.0007872644,-0.032134473,0.011662034,0.027775627,-0.024141714,0.0032327361,0.037822343,-0.015865896,-0.009983611,-0.04680953,-0.067931056,-0.03486846,0.004026338,0.006494905,-0.014173234,0.03166172,-0.0198658,0.011894188,0.02446787,-0.0024152808,-0.011480353,0.016205443,0.0072241663,-0.013795886,-0.02051665,-0.0043233875,0.024248533,-0.01152522,0.040608674,0.013518521,-0.0044971933,0.032519296,-0.023292728,0.004075933,-0.04240461,-0.023337467,0.0024269857,-0.02914782,0.036426585,-0.009903628,-0.06119051,0.03541409,0.030639533,0.0024441956,0.008210769,-0.010100269,0.031093443,-0.0073019085,0.002644072,-0.0334739,0.03059085,0.032218076,0.0067930096,-0.022357713,-0.049313024,-0.03690701,-0.0069775553,-0.06175718,0.014802233,0.027627187,-0.004242811,0.008708866,-0.0072514806,0.020567141,0.0008080872,-0.010174727,-0.026639728,0.02266075,0.0005536424,-0.03498535,-0.021313429,0.0016294761,0.016526168,0.0015693835,-0.004734504,0.01212231,0.0024884136,-0.031723212,0.012584958,0.005601583,-0.025969563,-0.017903587,-0.0027719508,-0.024785282,-0.030970352,-0.004681057,-0.04535126,0.011831267,-0.017182678,-0.012562718,0.010385893,0.005634236,-0.0014456529,-0.024583286,-0.004657524,0.048736166,-0.035814527,-0.028000113,0.025030669,-0.02815033,0.0407884,0.043106526,0.045559242,-0.0032506175,0.014331179,-0.01347007,0.011730006,0.048613857,0.021272937,-0.015520926,0.030275611,0.00013344939,0.025010707,0.013631107,0.020774934,0.038638864,0.006111075,-0.007235512,-0.003419189,0.00054291316,-0.022028709,-0.059959,0.022971814,-0.03307619,-0.023005564,0.0070719523,-0.0038304378,0.0045441776,0.018060366,-0.004739707,-0.0136010535,0.03023532,-0.031605612,0.0028946325,0.001901359,0.02602456,0.015829353,0.00079356995,-0.015576487,-0.018181466,0.027283737,0.014196299,-0.008570228,0.0184354,-0.011665165,-0.0060852994,-0.00556907,0.015611611,-0.064510375,-0.008667364,0.0088903,-0.00035767606,0.0052952855,0.0012316941,0.04329372,-0.011712418,-0.022699282,0.019188017,0.0066718906,0.035366368,0.0036303191,0.020449262,-0.0045494367,0.002288593,-0.021717273,0.004013099,0.0176705,0.051713265,-0.011888233,-0.0003183224,-0.004700928,0.02498542,0.02318384,0.020144695,-0.00016506354,0.009259701,-0.0097466055,-0.020361535,0.0035894143,-0.02425858,-0.011284804,0.014203173,0.022039227,0.0170342,0.012176018,-0.022744508,-0.03434609,0.016273305,0.01746923,0.0045658685,0.028709674,0.0077578668,-0.0054309363,-0.026342478,-0.023858035,0.017981106,0.013460232,0.026137296,-0.01788258,0.053447545,-0.02689663,0.012625262,-0.0059118355,-0.019590007,-0.016121177,0.02507671,0.034063227,0.004061375,0.0055695646,0.018149111,-0.0030260254,0.032760836,-0.020499995,0.02251587,-0.008009778,-0.028867098,-0.00487438,0.00013514681,0.031967767,0.013335772,-0.017548054,0.057300672,0.0322428,0.025838688,-0.0070786155,-0.04365297,0.031576876,0.027240353,0.02251828,0.004886431,-0.004828938,-0.0053078886,-0.003474861,-0.008229245,-0.0062118797,0.0031860112,-0.011580975,0.03336343,-0.015642496,-0.0056584333,-0.04569695,-0.010989116,-0.031036148,0.00068322144,-0.0053074514,0.017313536,-0.011451272,-0.0074590524,0.0063627376,-0.028062504,-0.02475204,-0.0032967709,-0.00053809147,0.01728801,0.028137473,-0.036066953,0.038702883,-0.018214582,0.034610886,-0.013627321,0.0038944557,-0.028604956,0.03123429,0.028736237,0.0064034997,-0.012199025,-0.042301614,0.010270929,0.01909089,-0.03710411,-0.012088793,-0.01945569,-0.0006633129,0.002621385,0.019736178,0.019883594,0.016164154,-0.008551168,0.010301727,-0.04544542,-0.03361336,0.0004889885,-0.0153728295,-0.0029166732,0.022541404,-0.026359484,0.011207208,-0.035938174,-0.045280997,0.052165147,0.0071156407,-0.004694738,0.04427711,-0.021025704,0.039850533,-0.010407606,0.017761549,0.034453362,-0.0022480919,-0.040531658,0.022203803,0.007298304,0.015745766,-0.0030933758,-0.020509275,-0.002170089,-0.028342959,0.031318247,-0.001436246,-0.026085867,0.00591868,0.003908041,0.041514944,-0.03493614,-0.03284086,0.0020772687,-0.0157269,-0.02438208,0.016932135,-0.008038708,-0.014838675,-0.015118361,0.023677647,-0.00014852663,0.024219258,-0.020735309,-0.0019870272,-0.04503235,0.00959294,-0.010181568,-0.019818163,-0.010060407,-0.020478709,0.03390019,-0.037163865,-0.033141855,-0.0333846,-0.0028074803,-0.00917486,-0.017448956,-0.04286125,-0.011699524,-0.03940604,-0.0700294,0.025337748,0.032034375,-0.0077441004,-0.025323309,0.053679723,0.007096276,0.00829585,-0.037369765,0.021817876,0.0025621692,0.008837555,0.027275668,-0.02887481,-0.0150542725,0.0084155705,0.0062806923,-0.001020119,-0.0027807076,0.023657853,-0.029078934,-0.0006610238,-0.028395293,0.0073547116,0.031423874,0.013922901,0.03422744,0.012957736,0.03877905,-0.018122738,0.03262207,-0.04762526,0.02283139,0.011565331,0.019104246,0.01470832,-0.008121594,0.019596953,0.004942215,-0.0040713525,0.020049645,0.014554059,0.020487266,0.0298533,-0.030919788,-0.054274388,0.016593605,-0.0030560656,0.032979377,0.018966613,0.0053796517,0.0075069084,-0.015726633,-0.0027846969,-0.0035753888,0.0026967404,0.027107194,-0.011735851,0.0022574486,0.01673549,-0.029247174,0.022491295,-0.04048916,0.026879426,-0.0004306582,0.009087137,-0.0029127386,0.032890674,0.0010094244,0.055839308,0.008728419,-0.00898433,-0.00835022,0.027032658,0.020474458,-0.01349151,0.001176609,-0.0032097541,0.029544964,0.020754755,0.029236136,0.009146127,0.041555025,0.003101106,-0.010932205,0.028976789,0.00035855896,0.025132285,-0.030628342,-0.010365381,0.014925757,-0.021523332,-0.029462306,0.0023726663,-0.029746164,-0.014575405,-0.057155196,-0.010882648,-0.0008424518,0.002239454,-0.02101602,0.016053108,-0.01993213,-0.02744274,-0.003499487,-0.0040775826,-0.019168697,-0.016015101,-0.035856254,0.027654883,0.019378006,0.01483275,-0.0009754221,0.033301555,-0.006437623,-0.001202883,0.013120666,0.006304741,-0.018497454,0.028489986,0.06394289,0.002213073,-0.015524832,0.0025056982,0.020661632,-0.018975198,-0.024707401,-0.002962497,0.011635992,-0.005980921,0.011951376,-0.036751762,-0.014690954,0.01817002,0.05643352,0.023990884,0.0033382892,-0.0069955117,-0.027748737,-0.06718169,0.035557173,-0.008327374,-0.02889151,-0.025930382,-0.0033887206,0.014857577,-0.002728163,0.036393,0.015804615,-0.0051927683,0.010216059,-0.018979084,-0.022311985,0.01123646,0.0013238298,0.0054327883,-0.0032143656,0.02025203,0.005314266,-0.005381697,0.017170582,-0.013643484,0.032481886,-0.017348772,-0.023742948,-0.008688822,-0.011610075,-0.032118805,0.009483884,0.039015412,0.012831782,0.046208866,0.018634621,0.023473637,-0.023351282,0.013825454,0.021311767,-0.00312798,-0.020175762,-0.032333393,0.026678361,0.021519452,0.002988012,-0.018332047,0.02271139,-0.012855368,-0.027427055,-0.008963171,-0.02618065,0.027334811,-0.02302019,-0.025635326,0.0009567252,-0.034081027,-0.008716524,0.031182652,0.001969329,-0.01292334,0.025665019,0.0048179515,-0.020424305,0.034191806,0.016063588,0.0090485895,0.035840068,0.024432342,0.010335786,0.03238469,-0.052356437,-0.05432013,0.025182521,0.011222325,0.002962537,-0.00049457024,0.026453663,-0.03202874,0.0012538247,-0.025596716,0.0044983365,0.052814614,0.016654402,0.027746156,0.0032972896,-0.020299299,-0.008724744,0.008712658,-0.050366495,-0.014563139,0.048280966,-0.005541859,-0.051067203,-0.021014351,-0.016255163,-0.006249509,0.017943801,-0.0017723793,-0.06586555,0.046782874,-0.02140051,0.020084128,0.0304261,-0.0013756038,0.006388197,-0.0075562284,-0.024067516,-0.031516396,0.0010757837,0.01909373,0.011656089,-0.023668732,0.010474756,-0.017027466,-0.031042445,-0.01857677,0.0012020277,-0.022135695,-0.0019960036,0.0173702,0.0039461376,-0.017930323,-0.0073275287,0.001002287,0.007936764,-0.0563655,-0.072310366,-0.022337522,-0.0050043673,0.0008876413,0.025886727,-0.03534575,0.03925208,-0.020375032,0.019711621,-0.0038014057,0.014326019,0.0040696994,-0.019408925,0.022264505,0.057985503,0.034309868,0.007162765,0.033325214,0.019443942,-0.0016047374,-0.030836456,0.04087048,-0.028963095,-0.004466308,0.029337928,-0.02467031,0.018378573,-0.020699628,0.0014255943,-0.010584522,-0.037305888,0.040506598,-0.044142824,-0.0022615728,0.00520738,-0.00011195668,0.028802982,-0.034571484,-0.0025604717,-0.026516011,-0.0348102,-0.0042776093,-0.036784127,0.06538286,0.016168999,0.046524063,-0.0021389157,-0.036651533,0.0025062857,0.0094193,-0.0023155268,0.0076072374,0.009279376,0.03537201,-0.0415176,-0.036633566,-0.049811184,0.023154076,0.04582601,0.06000089,0.0067848847,0.056241203,-0.013516151,-0.002246014,-0.009242848,-0.05203563,-0.01458761,-0.017573003,-0.012012688,0.0070518595,0.0027627714,-0.012550824,0.03435352,0.01142825,0.018168686,-0.0019341289,0.03725302,-0.009827922,0.033154864,-0.030472685,-0.03965006,-0.028147334,-0.026407627,0.0344197,-0.028964913,-0.02320947,-0.010492997,-0.014040821,-0.003546248,0.01164268,0.10239902,-0.04436859,0.019271836,-0.016996933,-0.0414562,0.009801067,0.014229857,-0.0035923414,-0.008781653,0.019149477,-0.028027764,0.026225043,0.01041989,0.0031189057,0.014640013,0.03996791,-0.01308627,0.0196604,-0.0055229827,-0.013734813,-0.01859949,0.012718259,0.011507922,-0.023793984,0.0067952145,-0.023286259,-0.01312584,0.002949691,-0.008895712,-0.008145809,0.014149721,-0.021668896,0.042798944,0.03589701,-0.0021870416,0.0077299965,0.0357668,0.002733472,0.008293657,-0.04792754,0.000477915,0.008778089,0.0002301455,0.021949913,-0.025225764,0.004168745,0.01747947,0.010653994,-0.008143597,-0.021771396,0.011816664,-0.03679541,-0.008020257,0.0062052566,-0.015661929,-0.002564641,0.016208867,-0.0029937318,0.014935446,-0.008416654,0.034651272,0.03307025,0.010000323,0.0068507884,-0.052615818,-0.008068596,0.014684206,-0.021569166,0.01778588,-0.010201707,0.011744928,0.048438944,0.009729623,0.023728365,0.0031598276,-0.039269764,0.030778036,-0.016849818,-0.027109347,0.012216874,-0.0023978597,-0.0052654073,-0.002828337,-0.026567513,0.020625735,0.038524535,0.02911621,0.0074863527,0.014215064,0.026666125,0.0014687363,-0.008454893,-0.007199187,0.028097397,0.014414449,0.04043644,-0.019664578,-0.028159738,-0.035437096,-0.008300415,0.02566118,0.0071211844,-0.0071966522,-0.02745377,-0.018842766,-0.0108950995,0.014580833,0.014804349,0.0074290195,-0.0056991437,0.00074820506,0.03118997,0.0063309553,0.0059689437,0.021087151,-0.0066954936,0.0067405067,-0.007324829,0.0016596307,0.007401271,0.006168494,-0.013609826,-0.0061885766,-0.014801779,0.015668489,-0.00096768595,0.003884992,-0.0034297656,0.0014997469,-0.014299855,-0.03385652,0.006295838,0.0049203746,-0.021729479,0.013666704,-0.02588844,-0.02952768,-0.027957022,0.007595903,-0.031840608,0.016968397,0.007918986,0.01188601,0.022022797,-0.0042033074,-0.014450357,0.013860256,-0.027954608,-0.0070764655,0.011229655,0.027830841,0.027687207,0.0034422202,0.005289754,0.008394021,0.0062614614,0.030667976,0.03006516,-0.0055218805,-0.01078122,0.04520644,0.005328392,0.013876368,-0.017304579,0.03661941,-0.030852249,0.007715845,0.0026111915,-0.011424798,0.011778666,0.022543732,-0.043642055,0.0022901287,-0.019365791,-0.0054054586,-0.0068547735,0.016503286,-0.016587902,-0.017026998,-0.014465657,-0.014472484,-0.03417858,0.014785106,0.019561611,0.008066151,0.0052886195,-0.004850036,0.007993237,0.025403542,-0.0038932285,-0.025899015,0.04468736,-0.0040393593,-0.03941468,-0.023550717,0.02209406,0.0060833,0.02873316,-0.023613866,-0.0046095666,0.018441271,0.016261576,-0.030843034,-0.026984027,0.020305065,0.027552212,0.015436308,0.0022488546,-0.034123164,-0.038268663,0.020914119,-0.0045951735,0.020244997,-0.009156416,0.026909404,-0.038724434,0.012425262,-0.0157591,0.0018306766,-0.03139249,0.049306534,0.0048850044,0.0199427,0.0064914655,-0.021017319,0.023011487,-0.018731019,0.0027407832,0.0017810236,0.0034754055,0.023876641,0.009512767,-0.00028448022,-0.0027208913,-0.031093813,-0.008971878,0.043500636,0.016528154,-0.029749231,0.021740247,-0.0034175904,0.00024877104,-0.0014948433,-0.0072568743,0.0017863063,0.028672196,-0.0067236,0.009644863,-0.012230637,-0.024440907,0.02595988,-0.0036806513,-0.03319624,0.03164923,0.022764446,0.035341363,-0.0015216898,0.011758084,-0.013952677,-0.032148305,-0.0029958892,0.01569384,0.05190592,-0.038929153,-0.01693081,-0.014462939,-0.03559628,0.006654751,-0.018514186,0.008892465,0.03772047,0.024016442,0.01423721,0.016545711,0.015845714,-0.01670073,0.022960192,0.013744885,0.025129514,-0.014798847,0.0044823945,-0.041824125,0.012654745,0.010722643,-0.020681133,-0.04890558,0.02099592,-0.041610822,-0.011371736,0.029435212,-0.001691881,0.031002952,-0.015590786,0.007321328,-0.0051661464,-0.021507561,0.039994113,0.03770798,-0.0012310676,0.025223972,-0.033593755,-0.012319796,0.032091126,-0.0056871534,-0.03082274,-0.009129858,-0.019867433,-0.02148616,-0.015682077,0.011153192,-0.009624751,0.009652827,-0.019104827,0.028056301,0.012390394,0.012727228,-0.032228444,-0.028442767,0.00846446,0.0019137304,0.015985778,-0.010676932,0.0016812432,-0.023288397,0.017981706,0.00091352494,0.019551191,0.014359081,0.024218004,-0.0045556515,0.026174523,-0.0016128374,0.011727651,-0.029988708,-0.0001146898,0.02631764,0.009063832,0.016780917,-0.0062197973,-0.00875634,0.0135896355,-0.029036334,-0.014143422,-0.009980155,0.0208355,0.027735656,0.0142851975,-0.010832222,0.010149055,-0.0026256402,0.027233139,0.021914752,0.029062381,-0.0003720743,0.004231827,-0.028048413,-0.024126615,0.0057614907,-0.022890102,0.00718312,0.033582605,-0.014441196,0.0293905,-0.045521494,0.026931087,0.03165992,0.01568858,0.010033185,0.013130377,-0.015079357,-0.006587149,-0.016903598,0.018773613,0.010481133,-0.0006964541,0.04807906,0.016961906,0.010425761,-0.016182397,-0.011993231,-0.00890629,-0.02074845,-0.021829752,-0.03170781,-0.042266298,0.015054736,0.029824452,-0.018878154,0.04487223,-0.0112956315,-0.008685395,0.022883361,0.0049298536,-0.016622245,0.024976008,0.014277721,-0.031010466,0.017267656,0.04277972,-0.014204155,-0.008720768,-0.018709475,-0.0035295333,-0.0009255262,0.026623867,-0.026071401,-0.03152047,0.007259675,0.018386891,0.0055089104,0.012712428,-0.010385815,-0.007658905,0.011117116,0.011318713,-0.029305713,0.04249522,0.015787235,0.0045754085,-0.043745514,-0.010567479,0.019796643,-0.0027950436,-0.012866786,-0.010017086,0.018792553,-0.0053822785,-0.0015711174,-0.00320325,-0.041640833,0.00690899,0.033967063,0.013806132,0.009821344,-0.008302482,0.009983963,-0.016270434,-0.006449468,-0.027494332,0.025086664,0.00014475628,0.013731769,-0.022564689,0.030844605,0.010774388,0.027258411,-0.001906743,0.030418973,-0.010209707,0.002234678,0.019320909,-0.02686461,0.03446834,0.006265057,-0.034567565,0.0210211,-0.0076659163,-0.013966656,-0.008952423,-0.015023658,-0.03040947,-0.011074145,0.008832204,-0.029902883,0.011378975,0.023507992,0.008027995,-0.011388635,0.034476332,0.010635113,-0.009886203,0.03970887,0.030159825,0.004229025,0.01903379,-0.010791097,-0.019654628,-0.01074366,0.014552969,0.006871582,-0.028325483,0.012314186,0.005461881,-0.004259428,-0.036157403,-0.013144558,0.042474043,0.041144334,0.009909012,-0.011457265,0.014361698,-0.003743612,0.004509376,-0.011573259,-0.018226795,0.022128496,-0.028147357,-0.020585062,-0.026597679,0.05372237,-0.046132307,0.020659395,-0.027097922,0.003690678,-0.029033901,0.016836315,-0.020285526,0.043314848,-0.010058455,0.005353734,-0.03960439,0.023448875,-0.0022035458,-0.0051691956,0.006875989,-0.033839934,0.02397416,-0.033338904,-0.0056731636,-0.0078254,0.0057233213,-0.005948903,-0.029719971,0.021138817,-0.022833902,0.013254168,-0.021756744,0.006304016,-0.021816147,-0.06140076,-0.050572656,0.043105666,0.045004714,0.059341773,-0.024080643,0.008404931,0.022083117,-0.028730007,0.0032283536,0.0044647665,0.003979516,0.007780893,-0.024592265,0.004724512,-0.0028978318,-0.045827527,0.0036105728,0.011031427,0.013582606,-0.017773641,0.027949473,-0.0010710555,0.011222116,-0.0037663025,-0.013855586,-0.025100734,-0.00440926,0.030180024,-0.015959108,-0.0019360583,-0.014094639,-0.0368179,-0.0053703478,0.039458778,-0.00360373,0.00015358016,-0.013038002,0.035453096,0.026446188,-0.011164694,0.02632307,-0.0115302075,0.014109711,-0.0027701387,0.025048407,-0.02353951,-0.013603906,-0.024738062,-0.02973306,0.030777873,-0.01521341,0.045961536,-0.019622687,-0.011073239,-0.019139463,-0.018985854,-0.000543733,0.006039778,-0.043927256,0.04041037,-0.032870278,-0.02167457,0.02460938,-0.021878852,0.023997666,-0.001198956,-0.0073410296,-0.027210891,0.023279699,0.014250757,0.011462653,0.01576805,-0.045001294,-0.016810825,0.014775468,-0.030339144,0.0003683318,0.034538608,0.002933512,-0.022144113,0.024737582,-0.010408073,-0.0035725385,-0.06522268,0.039283257,-0.004904815,-0.023480438,0.047492433,-0.060905024,0.03043581,0.011252781,-0.016704855,0.0053977123,-0.049242567,-0.025941813,0.006164121,-0.017014325,-0.00064432836,-0.0068915244,-0.022262195,-0.011499251,-0.056371115,-0.009812051,-0.04364927,0.050869253,0.016364245,0.056362577,-0.0017960944,0.01033241,-0.038990244,-0.0062741516,-0.016902383,0.024601106,-0.011651252,0.0011946127,0.049419176,0.025741288,0.013105075,0.03697643,0.016406372,-0.028350428,0.03651546,0.06474945,-0.009287683,-0.0047698314,0.031126931,-0.027240822,-0.03085584,-0.007170535,-0.023295628,-0.011007894,-0.03165398,-0.0052185073,0.033649575,0.041271176,0.014445058,-0.052617073,0.019842986,-0.019380523,-0.0071036234,0.048326235,0.045514625,-0.0108567495,0.020084117,-0.04749518,0.02034435,-0.06108931,-0.053997155,0.017942427,-0.0031920932,-0.023326412,0.0088111935,-0.005109458,-0.0044413377,-0.012184673,0.021931492,0.027467232,0.0119367,-0.007521237,0.029850885,0.018110452,-0.03364773,-0.026481045,-0.0005661745,0.004029721,0.011881413,0.035492316,-0.017049177,3.459391e-05,0.026666235,0.006875956,-0.050371427,-0.0413869,0.0015266209,0.01854351,-0.019066377,0.027109046,0.035741515,-0.033561956,0.013116172,0.018412186,-0.007224225,0.018050974,-0.0034174086,-0.025894176,-0.037341207,-0.018558068,-0.029000845,0.006907144,0.0037939781,0.013709629,-0.0068310415,-0.0030892438,-0.010553342,0.0010507695,0.006953892,0.03493295,0.016244683,0.030348543,-0.036482472,0.04183723,0.01604624,0.028932642,0.011595797,0.01331514,0.0018299661,0.023942726,0.035005253,-0.058761377,-0.003614671,-0.034433316,-0.011473587,-0.012927092,-0.029510288,-0.031920798,0.03820544,0.018067932,0.0021346947,0.025835304,0.016961895,-0.0005148349,0.00985553,-0.0076435106,0.017002009,0.0011621123,-0.007879663,0.040913515,0.030792337,0.024236353,0.0049096323,-0.038601555,0.012287254,0.011973829,0.022603491,0.03599214,0.009871177,-0.02885482,0.0225868,-0.04766402,0.012111113,0.008221155,-0.02701186,0.022573123,-0.0049829576,0.019604841,0.036050018,0.004181016,0.03194169,-0.0012020373,-0.03219806,-0.03807733,0.010242486,0.001925063,-0.004870718,0.041484334,0.026790908,0.008808396,0.024422122,-0.0418438,0.022481423,-0.0054419124,-0.016275434,0.02476018,-0.024950039,-0.023702241,-0.010787559,0.03848501,0.0148367565,-0.003952665,-0.019297345,0.014428909,-0.006554129,0.030539028,0.048023634,-0.008358452,0.018540392,0.005374469,0.008146418,-0.028511262,0.01836885,0.022612197,-0.012154422,0.007318412,0.03420982,-0.037264537,-0.010757843,-0.01504832,-0.027949104,0.0057056434,0.008590017,0.029574778,-0.0020003768,-0.014498056,-0.004100833,-0.024150915,-0.003831247,-0.01716064,-0.034962166,0.02943193,0.03457975,0.030510046,0.026225042,0.03568155,-0.019634089,0.00096820085,0.020631518,-0.017027296,-0.0057372395,0.0066636223,0.003051358,-0.030086586,-0.024068264,-0.007831523,0.01799828,-0.02224025,0.011395117,0.006505906,0.0085011665,0.0047451896,0.003702407,0.024395293,0.023076491,0.01199779,-0.049220953,-0.018557573,-0.0015117096,0.019528251,-0.012778072,-0.014796192,0.009730382,-0.019240603,-0.022616329,-0.010096857,0.0154120885,-0.0073482054,-0.025307968,-0.018420186,0.0037586521,-0.00750686,0.031341366,0.022606198,0.00516917,-0.022406058,0.007335886,0.007595127,0.024037812,0.015563369,-0.005457396,0.01461852,0.002529478,-0.009352904,0.016034346,0.02219157,0.006138176,-0.016953442,0.018721076,0.016470542,-0.004696347,0.0043198243,0.013944877,-0.051314533,-0.0066320277,0.0014698721,-0.0010588525,0.035062157,-0.021136215,-0.0346448,0.0038053985,-0.036951132,-0.0062596537,0.012715481,-0.007975065,0.010848077,0.037025433,0.0024850995,0.049736097,0.008196243,0.023900263,0.0046043256,-0.011943115,-0.014717106,-0.013613243,-0.009172764,-0.020313535,0.011344443,-0.018268242,0.00054302486,-0.034857992,-0.02535119,-0.012173232,-0.02331548,-0.005863623,0.038921595,-0.012546951,-0.03396165,-0.0038249304,-0.020361321,0.0087390505,-0.02406739,-0.0051209265,0.005469833,-0.023221387,-0.018142154,0.030737404,-0.007293487,-0.02909083,-0.027767468,0.030031377,-0.0055145193,-0.0016222922,-0.0019214292,-0.0026259676,-0.0122794,0.0147767505,-0.0103034815,0.04178749,0.04951726,0.030086968,0.06822675,0.04272201,-0.033826068,0.02974219,-0.029231953,0.011077184,0.009189098,0.0009921127,0.05389919,0.05198082,-0.0116966935,0.039287712,0.005568016,-0.036297556,-0.03776477,-0.01901457,0.04070886,-0.032049876,0.011144684,-0.024182286,-0.013667422,-0.020357305,-0.029752601,-0.032295875,-0.034591198,-0.00082107325,0.0063391426,-0.0063821017,-0.0016542302,-0.065836914,0.023519421,-0.023573402,-0.0100527685,-0.012099799,-0.0017507914,0.004663776,-0.010244194,0.02741827,0.02784696,0.02375831,-0.004764691,0.02821274,0.014754998,-0.032736763,-0.013866047,-0.00992124,-0.022311714,-0.033576604,-0.011540101,0.027772423,-0.013504653,-0.015818683,0.077736646,-0.0071902317,0.0101885935,0.027539965,0.027296038,0.017979959,0.029131763,0.02796913,0.030033903,0.027971227,0.019981643,0.018906076,0.03167564,0.013990819,-0.02282904,-0.023853466,-0.018493086,-0.02309485,-0.04609608,0.012896523,0.006031949,-0.011654851,0.025430651,-0.013245047,0.035339914,0.023303775,0.010331525,0.03871472,0.0036027168,-0.017365033,0.009648098,-0.03018152,-0.023117527,0.04976445,0.008617752,0.040747132,0.021207457,0.0059675737,-0.044003602,0.032861054,-0.0090954015,-0.00016133687,-0.004159212,-0.0078048464,0.0091042975,0.0015378485,0.035481196,-0.015104843,0.003656501,0.002741165,0.011017918,0.042237908,0.019312313,0.026232097,-0.020166028,-0.00037236695,-0.0015855279,0.018907897,-0.043532886,-0.020254245,0.026100803,-0.045139994,0.02564392,-0.007986355,0.0029444087,-0.026022028,-0.0037482446,-0.033406567,-0.055902213,0.025386112,0.028492412,-0.01435353,-0.0007039579,-0.028622197,0.019987436,0.030553985,0.011507822,0.019186167,0.026260378,-0.0045677875,0.024494829,0.030945465,0.017998332,0.05654389,-0.014185353,-0.021613633,0.024672935,-0.02243631,0.0024707618,-0.010739968,-0.0042307917,0.043074425,-0.042544845,-0.049024966,0.019188426,0.01100898,0.0126574235,-0.00020684936,-0.0137305,0.041272692,-0.046233755,-0.047834344,-0.0024847132,-0.043604244,0.039754003,-0.0054819323,0.011399698,0.023438793,0.0071543395,0.009027141,0.025155721,-0.019189745,0.0054476536,0.026051564,0.033501603,0.00821629,-0.0101768365,0.021644812,-0.011939294,-0.00669341,0.0030735005,0.0154986335,-0.020866884,-0.003347146,-0.03132682,0.06417396,-0.03148229,0.0020472647,0.0036251596,-0.032526217,0.014130127,-0.020568728,-0.005795581,-0.024123235,-0.015183875,0.020879649,-0.016450385,0.002884991,-0.041983135,-0.010449379,-0.0056797024,0.0107874805,-0.02278436,-0.021005033,-0.022162654,0.047320712,0.023270639,0.037822843,0.023341326,0.021256464,0.03304794,0.010973727,-0.025412045,0.0050677336,0.023111463,0.018760646,-0.004107285,0.002856606,0.035301156,-0.01631552,0.024228368,0.011449609,0.0039941664,0.0028967338,-0.043974005,-0.0051974817,-0.004662663,-0.04914576,0.009844801,0.016875157,-0.03647836,-0.0064792135,0.0037050631,0.02317214,-0.028504448,0.013308356,-0.03525186,0.0014899592,0.018811679,0.010263079,-0.0075582378,-0.05018761,-0.0012488421,0.003595016,0.00016472262,0.05823161,0.021261806,0.04755918,0.03711426,-0.012893099,0.029721448,-0.025667973,0.045773033,0.051509514,0.024929537,0.02748158,0.036428373,-0.0617848,-0.057839453,0.0028161998,-0.040822994,-0.016452642,-0.028275585,0.009479795,-0.016585214,-0.0013715088,-0.02492197,-0.0010611501,0.04085955,0.015260568,-0.016223112,-0.0018484598,-0.009834496,-0.02232369,0.028003993,0.01849366,-0.008178379,0.0050422265,0.031335477,-0.009373582,-0.03776243,-0.022196876,-0.031557586,0.029880352,0.03710902,-0.015436967,0.018214613,0.0042863716,0.009535835,-0.033917986,-0.030181639,-0.002153948,0.003751555,-0.016432915,0.020351937,0.0043955785,-0.035048928,-0.005746889,-0.049621638,-0.02270968,0.0058694626,-0.031099807,-0.029833097,-0.006510437,-0.018162206,0.0167101,0.06782535,-0.041271616,-0.023896707,0.045568712,0.011799039,-0.043954235,-0.017170673,-0.0054149954,0.019626984,-0.0024390847,-0.010683366,-0.023590673,-0.015981464,-0.014597939,0.00013770972,-0.034705434,0.016112795,0.023285307,0.0045640864,0.0025274225,-0.04050635,0.032690518,0.020775596,-0.014021323,-0.003868063,-0.0069141597,0.012508956,0.037985377,0.015525334,-0.012715633,-0.023219347,0.022905173,-0.007651873,0.04122472,0.00029385282,0.011542873,0.05485178,-0.013731638,-0.0094078,-0.0180396,0.0023076264,-0.06812008,0.035753064,0.023344407,0.020583091,-0.014534254,0.009687576,-0.0015582375,0.024401367,-0.016665496,-0.019683009,0.024450064,0.01726778,0.02833885,-0.024981977,0.023641296,-0.016692637,0.007715665,0.029738212,-0.01431178,0.025366237,-0.019951394,-0.022409774,-0.022242727,-0.029197017,0.00094534195,-0.031576008,0.0063725924,-0.0199478,-0.026826592,-0.040509943,-0.017242549,0.019570444,-0.0035252925,-0.0227458,0.016738895,-0.0076378356,-0.018733295,-0.031567562,-0.022129718,-0.02543528,0.055601463,-0.0042495774,0.01932163,-0.037800077,-0.009306194,-0.035767928,-0.0008058517,-0.00874925,-0.012691883,-0.026561236,0.018901553,-0.000115054914,0.042051814,0.0299709,-0.012132278,-0.007949346,0.042466935,-0.005107387,0.009685081,-0.016541975,-0.016287323,-0.02914493,0.017564772,-0.048052773,-0.007970746,0.036921676,0.011701669,-0.03222203,0.025868503,0.0047530783,-0.025634382,-0.019948624,0.025804857,0.01632156,0.009927034,-0.004034646,0.023617344,-0.032013617,0.0024036025,-0.008232753,0.014411323,0.021184525,0.029500213,0.02105007,0.016707921,0.021573665,-0.018307164,0.02746097,0.02231269,0.018409899,0.006256929,0.051869087,0.0241996,-0.017376605,0.0051504713,0.016057523,-0.001971424,-0.059851196,-0.010983433,0.01637826,-0.025708534,0.027339004,0.014240035,-0.008550959,-0.05365855,-0.052912343,-0.043659106,-0.0010792058,-0.03493158,-0.046117395,-0.02876143,-0.030378263,0.0013338,-0.0035872164,0.017053701,-0.02672876,0.0034272438,0.062204324,0.02051292,0.027496325,0.006630657,0.010055875,-0.011137238,-0.0045654676,-0.0015147841,-0.0025193484,-0.013471257,0.01431952,0.0057102423,-0.021487383,-0.00650512,0.028291242,-0.008250188,0.008485654,-0.025231788,-0.038205687,0.01030637,0.0014355936,0.0111801,0.006213615,-0.02585183,0.020716026,0.010014774,0.004528348,0.019092612,-0.024437767,0.005176507,-0.007031801,-0.011729862,0.026703157,0.021592757,0.034967896,0.018849965,-0.014833564,0.0033541198,0.024906196,-0.02618079,0.03419238,-0.03373364,-0.028133146,0.0070937513,-0.0043597785,0.02473708,0.009519135,-0.00031819215,-0.028829547,-0.024005879,0.020756017,0.035951607,-0.020684255,-0.021138381,0.020481018,0.0031753383,0.02932145,0.0022265273,-0.00014964794,0.007487176,0.005952838,0.029261297,0.02369603,0.016150193,-0.029933844,-0.0017928571,-0.036398273,-0.018618353,0.0001350849,-0.00769691,0.0060728756,-0.02700214,-0.031996634,0.0036130312,0.011215296,-0.0076744375,0.0023641658,-0.007624154,0.011853749,-0.01149818,0.00025127264,0.0017108397,-0.01274451,0.0022979958,0.035039943,-0.034325887,0.04398943,-0.016009644,-0.01855455,0.00017073486,-0.017350202,0.017868062,0.030711852,0.029882962,-0.008917423,0.02633323,0.017029023,-0.0068974216,-0.0014881969,0.0144938305,0.0020585936,-0.023189839,-0.028984623,-0.016472545,0.0109962365,0.0008506422,-0.008662535,-0.004140707,-0.020211402,-0.045605347,-0.02720556,-0.031315908,-0.0172001,-0.039399933,-0.01108278,0.07397023,-0.0062343352,0.011477193,0.019565515,0.03786389,0.014169369,0.0166996,0.022021761,0.003983385,0.01927656,0.0063573658,0.006673623,0.012797991,0.00040254573,0.028560916,-0.036706958,-0.034910712,0.00032232885,-0.027186504,-0.027597534,0.029723812,-0.018877208,0.004704252,0.04745859,-0.012605132,-0.015523138,-0.012430238,-0.025815966,-0.0009251016,-0.04477211,0.047513943,0.033092532,0.012483375,0.032212857,-0.033247788,0.011320698,0.015170133,0.015037928,0.0063091125,-0.044947937,0.011721791,0.0055006985,-0.0044983234,-0.014438167,-0.048796833,0.0013993928,-0.037916377,-0.0022082718,0.036915842,-0.0016492362,0.05068038,-0.05077131,-0.027377553,-0.017740551,-0.02349745,-0.029776322,-0.010254433,0.030815477,0.008384435,-0.02987656,-0.028250013,-0.040518407,0.002768516,0.017811507,0.015031992,-0.029055478,0.026072321,0.012907321,0.033699524,0.03296144,0.026359322,0.0116506005,-0.039089605,-0.02568867,-0.023371061,0.014396143,-0.083555184,-0.008980407,0.039637703,0.015236122,0.014930705,0.009189634,-0.0015137654,-0.028414592,0.06690089,0.006238653,0.044527452,0.025720952,-0.050661914,-0.021243853,-0.027138293,0.024087695,0.023098849,0.027099472,-0.0031296955,-0.02589556,0.023002269,0.022671223,0.020567106,-0.013223761,-0.03509455,-0.015501591,0.0287296,-0.010119203,-0.0032673844,-0.019754395,-0.00630329,0.0068419194,-0.04167525,-0.01594955,0.020983389,0.020422734,-0.0044857357,-0.033012453,-0.04078459,-0.021394057,-0.0040924456,-0.02770643,0.029602716,0.010571236,-0.014280328,0.01654559,-0.012627018,-0.011425414,-0.025542472,-0.023843508,-0.015502378,-0.008945888,-0.02388587,0.013682757,0.038968466,0.034087125,-0.047255244,0.008715391,-0.025273832,0.042959962,0.016256956,-0.0129796835,-0.045004606,-0.004668073,-0.037118915,-0.013155055,0.0027046585,0.013465671,0.0073309215,0.021607293,-0.023328815,0.008898899,0.03324339,0.0747529,0.038142994,-0.014720688,-0.02431872,-0.013832996,-0.014313822,0.0025778553,0.010768048,-0.019719876,-0.014653933,0.015806548,-0.00434444,-0.006197496,0.01609981,-0.012897096,-0.0065812487,-0.010553507,-0.019759666,0.013067152,0.015115247,-0.022929857,-0.017013622,-0.008250966,-0.0054982556,0.0013505467,0.042178866,-0.04016502,-0.02505769,-0.025957678,-0.04396255,0.012070552,-0.052192178,0.015268671,-0.011176181,0.019529678,0.006231035,-0.015909562,0.019054148,0.012964192,-0.0541544,0.02685817,0.037126523,0.051102493,0.01613842,0.021108273,0.035436653,0.028579855,0.03750522,0.01772841,-0.015450359,0.005961428,-0.018700263,-0.001990782,-0.0071486835,0.015772678,0.0057423883,0.039025668,-0.0024796512,-0.0141768865,0.030655969,-0.007818865,-0.048464634,0.007010605,-0.017469883,0.005771966,0.012087634,-0.023620384,0.01415113,0.010182096,0.033795446,0.015593102,-0.022209447,-0.019151276,0.011265686,0.032743134,-0.038615573,0.004312104,0.0010638442,0.016946513,-0.017034044,-0.027015476,0.035605434,-0.029162696,-0.008385353,0.006269571,-0.015624165,0.010588635,0.00031133016,0.02788024,0.0054856427,0.025624992,0.04857634,0.020145092,0.041206814,-0.04040859,-0.017156808,-0.020668259,-0.011702651,-0.024761867,-0.010518334,-0.03996284,-0.009618533,-0.0062721977,-0.014995517,-0.032767832,-0.020807035,-0.044206526,0.026187735,-0.0015590028,-0.008451686,-0.00019828208,-0.03172511,0.026868956,0.0019288376,-0.0027149236,0.02564487,-0.00944996,0.0066462783,0.036241923,0.046601605,0.078792416,0.007872869,-0.047001194,-0.024377748,-0.02350091,0.019292383,0.0033075644,0.056528375,-0.044691917,-0.0033729076,-0.013522604,0.027447445,0.012376174,-0.033102307,0.006987055,-0.010143235,0.031559184,-0.0022600528,0.014522857,-0.007593083,0.0033994874,0.014258339,-0.014488857,0.04469326,-0.017968252,-0.042082854,-0.003058035,0.0012646145,-0.0135324225,0.033141226,0.0060375696,-0.035894945,-0.005576541,-0.025846869,0.017181192,0.023601437,-0.0017050325,0.009999891,-0.022331418,0.014131953,-0.043990996,-0.007915423,-0.02500007,0.025271343,0.011470133,-0.009440108,-0.04838773,-0.031012094,0.01909087,0.049362183,0.03340557,-0.009079813,-0.0068155583,0.018411776,-0.01453838,0.0137462225,0.0020364786,0.001075859,-0.01772371,0.008562962,-0.003352922,-0.010664869,-0.0022619346,-0.031674553,-0.042586748,0.046466343,-0.017819481,0.01446193,-0.018043239,0.0073707337,0.008189489,0.0216712,-0.012660846,-0.0018481843,-0.039308093,0.02738321,-0.0067562386,-0.018390222,0.012137804,0.017277442,-0.023890356,0.036903534,-0.04033775,0.02864123,-0.020584049,-0.029386666,0.0423112,0.010591738,0.015278147,0.023715384,-0.005625487,-0.029115636,0.011390643,0.02511313,-0.0041382075,0.019803267,0.009865418,0.0038638432,-0.00762652,-0.02776774,0.0048684143,0.0026586407,-0.008942253,0.015116325,-0.0036306437,-0.0043523177,-0.011984308,0.0135555025,-0.016016308,-0.022949787,0.005296535,0.020838238,0.0031191444,-0.034956172,-0.019969432,-0.06181706,-0.0048368927,0.011145358,0.025439173,0.031160515,-0.008723428,-0.01754812,-0.033890504,0.013806045,0.029740855,0.017610667,0.060221232,-0.015233241,0.0025328354,-0.014710749,0.01507352,0.01272771,-0.01287593,-0.025546754,0.009512357,-0.021169173,0.014762423,-0.0118294675,-0.029549323,0.02538876,0.014292919,0.02841661,-0.03301961,-0.033805512,0.010722905,-0.042174857,-0.0258829,0.011508296,0.02433258,0.032520544,-0.0010479845,0.0015505562,0.004544,-0.02081879,0.019902393,0.037627462,0.00022243173,-0.012662805,0.014622637,-0.004979713,-0.010130384,0.027561203,-0.011145211,-0.0067743557,-0.004409667,-0.05146482,-0.009382276,0.020506492,0.040440407,0.026089698,-0.026958793,-0.01588791,-0.009160374,0.014554212,0.010668961,0.0055980003,0.0085837385,-0.006432728,-0.016020847,0.0125876535,0.0060369647,-0.006589403,0.026272345,0.013820586,0.032544363,0.02097961,-0.02753661,-0.001120399,0.008428544,0.009218798,-0.00039939035,0.013379413,-0.011499248,0.024551349,0.0024820897,-0.035209466,-0.024659647,0.030237382,0.020233432,0.037398513,-0.01832993,0.011056473,-0.01530583,-0.029011577,0.0007711692,0.0221995,-0.019169766,0.024624713,0.010745593,-0.013589147,0.0062134736,-0.005983437,0.0069207516,0.0211468,-0.022047538,-0.026577415,-0.0362204,0.0120506175,0.022728745,0.0028992333,0.03104363,-0.0066661155,-0.0047100033,-0.006518613,0.0033283904,-0.022885537,-0.020810302,-0.034821622,-0.014605231,0.0074783117,-0.026257252,0.031650774,0.002399176,-0.009748519,-0.022905113,-0.019627608,0.021985942,0.032268066,-0.0037654508,0.016058596,-0.003138004,-0.00040256788,-0.0031439895,-0.017074205,0.008208641,-0.005166246,0.027731683,0.00070336595,0.025175165,-0.021076169,-0.00063660915,0.032215446,-0.023457611,-0.00031855106,0.01132228,-0.0018553342,-0.017456092,-0.009007276,-0.009400866,-0.013908619,0.044902347,-0.030549128,0.02124744,-0.02283247,0.043804906,-0.0049096206,0.028624766,0.0022241557,-0.008561741,-0.014045032,0.014034826,0.022538243,-0.006286804,-0.014625148,0.0069223763,0.017997226,0.026782008,0.0036946062,0.0140331555,-0.00410028,0.03279306,-0.032291044,0.022937316,0.039114892,-0.017738381,0.028513376,-0.00042894226,-0.006819759,-0.02293577,-0.0048161717,0.019587709,-0.02464589,0.039041717,-0.03432661,-0.025251364,0.00817777,-0.013277899,0.025941541,-0.011957325,-0.014045413,-0.018574832,-0.0118774045,-0.013835722,0.022983579,-0.0017104115,0.018501565,-0.020334303,-0.018879117,-0.024933187,-0.020781996,0.0046859933,0.019453093,0.014912216,0.03430775,0.027587952,-6.436962e-05,-0.00017996968,-0.05102136,0.018131759,-0.009399458,0.021172862,-0.007559771,0.02362133,-0.009186215,0.015678233,-0.03969782,-0.011666859,0.013421809,0.02617428,0.022660192,-0.009869157,-0.013489892,0.018061208,-0.012557888,-0.011814534,-0.024135012,-0.0021009361,0.008267409,-0.008432309,0.02671536,-0.013119162,0.01658344,0.024595086,-0.002684873,0.0018118587,-0.027776828,-0.027282378,0.047034357,0.01357012,0.0075299423,0.021045687,0.039312355,-0.031814516,-0.010039865,0.026066847,0.034087513,-0.016265273,0.010232402,0.041518025,0.01261265,-0.026827874,0.009921918,-0.013601999,-0.014363448,0.00287467,0.019591292,0.022492466,-0.040130734,-0.048987806,0.0033987102,-0.007676261,0.01799491,0.005796063,0.028739948,-0.04320033,0.0057471227,0.0113625955,-0.011519182,0.009938935,0.023578199,-0.032079175,-0.0011470624,0.01548407,-0.0026491988,-0.013310708,0.012714377,0.01399717,0.020958273,-0.021220377,