0.012797381,-0.08865344,-0.03927851,0.092529036,-0.013303477,-0.15368867,0.011902454,-0.086647496,0.04649904,0.094081,0.23468706,0.0012369824,-0.07274046,-0.11183968,0.07755396,-0.17046072,-0.096904114,0.04249641,-0.16058506,-0.0844583,-0.04242183,0.043465354,0.10994443,0.114033505,0.18399005,0.059707507,-0.00983411,0.026157439,0.11233149,0.10054941,-0.060933232,0.03685192,0.09176036,-0.027928093,-0.16557205,0.008605668,0.12675567,0.048460696,-0.17012262,0.1497862,0.11189042,-0.17114568,0.08525176,-0.07154205,-0.059451144,-0.16361372,-0.11992081,0.06762839,-0.16101533,-0.11176361,0.08075879,0.013539246,0.1449135,0.08297984,0.15981995,-0.07219868,0.04438618,0.15291451,0.18913855,-0.13506062,-0.0073933033,0.0707971,-0.016332407,-0.056063022,-0.12795626,-0.03924892,-0.18954377,-0.057188395,-0.12928586,0.074009895,-0.08441,-0.06592921,-0.046175424,0.12945347,0.003312998,-0.047394373,-0.047191393,0.18147771,-0.016013695,0.018876806,0.11320863,-0.00035953583,-0.101048775,0.027708145,0.12461915,0.0359003,0.092477694,0.032895025,-0.109154016,-0.025199147,0.10859856,-0.07334251,0.019448036,-0.04268099,0.036560383,0.06131112,0.096611954,0.18985191,-0.07647622,-0.0056382446,0.0036750184,0.025952017,-0.13073596,-0.0668321,-0.12108457,-0.11924254,-0.111340106,0.11499399,-0.0511132,-0.10582405,-0.14947446,-0.005666173,-0.075610094,-0.043217104,0.04971974,-0.058539256,0.06747732,0.016418332,0.23279469,0.12173901,-0.04532238,-0.109104626,0.096850365,-0.04159483,0.1423806,-0.18409455,0.05647221,-0.06421172,-0.062898606,-0.05767177,0.073805414,0.1042659,0.07027965,-0.02968825,0.049211867
0.028733756,0.053395506,0.00028077557,-0.01019571,-0.05200622
0.041281797,-0.09111051,0.019279214,-0.050992884,-0.03065538,0.053680763,-0.051560655,0.08844842,-0.053484485,-0.013803288,0.051542923,0.08610089,-0.01886683,-0.026527207,0.04559807,0.002167744,0.09550419,-0.08612413,0.044377808,0.007899318,-0.030841121,0.09814934,-0.10009821,0.07385005,0.058043666,-0.04559853,-0.026628055,0.004198002,0.037991196,-0.058800753,0.0069119507,0.08146673,-0.04265676,-0.068780765,-0.026865846,0.043443613,-0.07692092,0.03381707,0.006210093,-0.032440636,-0.03202753,0.043289743,-0.013050455,0.07663598,-0.075079344,0.098123975,0.017033959,-0.096659765,0.039533332,-0.05569144,-0.051859554,-0.019960344,0.031032937,0.08633465,0.097954504,-0.007493856,0.06841309,-0.062283177,-0.06494498,-0.053014904,0.04788959,-0.037769604,0.0218223,0.02394769,0.09602372,-0.06842124,0.030894551,-0.043188233,-0.08562608,0.040884722,0.061881684,-0.09881352,0.007265184,0.10179148,0.045237735,-0.13471936,-0.13262884,0.073431216,0.06569735,0.06357284,-0.019676013,0.012110788,0.011281499,0.03308065,0.017075935,0.090169735,-0.081691936,-0.12896271,0.0012785828,0.05267413,-0.004599543,-0.006123678,-0.005954322,0.020638557,0.061357725,0.047751494,-0.03748775,-0.03170863,0.043686632,-0.012354396,-0.087739855,0.02528434,0.053531166,0.013523304,0.036283087,-0.011199796,-0.046675418,-0.007328808,-0.04722331,0.013560807,-0.03213412,0.13928106,-0.057731133,0.044147067,-0.058601152,-0.018087573,-0.040594254,0.023626147,-0.03685982,-0.050728645,0.011064949,0.13957769,0.052384272,-0.06585962,-0.083421715,-0.045934543,0.05970238,0.038084533,-0.029057277,0.03307621,-0.09923955,0.004186218,-0.06880723,0.12730516,-0.028473899,0.040298384,-0.07434828,0.016660038,0.083932176,-0.09674496,-0.066772066,-0.040347774,0.097517654,0.033049997,-0.14566852,0.05713584,0.0016891615,0.06464771,0.07127884,-0.06901885,-0.0044185957,-0.012957412,0.041602373,0.009307326,0.04657055,0.04128918,-0.058608156,0.114913024,0.026359253,0.116461076,-0.10762118,-0.05824758,-0.09373539,0.06924586,-0.117027536,-0.008176874,-0.041865487,0.11412613,0.06655373,0.001088972,-0.06704609,-0.0076932576,0.08326837,-0.047803365,-0.0729326,-0.0008919558,-0.07796432,0.00729155,0.044293378,0.032477356,-0.074112356,-0.00024075883,0.027822958,0.037004963,-0.09529708,0.09131503,0.019369783,-0.040961444,-0.083267495,0.0074924068,0.0005760786,-0.091154486,-0.040834144,0.0066912435,0.05805133,0.09665616,-0.029195257,0.07383798,0.0114895115,-0.077437684,0.058823083,-0.113753855,-0.0012699079,0.0021351625,0.0682897,0.08626388,0.030861823,0.012730794,0.06963862,0.01999042,0.059634365,0.020973627,-0.046418343,-0.070556186,0.026758203,-0.015567417,0.020237181,0.08409384,-0.12822445,-0.07703951,0.11510997,0.02638282,-0.030305156,-0.0881173,0.004025072,0.043616164,0.06918664,-0.07844268,-0.0059204083,-0.08340416,0.07936441,-0.013228047,0.013400605,-0.04076776,0.08812702,-0.04771967,-0.007005246,-0.104153,0.058511853,-0.015349259,0.0956687,-0.115776844,0.07415899,-0.016865367,0.089138635,0.027266042,0.050710723,-0.11881153,-0.016716354,-0.0046948744,-0.07371813,0.088868044,-0.011694326,0.071545556,-0.0332268,-0.072095715,-0.06271988,-0.06044409,0.056381986,-0.016811518,0.03494867,0.07168204,0.06888429,-0.109410666,-0.11689343,0.099920385,0.09823739,-0.051300406,0.0408213,0.002863263,-0.023297923,0.11262751,0.029649928,-0.0030778404,-0.016512161,-0.102080084,-0.037998103,-0.08291467,0.13354328,-0.059298072,0.033554766,-0.020080151,0.053879153,0.112792596,0.017166726,0.026654853,-0.042920396,-0.08859636,0.06039405,-0.044805646,0.04715838,0.018688327,0.054469366,-0.05077558,-0.08295274,0.056719005,0.047373213,-0.011674953,-0.040077068,-0.0791681,-0.009219697,0.054176085,0.11277404,0.03858911,-0.07787545,-0.055558976,0.040332362,0.025198074,-0.023129884,-0.07133661,0.051711515,0.011577659,0.005114564,0.041606974,-0.070289806,-0.021964727,0.02817008,0.0243046,-0.07506631,0.07533128,-0.0015967132,-0.018292516,0.008278709,-0.02815508,-0.059166208,0.0906846,0.048227474,0.07845848,-0.074802965,-0.07576837,-0.11133769,0.07017368,0.06506839,-0.013555507,-0.04293782,0.08806272,0.10035035,-0.06197211,-0.07215853,-0.021224517,0.062810525,-0.069291525,-0.065483905,0.04829024,-0.049212795,0.028026484,0.04217881,0.048494596,0.087890685,-0.14420496,0.067797415,-0.008201021,-0.091065675,0.0798318,0.0067044105,0.07999303,-0.08529392,0.024625774,-0.021147229,0.028710786,-0.052346252,-0.044687178,-0.03704478,-0.015403717,0.076134585,0.09162116,0.09811763,-0.11618948,-0.0015098173,-0.028466541,0.0068306797,-0.027847117,0.09243268,0.0017919797,-0.04242002,0.0020819681,-0.092924535,0.071232535,0.062555596,0.024581192,-0.086514935,-0.12813878,0.06903349,0.07637459,0.11012562,-0.037413444,-0.09547738,0.030353224,0.030929383,0.021062523,0.00052453927,0.020401303,-0.00804997,-0.05503761,0.0058647026,-0.031948473,-0.008826913,-0.020370886,0.030545525,-0.093316294,0.06050503,0.05366517,0.06599464,-0.1274537,0.083886065,-0.027038107,0.1039248,-0.10820106,0.03669998,0.024287418,0.028087696,-0.059247274,0.016869342,0.017175293,0.071291335,0.02426191,0.053144414,-0.085041575,0.022482725,-0.098233655,0.02191548,0.084383614,0.020231847,-0.06983014,0.00219057,-0.010098853,-0.044991083,0.007920239,0.033064373,-0.067942746,0.076197684,-0.011064419,0.0267441,-0.037071817,-0.051319215,-0.032779273,0.045021337,0.0101389615,0.047388203,-0.05881105,0.081744246,-0.0116459895,-0.024655594,0.0016869232,-0.030045494,0.1131628,-0.009797532,0.020708628,-0.06562309,-0.049540248
0.21426345,-0.01152863,0.07261816,0.03900745,-0.32506564,-0.029883202,0.16963181,0.13961756,0.058787372,0.35432535
0.06234529,-0.027330188,0.052501153,-0.04467901,-0.052929353,0.07449509,-0.05348531,0.05827087,-0.0095339725,0.024773696,0.02492975,0.037248954,0.0038360085,-0.028239045,-0.03003103,-0.037735023,-0.013626084,0.04046983,0.038554974,-0.06417001,-0.03702045,0.03489202,0.05378707,0.012086974,0.034719862,-0.023377847,0.012037174,0.0049441517,0.005642979,-0.072267935,0.022314725,0.019418288,-0.05333903,0.0039644944,-0.031346396,0.0664704,-0.10773031,-0.053537276,0.004112458,0.048764385,0.1027426,0.001410192,-0.00050055253,0.037846956,-0.052276835,-0.006120614,0.06471992,-0.02330072,-0.021802891,0.017584914,-0.021459896,0.082051426,0.03529175,-0.0038644196,0.0073296726,0.03845566,0.015251561,-0.020523537,0.07542765,0.12682351,0.050830703,0.001763889,-0.018932072,0.048638944,0.03530962,0.012860847,-0.046567507,-0.015083355,0.033262122,-0.0058455956,0.0063745235,-0.030507648,-0.009246126,-0.055472165,0.0048042405,0.009728663,-0.033764955,0.009743011,0.0004548488,0.016625335,-0.011893221,-0.029963795,0.028396368,-0.008517425,-0.007302066,-0.013835823,0.013965007,-0.00830297,0.007007115,0.048540387,0.094511636,0.0079122875,-0.0009835872,-0.03756229,0.025009712,-0.06809735,-0.045118824,0.015496543,-0.028576674,0.026466954,0.046156548,0.03821308,0.020722909,-0.03456585,-0.04903443,0.006535611,0.027470488,-0.0065881955,-0.008400214,0.013285693,-0.020787839,0.00025957715,-0.0033963546,-0.012118446,-0.024148982,-0.014478883,0.020549746,0.016601458,0.022789741,0.046055354,0.017504442,-0.00092617935,0.01874317,0.031936087,-0.008890242,-0.024480086,-0.036038097,-0.028553221,0.08459454,0.045692243,-0.0010141408,0.06705526,0.010904578,0.0032551342,-0.009615221,-0.06857584,-0.017508285,-0.02633437,-0.0064863367,-0.01871391,-0.031407904,-0.00065926707,0.0018561457,0.08430733,-0.041512422,0.0029414236,0.026832195,0.05098653,-0.01063461,0.012126845,0.023288036,-0.03040317,0.07174204,-0.040188942,0.015361711,-0.019200414,-0.0028884117,0.030056981,-0.008109523,-0.037312146,0.010481462,0.0018105219,0.04372444,0.04533693,-0.036305796,0.022499882,-0.066055775,-0.032788314,0.0028783663,-0.026462635,-0.040756557,0.030483134,0.005473883,0.033488106,0.045525927,-0.041967,0.029170087,0.020988004,0.025702845,0.049088173,-0.004038269,-0.07162931,-0.02656243,0.025730986,-0.0048072054,-0.00025404379,0.018075597,-0.035057012,0.025025021,-0.029820183,0.007685576,-0.04172236,0.09013543,0.049185783,0.021582775,0.021879148,0.048371952,0.025732083,0.006334853,0.063974015,0.0352991,-0.06267005,0.03433437,0.010240625,0.03592727,0.031101242,0.053812522,-0.038362373,-0.044024702,-0.011008169,0.04628186,-0.02199679,0.052679967,0.0447995,-0.056868907,-0.04282154,0.0012043654,-0.008831452,0.061807472,-0.043228954,-0.0041652047,-0.03463882,-0.033188045,0.010873851,0.009749839,0.02674572,-0.0050355867,-0.020988194,0.0061897514,-0.03378838,-0.07304166,-0.023279743,0.05598954,0.024425797,0.017570289,-0.051287767,0.010350349,-0.025518114,0.041004617,0.022749284,-0.016708398,0.060182508,-0.0049184444,0.041120946,0.04163096,0.070494354,-0.036582284,0.03882414,-0.0014121339,-0.06833847,0.0057024425,0.061259568,-0.07778711,0.043095794,0.06983113,0.03181589,-0.0796074,-0.05794279,-0.009143987,-0.011262769,-0.023040306,0.00022334007,0.03876507,0.0133377,0.002370958,-0.042327363,0.063254364,-0.11540353,0.007918731,0.04728909,-0.07451987,-0.012843982,-0.080688186,-0.0025331862,0.022974966,0.021932872,-0.016754532,0.048233792,-0.023848277,-0.0017288965,0.02881146,-0.0022054864,-0.050122242,-0.050930157,-0.0026929423,-0.017998956,-0.018832784,-0.051785827,0.085457675,0.018036932,-0.047125988,-0.025604527,-0.038172316,0.020139182,-0.01351424,0.0028004844,-0.017885946,-0.068063915,0.015826054,0.059424013,-0.006940956,-0.020846082,-0.029912245,-0.026464496,-0.016417263,-0.058451746,0.06269257,0.0066443593,-0.041805126,-0.04932457,0.051275097,0.014871423,-0.029317085,-0.002660979,0.047028795,0.03757616,-0.010532224,-0.015242434,-0.004717406,-0.017294874,0.016790189,0.043383565,-0.040686984,0.001978039,0.04087462,0.0016959629,-0.022967124,-0.08301261,-0.040267732,-0.012145379,0.02346318,-0.02396084,0.043702804,-0.019233432,-0.0016804917,-0.0010937352,0.009091776,-0.013097494,0.0032736182,0.031502564,-0.026084285,0.0047233254,-0.019586029,0.016551776,0.075493746,-0.006853393,0.031177942,-0.011395601,-0.07227171,0.047816098,0.054283425,0.031366035,0.0018062632,-0.018933572,-0.019014057,-0.043898493,0.008578941,0.033547893,-0.043613207,-0.07385737,0.0068410644,0.083757035,-0.016048653,-0.008109902,0.0485684,0.042204287,-0.036788527,-0.038182348,0.021559762,0.0107554,-0.020327779,-0.066058196,0.037846945,0.017016863,0.005714537,0.012853167,-0.04201425,-0.15737431,-0.0023418127,0.10041945,0.026095415,-0.005212991,-0.01117523,-0.056994583,0.049002185,-0.07490216,0.0037197873,0.05648824,-0.10318583,-0.014083831,0.0017820904,-0.074246585,-0.072618596,0.021582276,0.016208338,0.013493359,0.006724098,0.0874225,0.042582758,0.06434416,0.028840775,-0.02090675,0.08498861,-0.03095859,-0.0501955,-0.009886647,-0.013014012,-0.030011062,0.016828455,-0.08822819,-0.006875219,0.022874704,-0.045708638,0.073249005,-0.047305174,-0.038958307,0.009654146,0.02733564,-0.0467829,-0.0009934814,0.0038611535,-0.0046941186,-0.042923983,-0.07577055,-0.005724538,-0.005420188,-0.00424025,-0.0147375595,-0.010525201,0.059021387,-0.027284207,0.01699569,-0.0036932733,0.04125637,-0.03682693,0.016869238,-0.03687021,-0.022850437,0.0079569975,0.083686486,0.02578517,-0.0021434193,-0.008093037,0.088505805,-0.00529157,0.052720167,-0.045479957,0.027579518,-0.023327114,0.039635554,0.026661167,0.001144106,-0.06013007,0.027810333,-0.00043227267,-0.03720816,0.04460096,0.01579569,0.025163656,0.026187167,-0.011067856,-0.009601655,-0.019776773,0.00842392,0.01127496,0.0068168044,0.006820024,-0.038403776,0.008780078,0.040938042,0.015042861,-0.037720244,-0.020912,-0.0052276594,0.014003065,-0.03190763,0.019331766,0.010618493,-0.023146715,-0.017584527,-0.016847283,0.00095171796,-0.021557793,0.054138567,0.015325752,-0.07940914,-0.027835462,-0.028869614,0.016347477,-0.028831324,-0.014424824,0.026729867,-0.057287868,-0.06556797,0.030432139,0.023587102,-0.027411385,-0.08532837,0.033086944,0.02479701,-0.030143505,0.008111119,-7.545387e-05,-0.027484238,0.049200222,-0.009118391,0.063488975,-0.017335752,-0.07937178,-0.008148912,0.03406388,0.0643308,0.04328478,0.013235634,0.033305984,0.06840403,-0.07231416,-0.06844115,-0.037152138,0.10920789,0.10990084,-0.021455757,-0.059942026,-0.00014487295,0.00018194462,-0.04277782,-0.015728109,0.0073928675,0.027383966,-0.022201253,0.013826801,0.036783747,-0.016621837,0.048327185,0.00058311323,0.039623182,0.00039262848,0.033946656,-0.00014026894,-0.025738385,-0.0012111395,0.037278745,0.011722527,-0.042829372,-0.04080616,0.03606235,-0.02032321,0.0032964353,-0.006725234,-0.009731001,-0.008473277,0.016872987,-0.036141507,-0.036954343,0.03153825,0.042728543,0.01165815,-0.008891822,0.029958306,-0.06870964,-0.028776746,-0.0036498262,0.036110006,0.0051720007,-0.08641878,0.027012143,0.004145107,-0.07964825,-0.0062836516,-0.00833183,0.028210945,0.020835586,-0.026261138,-0.028173432,-0.030461377,0.13805626,0.083538726,-0.04507094,0.016223134,0.012619647,0.059375368,-0.025066024,-0.015340446,0.010348659,-0.010625397,0.018197987,-0.028649427,0.0030438206,0.066381276,-0.04813846,-0.0056769713,0.037981078,0.024417926,-0.03112836,-0.012428289,-0.014019229,0.0010054848,-0.03834102,0.02190152,0.0014136545,-0.0019557062,-0.045034878,-0.00738736,-0.019882884,-0.009916582,-0.02460575,0.036909007,0.07580495,0.044733692,-0.057443418,0.038722645,0.0036145656,0.020263273,0.019156981,0.028505698,0.04026155,-0.0064508403,-0.012716389,-0.015128921,0.021915812,-0.019689288,-0.007221236,-0.005326144,-0.023199651,0.007625885,0.018786164,0.03844041,0.03570695,-0.034499556,-0.009048517,-0.018374544,-0.048030693,-0.010521082,-0.09841782,-0.042794507,-0.03259058,-0.038320724,0.013096398,0.008959569,0.05401134,-0.07232189,-0.011869722,0.013932864,0.015581502,-0.011510598,0.018776914,0.0052862423,-0.05976536,0.03489472,-0.023262952,0.020381454,-0.02300789,-0.003452815,0.04856518,0.026280144,0.05189274,-0.110409364,-0.014367318,-0.027870243,-0.020136466,-0.026985385,-0.003714416,0.041882273,0.07058376,0.004093814,0.075546786,0.007643586,0.010542015,0.017932216,-0.061322518,0.04413627,0.03158212,0.05614557,-0.0039484245,-0.010734087,0.00010437503,0.008055329,-0.001359355,0.0022465251,-0.0498292,0.014126823,0.00044593238,-0.021156954,-0.03659297,-0.0022472497,-0.035733577,0.0002009577,-0.043534532,-0.006991973,0.009381778,-0.029608143,-0.026790027,0.054037873,-0.028712798,0.010260092,0.039755426,-0.01631344,-0.11561807,-0.032197084,0.034400266,0.15277138,-0.09230597,-0.027683495,0.046054605,-0.009514753,-0.056406133,0.042036314,-0.030570589,0.025508914,0.01032377,-0.039996807,-0.015708609,-0.101057254,0.014506883,0.03143147,0.012625192,0.018670985,-0.018901711,0.0050844722,0.0059642796,-0.05009184,0.036585763,-0.00911916,-0.03476416,0.013825433,2.5352001e-05,0.012279556,0.01736602,-0.075827174,0.034293287,-0.0094484165,-0.024210228,0.0014206768,0.045842264,-0.007421809,0.0063821487,0.0052562146,0.023448704,0.04752394,-0.022381393,0.008087164,0.008724344,0.02241216,0.038933486,0.016663922,-0.01034348,0.014966855,-0.008460222,-0.019450076,-0.012367238,-0.020577716,0.044037618,0.05271641,0.0017149772,-0.018079873,-0.025543148,0.003200516,-0.044999264,-0.009843352,-0.0019331356,0.03851789,0.015170968,-0.12919657,0.0022031255,0.051500846,0.029608315,0.0026433268,-0.06998261,0.017975891,-0.0141547695,0.009748293,0.052562326,-0.028652828,-0.02227852,0.018889733,0.0383421,-0.05443526,0.040367827,-0.041752603,0.013516523,-0.024190327,-0.016354678,0.022024406,-0.0024951736,-0.0711984,0.030222064,-0.019242616,-0.018689081,-0.03813993,0.043275826,0.008700426,-0.031801302,-0.015907556,0.03424919,-0.034468677,-0.0070128287,-0.013961078,0.007571808,0.0018559083,-0.05868285,0.001132309,0.03337984,0.013419357,0.036912777,-0.017493265,-0.018578008,-0.03177927,-0.0074088452,-0.08588407,0.038996276,0.038867578,-0.0010436584,-0.017342117,0.05353508,0.019084925,0.00033226254,-0.023136662,0.04846387,-0.011403575,-0.023157366,-0.018841416,0.030189585,0.025270615,-0.020127397,0.00890843,0.054887533,-0.012061844,-0.010744324,-0.010639357,0.026609464,-0.05669386,-0.05638664,-0.004228951,-0.03269244,0.011260079,0.027237004,0.042952467,-0.0072708917,-0.03590246,0.010162161,-0.08924074,0.06464178,-0.044721227,-0.009619568,-0.020962186,-0.003545805,0.01504995,0.012467845,-0.029978696,0.03855919,-0.023300746,0.04551169,0.031045573,-0.0023486638,0.070337325,0.0073527307,-0.08192647,0.040898725,0.019718697,-0.002608513,0.061536502,0.038004376,0.023975026,0.08015414,0.01949633,-0.0130046625,-0.024967644,-0.10673399,-0.012505627,0.06823915,-0.0025717565,0.004516008,0.053685848,-0.07215954,0.022976343,-0.07004211,0.02829473,-0.02163448,0.008149322,0.033085767,0.10264359,0.08409234,0.012686108,-0.022019666,0.045941386,0.033963818,0.0013850266,-0.024054175,-0.028304873,0.061278805,-0.03317969,0.02429582,-0.047775142,-0.13278957,0.08639845,0.013358847,-0.1094756,-0.02106382,-0.018945944,-0.066083826,0.025741883,0.0033463975,0.007964781,0.054959014,0.107496984,0.039403643,-0.0128141325,-0.003785269,0.021705687,0.022069992,-0.007835564,0.039561454,-0.024596866,0.0019575274,-0.025644008,-0.02926452,0.027583912,-0.022098873,0.028311169,0.019467773,0.00804465,-0.018014396,-0.011493275,-0.038944356,0.0028205607,-0.0009850222,-0.0025996845,-0.026639335,-0.04058911,-2.3225943e-05,0.009399215,0.030896682,0.043839324,-0.03633725,-0.024466839,0.020213105,0.018153172,0.06788558,-0.012811188,0.042637896,0.011803335,-0.024324846,-0.008316413,0.009337681,-0.061366115,0.04611918,0.018113634,0.04316034,-0.0016157109,-0.051970776,0.022089863,-0.02005274,-0.09170888,0.04185188,-0.04280023,0.07356852,-0.0050216774,-0.052250322,-0.08592973,-0.010602486,0.059541643,0.019675827,-0.010534468,0.044115335,0.0140283555,-0.075948514,0.028069321,0.056357156,-0.0027311083,-0.03601886,-0.008911025,0.045250833,-0.0003156435,-0.010386758,-0.005500479,0.015096756,0.13416065,0.051017378,0.026273074,-0.06326344,0.013342822,0.032177046,0.03577132,-0.009959188,0.03600472,0.048016887,0.012932428,0.0022223424,0.01900904,-0.012711426,0.022504393,-0.08158426,-0.0016707357,-0.0015469858,-0.01446598,-0.021707447,0.02487234,-0.0014437244,0.033843942,0.009830026,-0.041601278,-0.0653524,-0.0062214,0.03619634,-0.12192771,-0.0040774858,0.00048709597,0.032588705,0.026468245,-0.00803786,0.048723813,-0.059372075,-0.051127523,-0.0003611632,0.01200617,0.023178134,0.07517835,0.08633519,-0.10332131,-0.06833886,0.031145988,0.018194105,-0.042285368,0.014545934,0.07740524,-0.034059465,0.015274279,0.01920887,-0.033778403,0.07460126,-0.012098167,0.022298854,-0.060054712,0.015126576,0.035090126,0.008972813,0.021235622,-0.040621,0.009262847,0.019494925,-0.045885667,0.036081523,0.016812004,0.009923175,-0.021851765,-0.0095298905,-0.024393741,0.037247863,0.0015402009,-0.012538013,-0.0009972206,0.00033825298,0.060489587,-0.00573658,0.07824734,-0.03381086,0.06773058,0.010800361,0.025460955,0.020684168,-0.023257509,-0.033226795,-0.002206604,0.017332256,0.018109843,-0.0077209827,0.010658734,0.03959683,-0.037752837,0.034974046,0.04379342,0.019186784,-0.017381227,-0.046121214,-0.006994839,-0.009457079,0.012137653,-0.004464479,-0.0076329163,-0.013256057,-0.0060365065,0.032479193,-0.060032215,-0.04655905,0.059967525,-0.005118695,-0.042714808,0.07464518,-0.055190634,0.045528993,-0.033087507,-0.030012509,-0.0062634563,0.057597484,0.026437616,-0.030466871,-0.035721514,0.079413295,-0.050498225,-0.031144537,-0.011837232,-0.008900946,0.011259282,-0.049517117,-0.15615308,-0.039317895,-0.021847472,-0.0064069536,0.014784858,-0.00861508,0.0046798284,-0.04176292,-0.015058255,-0.01454139,0.0021374193,0.040192053,-0.0024729685,0.026128601,0.056867577,0.0039190776,0.046161175,0.030245058,0.066768005,0.014668585,-0.011585041,0.010067501,-0.0239202,0.008374041,0.039404865,-0.021847887,-0.034200203,-0.035816345,0.036383037,0.068517506,-0.03592765,-0.037445385,0.0013287123,0.018517017,-0.021827264,0.0074164374,0.06286549,-0.010063961,-0.028954757,-0.0020626914,-0.056092735,-0.018584877,0.006671255,0.16016518,-0.021205433,-0.032505047,0.04209145,0.07908453,-0.080106296,-0.022772355,0.08361489,0.024089651,0.010366839,0.023271661,0.05976522,-0.06467698,-0.1306837,-0.12650768,0.0079201795,-0.037576165,-0.04089759,0.013453973,0.02262162,0.029461063,0.0025245044,-0.048137084,0.010577912,-0.03450061,0.014336765,-0.04334913,-0.0010388348,0.037302054,0.11473693,0.057813294,0.017276729,0.041021667,-0.018170122,0.014494923,-0.0012212865,-0.007570872,-0.045232195,-0.017318178,-0.01050587,0.02760178,0.00837755,-0.0033361998,0.03599689,-0.03702202,-0.07941323,-0.033660974,0.027096752,-0.026002178,0.040001426,-0.037209235,-0.02590187,-0.035531383,-0.032147393,0.043047473,0.009471166,0.016995307,-0.0019436452,0.035685837,0.015762767,0.043424636,0.021576585,-0.047803618,-0.007852662,0.07445798,0.14670122,-0.09775916,-0.10165048,0.09464889,0.05405902,0.0026430257,-0.0067738187,0.024101447,0.06576571,0.019076118,-0.0260822,0.004688966,0.08863219,-0.0325002,-0.045594092,0.02622521,-0.011382074,0.021647321,0.0039063054,0.027105456,0.057201438,-0.043304913,-0.018315276,-0.005748001,0.0056607043,-0.008374607,-0.04737743,0.030771479,0.067056246,-0.03463876,-0.01654043,-0.04327373,-0.02638711,0.005979721,0.031189544,-0.042447817,-0.079501614,0.007365371,0.01722112,-0.017596334,0.016804032,0.016076028,-0.038611993,-0.0011632286,0.07488991,0.03430831,-0.0046077124,-0.026011834,0.031994022,0.01943354,0.030986026,0.024259696,0.024878196,-0.033399794,0.029551078,0.014026159,-0.018989759,-0.030895246,0.0054911403,0.018828375,0.07192256,0.1299573,0.069688916,-0.035206642,0.01300271,-0.0062668687,0.0076304055,-0.003024209,-0.010623959,-0.025361264,-0.016311018,0.0057513164,0.027483676,0.00030835363,0.05636214,-0.009661156,0.0040758653,0.010846292,0.052652154,-0.0037630126,0.032859188,-0.031994086,0.0012900532,0.00088968896,0.03536142,-0.019978369,-0.0047233584,0.06606814,0.06100738,0.025110785,0.04367825,0.04633885,0.06042258,-2.394537e-05,0.013820039,-0.05669752,0.07643482,0.078007944,0.033368133,-0.0037385796,0.012695021,-0.0041103708,0.011817113,-0.014626189,0.027393645,0.013391796,0.008626717,0.027892068,0.080908485,0.008402162,-0.026644964,-0.05458798,-0.035984557,-0.034650497,-0.009104835,-0.046827476,0.00889697,-0.045871034,0.051882636,-0.04267101,-0.03126181,-0.06807861,-0.00097549194,0.025427375,0.061213817,0.052031387,-0.020389786,0.05068679,0.038580883,-0.09202093,-0.030059692,-0.039686162,0.01583832,-0.07190948,0.13019967,0.037217114,-0.006549316,0.0043919585,0.026351523,0.045908358,0.09831729,0.056463644,-0.059497207,-0.021804556,0.039208647,-0.012890094,0.03566173,0.004496905,-0.022861643,-0.021468326,-0.011478865,-0.034133613,0.022786494,-0.0028494508,0.020938741,0.025278267,-0.086807355,-0.009752393,0.047406215,0.020693976,-0.02919745,-0.024873307,0.014789713,0.0010740159,-0.062540956,-0.005327812,0.04599577,-0.00020132844,-0.0030682648,-0.028969456,0.036472443,0.042345308,-0.010327274,0.01025595,-0.020974128,0.0065898276,0.020139921,-0.020890303,-0.0032151937,0.019643113,-0.07763632,0.06226061,0.015822997,-0.02650305,-0.021764366,-0.009229491,0.039790712,0.06572012,-0.03565534,-0.01759501,0.024326645,0.025818944,0.016860198,0.035627466,0.013329022,0.015850585,-0.049996104,-0.07027447,0.009638785,0.0245942,-0.028618237,0.024805365,-0.020343289,0.029628865,-0.038667068,-0.027095344,0.013830142,-0.031575482,0.025119364,0.023553738,-0.015135602,0.00144555,-0.03703826,-0.043194987,-0.027785,-0.040807124,-0.020905817,-0.005680362,-0.059612647,0.0030390532,0.037538435,-0.023622353,-0.01693414,-0.007126111,0.0053625116,0.010667564,-0.013872005,-0.054574553,-0.0014864121,-0.018035695,-0.024183497,-0.011942601,-0.0012284929,-0.052135553,0.018359138,0.022513546,0.026295697,0.035060592,0.012124916,-0.028192386,0.00643271,-0.009482381,-0.0050022854,0.022736182,0.033616815,-0.035949994,-0.054497838,-0.008959523,0.032344565,-0.020093007,-0.015076036,0.031733133,-0.016689667,0.048044123,-0.004920321,0.002506061,0.033659544,-0.005982222,0.0140211135,0.030379102,-0.03149108,-0.069810554,0.040105205,-0.01189839,0.03965133,-0.011444183,0.0010409133,0.007964972,0.014912386,0.07057171,-0.07182918,-0.007973392,-0.06259245,-0.053227,0.01940665,-0.018948115,-0.09504096,-0.019129775,0.049584962,0.042986874,-0.010702903,-0.07108004,-0.013815853,8.2554514e-05,-0.0021356773,-0.003138462,-0.06392548,0.021128694,-0.017090412,-0.0057032774,0.031470362,0.017349886,-0.018131401,-0.044356525,-0.015579254,-0.034278538,0.016075943,-0.0062825056,0.012017305,-0.014045608,0.039793212,0.005132296,0.04637479,-0.03623756,-0.0037300151,-0.033963747,-0.021980124,-0.014999339,-0.0069760527,-0.047639042,-0.035989378,-0.0056235706,-0.020910265,-0.014580559,-0.039849143,-0.00053175,-0.08487844,0.02559207,0.042058952,0.042617194,0.02340328,-0.010253457,0.031014476,-0.033994894,-0.063041866,0.14105581,-0.030399319,0.01909066,-0.021273514,-0.015970994,-0.00049009756,0.047014214,-0.023653705,-0.025352592,-0.066990994,0.07357444,0.030852828,0.029798808,0.015031617,-0.027686838,-0.054542057,-0.028807646,0.001250606,-0.036416765,-0.012093676,0.030247904,0.0012186435,0.032738667,0.16687699,-0.07614478,-0.0048348666,0.03635667,0.04174377,0.025928175,0.041420605,0.033451367,-0.0073614246,-0.009274425,-0.0037609593,-0.023347154,-0.012324355,-0.02814927,0.058265198,-0.032664444,-0.0055957986,-0.002173869,-0.00074188865,0.013746043,-0.02846856,-0.012489508,0.02633797,0.0044516777,0.04519476,-0.046610657,0.014939946,0.027857028,0.029469552,-0.019375341,-0.025208905,-0.03429831,0.106120996,0.042077325,0.011041942,-0.010396393,-0.010856594,-0.020242305,-0.029092139,-0.045190126,0.013766226,-0.018666744,-0.0571453,0.035047397,0.07317298,-0.007433299,-0.022210183,0.003987866,0.023230003,0.024847204,0.021391587,-0.02356007,-0.00911742,0.09866445,0.012155883,-0.034342695,0.010368638,0.056143403,0.017083686,-0.03295142,0.016876312,0.021538537,0.03208191,-0.0041758134,0.052479926,0.0057622874,-0.017931137,-0.05187643,-0.0020026143,-0.0034445645,0.009320635,0.05314367,0.02444158,-0.030288855,0.0077286493,-0.011330043,0.027125748,-0.011882729,-0.053835403,-0.016229251,0.050640356,0.02059754,-0.01024709,0.028314939,-0.02615361,-0.015545809,-0.01952644,0.026300868,0.077831,-0.02151021,0.041469157,0.006267889,0.028792102,0.015980784,0.010715171,0.04121154,-0.08568265,0.10153397,0.0072172196,0.030020094,0.006146882,0.0056530572,-0.014284868,0.0026859813,0.017987482,-0.00055775174,0.074607305,0.016248116,-0.0042704754,0.0035625645,0.011564962,-0.0043593156,-0.1374599,0.016500551,-0.021016793,-0.04224889,0.0077189174,-0.0433557,0.03963917,0.043645434,0.08218867,-0.018064348,-0.1068325,-0.022559868,0.05341656,0.044229854,-0.011926347,0.03406066,-0.03997321,-0.025161527,-0.006576963,0.054953326,-0.047795277,0.026939115,0.051933307,0.039529376,-0.010104388,-0.0022653854,0.006589668,-0.05651381,-0.05843109,0.019268984,-0.027922219,0.0073902784,0.116139956,-0.055805575,0.03500216,0.042407863,0.00757268,-0.070401326,0.021882353,0.01403707,0.038267367,-0.05851792,-0.008465948,0.032305196,0.006853788,-0.029968362,0.0030624883,-0.017145341,-0.0013121237,0.036204603,0.003393896,0.0031782754,0.055233248,0.037729267,-0.006691884,0.0014037484,0.044885155,-0.04111513,0.036482543,0.011910213,-0.019676287,0.045694254,-0.0106549505,-0.07874566,0.029243432,0.030729242,0.019568363,-0.014427057,0.0021874025,-0.00461892,-0.030174386,0.012721496,-0.108143374,0.005119739,-0.020600963,0.059453666,-0.019582754,0.0024691806,-0.0021868104,0.019287376,-0.009683509,-0.025073498,0.018738845,-0.0075984783,0.007186021,0.007960282,0.0021449476,0.009380608,0.092292644,0.03226662,-0.019201487,-0.014794559,0.05069001,-0.007177515,0.02662352,-0.032379672,-0.0073475284,-0.025767693,-0.022638353,-0.00875967,-0.0034823567,-0.0036671944,0.025129156,-0.047804438,-0.0566919,-0.025123794,0.02344736,0.022164015,-0.085568056,0.051197853,-0.0010388506,-0.018277466,0.02082219,-0.047991853,-0.041011494,0.02649967,-0.0069119874,-0.036496446,-0.03606312,0.022870304,-0.07117308,-0.046593882,0.01863837,-0.022011574,0.074607454,-0.007927719,0.009818269,0.06366053,0.024241513,-0.04851212,0.0047451593,0.03634218,-0.024299268,-0.0034470411,-0.014050239,0.0074944072,-0.022032155,0.008643544,-0.020807095,0.032560736,-0.008290247,-0.016064981,-0.024047885,0.0032594644,0.0929515,0.02769428,0.00417824,-0.032401282,0.0008552092,-0.027218206,0.00042251256,-0.0027655808,-0.024592327,-0.04869476,-0.029638095,-0.0015000743,0.05791699,0.00697964,0.02138735,-0.020092508,-0.047323987,0.039941877,-0.011620688,0.009061794,-0.030233447,0.009819755,0.029994406,0.0089892885,-0.004562664,-0.0010825046,0.041422922,-0.024234416,0.017240888,-0.011975099,0.05466325,0.01838898,0.028381312,0.031153513,0.06174143,-0.012577905,-0.02528324,0.013274641,-0.021358026,-0.010617119,0.058336444,0.02037564,-0.047488507,-0.06613559,-0.002566094,0.024802169,0.029838419,-0.009876747,0.007171091,-0.033520434,-0.02891268,0.03857761,0.009937844,0.022411173,0.009230497,-0.0044150595,0.105844766,0.06576374,0.0052281977,-0.034665365,0.042583887,0.01853966,0.0049643493,-0.00998282,-0.0045588724,-0.017990965,-0.0020330453,-0.033528715,-0.035737146,0.025043765,0.0252348,-0.04653325,0.021941386,-0.029523868,-0.010285895,0.01723583,0.02407032,-0.007533255,-0.024980325,0.016925445,-0.038540795,-0.039642487,-0.034228098,0.019715935,0.017789545,0.023337452,-0.0349806,-0.032971088,-0.033473685,-0.005649981,0.0073000295,-0.00763333,0.021823028,-0.03016385,0.0008007106,-0.008591064,-0.09376619,0.034265384,0.0077671134,0.004009544,0.030067272,0.0031305454,-0.030463329,0.004634193,-0.007742261,-0.048163116,0.010401464,-0.07205891,0.011270962,-0.0132202385,0.01738127,-0.023347776,-0.09383579,0.0073507642,-0.010045423,0.01189526,0.030345514,-0.0098787965,0.028626436,0.01589067,-0.010782238,-0.0069192555,0.0023962278,0.017811049,-0.0048206747,0.0012619516,0.0038331181,-0.0030222598,-0.041962802,-0.017529577,-0.06340905,0.025630755,-0.013630722,0.00045340337,-0.007986254,-0.055387616,0.038521927,-0.0048326906,-0.034068268,0.0718453,0.0077434205,-0.0073756464,-0.004029293,0.034298442,0.017585447,-0.0015796865,-0.0028712496,0.0122882025,0.051056076,0.01622894,-0.0014153009,0.110217184,-0.020639047,-0.009515804,0.003112741,-0.011595887,0.03424398,0.05328516,0.001959986,-0.018790485,0.037196793,-0.0027082092,0.027489742,0.017257776,-0.022826828,-0.072819985,-0.036011226,-0.035748035,-0.0029462765,0.040630594,-0.016464451,0.024905277,0.02494992,-0.0031576557,-0.009350185,-0.010412867,0.03578677,-0.09541752,-0.047372285,-0.044561934,-0.013864623,0.015722575,-0.033686027,-0.004205209,-0.054169904,0.04773385,0.0020167395,0.02687475,-0.0026824179,0.024105018,0.022071712,-0.067709014,0.04539368,-0.061000213,-0.029067615,-0.03545087,-0.008950253,-0.017265264,-0.044912282,0.018495064,-0.037984617,0.009584789,-0.08239003,0.027729653,0.03612243,0.0018692933,0.006823939,-0.013375414,-0.024576722,0.027245354,-0.003820471,0.040911727,0.002578993,-0.0071612885,0.02006218,-0.038601104,-0.05492258,-0.009914115,-0.024431271,-0.021129759,-0.023001399,0.015442682,0.013558692,0.0017629125,-0.056841493,-0.0031225719,-0.02827012,-0.015313227,0.026106188,-9.319204e-05,-0.008919158,-0.05621426,-0.056406047,-0.03274318,0.023695357,-0.02230841,-0.007967421,-0.019745335,0.014845649,0.08864706,-0.07819334,-0.006499621,0.039329264,0.02044858,-0.00033812088,-0.015040904,0.05999277,0.0063314037,-0.045510493,-0.038343895,-0.01418428,0.03324975,0.016803954,-0.03440417,-0.006688763,0.010452578,-0.09777759,0.047999837,0.014708811,-0.06276776,-0.018366288,0.007079178,-0.0023459636,0.03193484,-0.0043839663,0.0058646477,-0.00583878,0.018909752,0.06672283,-0.0032495335,0.009156598,-0.024773903,0.025873996,0.022609161,0.008862095,0.032063827,0.033449385,-0.035525277,-0.044618834,-0.033413902,0.07707799,0.037908185,0.0013819507,0.05224553,0.017518071,-0.009085302,0.03251518,0.01956092,-0.00070751045,-0.058330093,0.007048479,-0.016220964,-0.0436241,0.04783961,0.018917965,0.009225405,0.0041708685,-0.04320858,-0.006936292,-0.019606464,-0.022300031,-0.0019261496,-0.048847005,-0.04986808,-0.046478778,0.015871737,0.020665083,-0.008579011,-0.0042020194,0.000598202,-0.038126662,-0.01047184,-0.04022578,0.053058583,-0.009684561,-0.022175066,-0.0028519062,0.025222266,-0.04246605,-0.076930806,0.06567572,0.028736524,-0.0054682093,0.046219222,0.06497994,-0.00095651025,-0.058228407,-0.008651241,0.03678628,0.033886857,0.0008069371,0.0068430114,-0.0010097018,0.00655335,0.086461104,0.010110613,0.0656097,0.097621955,-0.02973374,0.014138274,0.0436563,0.028505526,0.023845244,-0.016767748,-0.032144688,-0.03229033,0.041237745,0.013101589,-0.0039415667,-0.027442876,-0.02594141,0.0300128,-0.03587555,0.05002602,0.03657764,0.06014791,0.048904266,-0.00065877225,0.0360216,0.032592185,-0.054874364,0.03984837,0.04568912,0.042386133,0.025765553,0.026231822,0.025431091,0.05769644,-0.010921782,0.07605729,0.014438176,-0.03064357,0.059201177,0.033581316,-0.020819604,-0.010189584,0.009918987,0.06340963,-0.01966091,-0.009446365,0.045389984,0.007983412,0.011647405,-0.02155116,0.014639067,0.035850853,-0.0650617,-0.008809203,0.016542466,0.017624812,0.0063103912,-0.0138885975,-0.030585038,0.04016084,0.021972831,-0.016535327,0.010162344,0.019593986,-0.009545462,0.046542104,0.017685067,-0.03334503,-0.049193498,0.0009506839,-0.02471445,-0.02025334,-0.013726873,-0.036778074,0.028378122,0.0112583,0.021774726,-0.019655963,0.01584392,0.003671431,0.032956213,-0.02068319,0.049977854,0.04388019,-0.06733823,0.011614313,-0.0044022193,-0.01612337,0.017878853,-0.047874622,0.06674385,0.074648805,0.029838547,0.00070060085,0.064993285,0.026866548,0.0076998244,0.07437084,0.04405245,-0.039241858,-0.014298252,0.016898734,0.00013068595,0.030996863,0.01966157,0.057891265,-0.037087984,-0.014261207,-0.018434098,0.004045967,-0.036291804,-0.053455472,0.0053492477,-0.002726228,0.010826258,0.038269553,-0.0062551913,0.03226408,0.014692064,-0.021394335,-0.07379936,0.036148038,0.04079434,0.05265349,0.015141169,0.009187003,0.037040107,-0.016753076,-0.0074786865,-0.022855313,0.059827328,0.067695335,-0.0135799255,-0.021637633,-0.06511719,-0.037352946,-0.030287856,-0.0076385136,-0.005434388,-0.027941464,-0.04722492,0.057693288,-0.09496108,0.00088531146,-0.03290279,0.06258565,-0.08840669,0.015249999,0.013978652,0.056870747,0.024694325,0.02714637,0.018199028,-0.0297791,0.037370834,-0.06300585,0.010517029,0.030236557,0.003926293,-0.0022140201,-0.040286135,0.027630761,-0.100383,0.032594703,-0.03593147,0.029190153,-0.010071313,0.037984144,0.028640797,0.06401849,0.045052283,-0.015176145,0.015620662,-0.031530794,-0.006446313,0.019544631,-0.02004826,0.01579268,-0.15151203,-0.0072930544,-0.015169229,-0.06619652,0.0042416123,-0.03219318,-0.020325506,-0.02169527,0.020970756,-0.037073407,-0.05827891,0.04799292,0.027772106,0.0021604658,0.0014848993,-0.066106215,0.019802054,-0.015892183,0.024846897,-0.0069771633,-0.02141914,0.020810014,-0.034934577,-0.025742805,0.06967121,0.038038447,-0.007301263,-0.014794191,-0.0401214,-0.014494417,0.015902063,0.0020800803,-0.029130459,-0.020667665,0.035265826,0.04568178,0.0073767668,0.014767015,-0.0015394526,-0.0039818217,-0.013710646,-0.039506678,-0.020439263,0.0059662866,-0.021260928,-0.028785184,-0.03309982,-0.071738474,-0.052926574,0.023629818,0.021919677,-0.018527618,0.0064951014,-0.016440853,-0.022915086,0.009378314,0.022546275,-0.046596613,0.044605758,0.0052143154,0.014712503,0.019504188,0.0022645048,-0.01864949,-0.014884092,-0.03854123,0.035120305,0.007591234,0.0011548667,-0.030731428,0.03469015,-0.01389934,-0.029751485,-0.0054360125,-0.0349141,-0.0146621335,-0.042108152,-0.048203945,-0.009962309,0.019057924,-0.009440723,-0.008459407,0.0032238676,-0.009805493,0.058361094,0.047765758,0.02254006,0.0302142,0.032668483,-0.034556687,0.02848568,-0.05000517,-0.01071827,0.005522646,0.023223488,-0.041229572,0.039554786,-0.003396185,0.032880284,-0.05508374,-0.00835724,-0.0255477,0.009409802,0.006072953,0.01477177,-0.024524225,0.0041727317,-0.051378727,-0.022592122,0.061695833,0.03606457,0.039483182,-0.020907931,0.061311357,-0.034000043,0.013746521,-0.0023714125,0.020135092,-0.007424742,0.003961316,-0.024100153,-0.058311787,-0.02734986,-0.010441568,-0.042347986,0.04445684,0.043887112,0.043874163,-0.0102379685,0.025705826,0.023426833,-0.010998114,-0.0046595735,0.043234583,0.055896852,-0.09895504,0.013552846,-0.08055777,0.014945782,0.048738502,-0.046423413,-0.029671323,-0.04596696,0.04811509,-0.008094353,-0.020934472,-0.0066643716,0.033634603,-0.010585691,-0.0075918487,0.04707752,0.09962843,0.006051479,0.0025169163,0.0063843937,0.013205257,-0.019333994,0.03216505,-0.0023305446,-0.045599457,-0.03835711,-0.050652254,-0.03237983,-0.037915446,-0.032831904,-0.020736035,0.005162974,-0.04304787,0.04785605,-0.017681258,-0.0024679285,0.051511206,-0.042155195,-0.004179966,0.020323874,0.005303903,0.10852144,0.0092594735,0.0051006484,0.02831401,-0.024477597,0.0010442181,-0.043354545,0.071073644,0.061998863,-0.10348073,-0.0059163277,-0.011085666,0.03964918,0.011200996,-0.018002402,-0.0034738665,-0.022218416,0.010675954,0.021134222,0.0085234055,-0.039161537,-0.010143318,0.031116486,0.069833726,-0.036881622,-0.0029415863,-0.01628902,0.050856493,0.0065910663,-0.0006989643,-0.0054009287,-0.028513111,0.06876268,0.028037908,0.01625446,-0.04827439,0.0070472723,0.047160648,0.005430646,0.01918288,-0.0010703434,0.014105833,-0.00405681,0.0032931946,0.01265695,-0.02965367,0.00069604226,-0.017543195,-0.11115694,0.01737898,-0.03072606,-0.044623516,-0.0070209885,-0.031015892,-0.016799867,-0.0102838455,-0.05275602,-0.033939786,-0.02398117,0.0720653,-0.04886789,0.01028863,0.054628685,0.027289515,0.059946347,-0.01854732,0.007983255,-0.017554574,-0.027155684,0.015921272,0.00019656801,-0.013323232,0.085189894,0.06928063,-0.033566028,0.017883437,-0.015958214,-0.0066378284,-0.036592286,-0.065269075,-0.08957621,0.06429174,-0.0169377,0.031444985,-0.023344392,-0.00065562845,-0.00075682346,0.016517293,-0.011792189,-0.113495834,0.065487,0.02893996,0.008716175,-0.021647101,0.028689215,0.018000767,0.08237377,0.03279803,0.0070509817,-0.011824386,0.019115763,-0.0031646998,0.036898583,-0.020694336,0.019675879,-0.011145981,0.0012493186,0.054494657,-0.019714016,-0.0023010012,0.022093201,-0.047848314,-0.013541893,-0.023780078,0.017038241,0.00084957056,-0.003080864,-0.013501536,0.03135399,0.011557516,0.051340993,-0.024056202,-0.0015082994,0.032951597,-0.048388805,-0.021628302,0.008113003,0.015280864,-0.07315161,-0.007959659,0.00920069,-0.012448563,-0.0037881879,0.046828624,0.027135765,-0.026385957,-0.04032108,-0.00686692,-0.027642403,0.00047938194,-0.044851802,-0.01793262,-0.014239543,-0.018172268,0.096336775,0.051639136,0.043595854,0.032912694,0.04172976,0.009345327,0.0076133227,-0.0064719208,0.02493023,-0.01656128,0.011966373,-0.01788404,0.0008431338,0.011507776,0.041876476,0.05490678,-0.029855007,-0.013683453,0.018689888,0.003432972,0.026358282,-0.023595868,0.018935513,-0.040551282,-0.008927118,-0.018385049,0.0031836033,0.037608836,-0.04111556,0.025912607,0.027663996,-0.021949358,0.06457066,0.042100355,-0.0103136245,-0.008795549,0.03111358,-0.023214176,-0.003783556,0.03258413,-0.0903746,-0.008735619,-0.056897473,-0.018247431,-0.0090423105,-0.013206908,-0.060553882,-0.01789042,0.03785927,-0.034581963,-0.005717189,-0.06824578,0.0046527158,0.002037487,0.009272639,-0.045720138,0.006076669,0.047298927,-0.0378384,-0.02728153,-0.028603086,-0.012552087,-0.0046003046,0.06411236,-0.07793262,0.04544327,-0.02376143,-0.009528443,-0.0076717986,-0.02550533,-0.0050116973,-0.066222146,-0.052897055,0.008094606,0.029699903,0.047075037,0.04308615,-0.028586162,0.0019356689,0.013993869,0.09589955,0.00040457747,0.027181521,0.030859735,0.030587554,0.008882621,0.023287654,-0.02114184,0.03527337,-0.0076544443,-0.0023153576,0.05923427,0.028662017,-0.03346367,0.0086781625,0.0009324245,-0.03717593,0.029441044,-0.014751884,-0.019133303,0.02938272,-0.015899623,0.022181638,-0.050630618,-0.017942527,-0.05452643,-0.0039520008,0.039790444,-0.019932196,-0.027704492,0.06529668,-0.018112022,-0.041555706,0.021734938,0.014032643,-0.031315796,0.027714483,-0.014207612,0.0048713936,-0.00271881,-0.10464447,0.012169899,0.031005718,-0.0044893944,0.0011066631,-0.042944867,-0.0073980973,-0.03964598,-0.03826366,0.010432796,-0.009466415,-0.018508717,0.003015733,0.015571971,-0.022240968,0.033107866,-0.010882666,0.03695662,-0.038786918,-0.032949906,-0.0028937082,-0.012728386,0.049528696,-0.0017676314,0.09983378,-0.035098877,0.000613039,-0.036175285,0.05046066,-0.00333223,0.024959521,-0.013354847,-0.027149782,0.031607993,-0.030527754,0.014807965,0.005449653,-0.031127885,0.024482911,-0.040270478,-0.031177953,-0.013245144,-0.017469762,0.022603143,0.031906992,-0.0927685,-0.012706253,0.10130253,-0.082556285,0.00720556,0.07658647,0.04318198,-0.035217658,0.023165343,-0.020670328,-0.0057608024,-0.05816043,0.018014854,-0.045178074,-0.021017823,0.047729358,0.015162125,-0.010646861,-0.098423846,-0.03224835,0.028217424,0.0014774798,-0.04033387,-0.026113195,0.0036235736,-0.02184341,0.045094363,-0.06950304,-0.02447393,-0.017940065,0.042588446,0.0054542017,-0.013133211,0.010627569,-0.0044265985,0.04701493,0.011202793,0.040559903,-0.007149818,0.03206364,-0.012572113,-0.0081238365,-0.023665024,0.019490419,0.022965616,-0.011114583,-0.030904194,-0.023985533,-0.023359448,0.031727485,-0.07469394,0.018114228,-0.05985004,-0.0054796953,-0.024072891,-0.020812385,-0.0071952795,0.012060349,0.034886196,0.011134108,-0.013126233,-0.012887532,0.024051236,-0.02620995,-0.0025297655,-0.012363539,-0.0682386,0.08937309,0.0526793,-0.038208976,-0.02756312,0.027289929,0.076805376,-0.09135218,-0.0611982,0.09974645,0.06262451,-0.0021796136,0.019094897,-0.008590009,0.022602163,-0.011068254,-0.028184008,-0.0022253979,0.0074368836,0.019706063,-0.06825825,-0.060833804,-0.062986016,0.008483615,-0.004806477,-0.05453907,0.01668965,-0.012425381,0.03571319,-0.061655067,-0.0026406571,-0.03245137,-0.013281406,-0.008050436,-0.055699944,0.010079915,0.047706515,-0.0014091219,0.01252737,-0.0015472852,0.03252907,0.03804717,0.059911575,0.060801815,0.0027125243,0.045308232,0.10561462,-0.019662004,-0.03939041,-0.07561764,-0.028309243,-0.037012417,0.07847752,-0.026690913,-0.048286542,0.064171836,0.02460957,-0.0034952862,-0.006719869,0.0070257564,-0.014394163,0.006596514,-0.016914425,0.020579992,0.052199148,0.0050127343,-0.025822932,0.011746401,-0.009560367,0.1062403,0.022061363,-0.014417396,0.017991424,-0.027888717,-0.044559155,-0.01877054,-0.016558558,0.011596523,-0.030997405,-0.008449534,0.01460664,0.04876792,0.030252349,-0.013738235,0.022052348,-0.004478118,-0.019973595,0.032316286,0.026492879,-0.065765716,-0.03443434,-0.007592577,-0.027098611,0.021181619,-0.055000924,0.007694706,-0.042373374,0.013461797,-0.029873192,-0.016060939,0.05216842,-0.011299438,-0.06481231,0.020411331,-0.049239174,0.058290944,-0.056389835,-0.01545551,0.009490914,0.016385725,0.025090856,0.02068691,-0.032669395,0.006848069,0.0421032,-0.0075717336,0.018880986,-0.012251205,-0.00096784637,0.026779369,0.01867362,-0.020356761,-0.013631446,-0.009784216,0.046684913,-0.00550912,-0.02138383,-0.008337014,0.02932479,-0.02806489,-0.032338794,0.017593991,0.04702847,-0.01664361,-0.07935914,0.01728452,0.1008414,-0.07518351,-0.02614402,0.015586228,-0.048134066,0.05064319,0.029803932,0.03679971,0.024978613,0.07220334,-0.039794456,0.010365119,0.01922851,0.007603016,0.03725061,-0.01077156,0.0043269456,0.055324677,0.012815986,-0.010110282,0.0050356155,0.029043289,0.017627861,0.02728262,-0.01308993,-0.0792843,0.024255177,0.049010575,-0.013212935,-0.04204242,0.0041189734,0.002277495,0.020447379,-0.03500814,-0.017069198,-0.029412178,-0.01633251,-0.011507999,-0.05465267,-0.024853235,0.010589323,0.009091235,0.07651098,0.028242104,0.029854286,0.018611219,0.0013292253,-0.034093145,-0.06128144,-0.030853787,0.03899378,0.0015702231,0.02368495,-0.048519377,0.010292006,-0.030474225,0.04672984,-0.08588708,0.0014133605,-0.06839703,0.0744408,-0.023900183,0.04767929,-0.086528525,0.02266314,0.03533637,-0.09109423,0.026222898,0.013624217,-0.04690205,-0.0011345987,-0.0022176448,-0.034505174,0.038157042,0.045231603,-0.0027823623,-0.009014606,0.02563092,0.032262236,-0.008479995,-0.011847377,0.04886731,0.04130894,-0.011390588,-0.018818697,0.013027109,0.0034370017,-0.02734027,0.017024744,-0.008496383,-0.037553303,0.0005605882,-0.0039676684,0.0042769886,-0.020849947,-0.036760364,-0.037927203,0.011900829,0.008048866,0.023862185,-0.0017485038,-0.024643391,-0.012801507,-0.0073354924,0.003221695,-0.0428319,-0.027287932,-0.03874414,0.023106389,-0.0055384007,-0.006697859,-0.014403773,0.004788554,-0.016946966,-0.013672508,-0.015122288,0.029432265,-0.009307353,-0.03280274,0.02171194,-0.014043713,0.029435568,0.0057842364,0.059970964,-0.009899176,0.026854614,0.045074638,-0.01602476,-0.038221627,0.037983917,0.07190262,-0.043990616,0.03499326,0.007838582,0.02289743,-0.02294001,-0.0450972,-0.001874216,0.0284067,-0.03775346,0.0050373864,0.020576643,0.02811853,-0.015665486,0.033097077,-0.0808893,-0.042229924,-0.028283313,0.036521126,0.024650916,0.011602556,-0.017880067,-0.014865793,0.050505646,-0.016958714,-0.009226826,0.02538865,-0.042195465,0.02808747,0.018251466,0.0040252376,-0.0657209,-0.03209135,0.0018676162,-0.031761132,0.008149972,0.006822909,0.026076268,-0.04563311,0.012239335,0.0061727795,-0.017901838,-0.009495794,0.0040365173,-0.00019842503,0.016454907,-0.026846208,0.023362463,0.0045705717,-0.0077151214,-0.031177178,0.0009195398,0.010056138,-0.021580344,0.0019200301,-0.037399318,0.096546344,0.029061876,-0.01376576,-0.10517505,-0.020093396,0.058237012,-0.081454165,-0.080460735,-0.0050840816,-0.034806065,-0.039663676,-0.03234669,0.009797718,0.010708957,0.00019041049,0.047009487,0.023756197,-0.024043642,-0.010174502,-0.019554516,0.029578222,0.06563245,-0.016396483,-0.1090991,0.056466993,0.035124626,0.0695517,-0.01110244,0.057362277,0.010943345,-0.013716435,0.0042090015,0.025074793,-0.004566078,0.018231487,0.004299017,0.019881083,0.038378928,-0.062317044,0.034336828,0.067680895,0.016962297,-0.03583817,0.005097737,-0.0039658872,-0.026066562,-0.005288766,-0.0108883055,-0.017116392,-0.018098028,-0.042639405,0.008745428,0.0007907818,-0.017432546,0.021004487,-0.0052118665,-0.022753097,1.4646208e-05,-0.03997419,0.012953933,0.043662317,-0.00023542227,0.049394347,-0.025255842,-0.019328475,0.10325498,0.007420775,-0.04511394,-0.017964488,-0.051560633,-0.048399486,0.030642075,0.014564772,0.09272255,0.00569112,-0.0006538593,-0.009957778,-0.037438042,0.03214595,-0.054140568,0.054117735,-0.008626862,-0.014185391,-0.000994128,-0.008048544,-0.0069935555,0.013613303,0.055601787,-0.018863454,0.017815681,0.035892148,-0.03832543,-0.026313178,-0.00074110745,-0.03572571,0.026065627,0.0076837637,0.0051809703,0.045969132,-0.0049576736,-0.055714577,-0.03869925,-0.010799697,-0.003152894,0.004022648,-0.020473922,-0.00093801925,-0.003813137,0.034437306,-0.002262345,0.054704726,-0.00835096,0.042444337,0.011188269,0.011814545,0.012017988,0.0029640144,-0.0069463234,0.047389388,0.0034022923,-0.017275462,-0.0052248742,0.0057840785,-0.007933608,-0.03838048,-0.04682853,-0.019867891,-0.12939931,-0.07188216,0.0028716174,0.030857585,0.04056717,-0.003237374,0.02413136,-0.058046974,-0.124869026,-0.024866646,-0.0053039026,-0.02789704,0.042880077,0.01443024,0.046596285,0.02775361,0.057778105,-0.0017917273,0.05065444,-0.011485479,-0.0020988332,0.026380496,0.0114703635,0.014057347,-0.04741834,-0.017036505,-0.032368366,0.0035733678,0.010425986,-0.03342134,-0.04754627,-0.08646045,0.019023549,0.009843604,0.03008978,-0.003948969,-0.013373752,-0.043850966,0.0013620175,0.04200981,0.02986418,0.025794366,0.026307164,-0.007418469,0.020338157,0.020113112,0.018974334,0.016430046,-0.061011836,-0.06047864,-0.0031600103,0.0048901336,0.016059948,0.012646477,-0.01389284,-0.010140347,0.036290117,0.03876142,0.062914826,0.013511498,-0.0144235715,-0.046973795,0.029899132,-0.027859353,-0.039798647,-0.024048574,0.010782372,0.0026154227,-0.050450496,0.0038468048,0.013295337,-0.0053822645,0.07629591,-0.02866932,0.0014222645,-0.004481034,0.0031019773,-0.068707764,-0.032163,-0.01981926,0.0075890375,0.037563287,-0.029371314,0.032537453,-0.035033446,-0.010599395,-0.0010432152,0.017133215,0.023392545,-0.0034230445,-0.009210311,-0.00644864,-0.0015365902,0.07863238,0.066772945,0.045575026,-0.0244175,0.013146606,-0.030295542,0.003144734,0.038472593,-0.0035505928,-0.004626028,-0.0680242,0.017838825,0.0066511077,0.08486655,-0.037208207,-0.04586937,-0.06729502,0.008925808,0.015380049,-0.026675384,-0.06499141,-0.01920634,-0.014320854,0.0073749223,0.031489912,0.029529665,0.008364591,-0.10295072,0.018301545,-0.009937524,-0.0055709668,0.0081829,0.025295066,0.018533539,0.0306997,0.04022401,0.012111489,-0.0051830197,-0.085716926,-0.05044297,-0.04199552,-0.029815977,-0.06337955,0.008435111,0.049578156,0.017158704,-0.017531166,-0.029208489,0.01083699,-0.020852575,0.059533913,0.033920635,-0.010758553,0.041330162,0.055009577,-0.03897777,0.038669042,0.03458878,-0.013520601,-0.12186423,0.07713947,0.05447227,0.026863616,-0.059147768,-0.01718338,-0.0064231665,0.050806645,-0.008465698,0.056439314,0.035550833,-0.0240053,-0.017315082,0.004379451,0.015210934,-0.009756402,-0.010173242,-0.040180214,-0.03697345,-0.03977588,0.002494111,0.020611446,-0.019926062,0.043067984,0.033313256,-0.013294145,-0.024157481,-0.028674778,0.021166142,-0.050315272,-0.0043050046,0.049249947,-0.024616452,0.039188594,0.029966945,0.018613448,-0.0077948375,-0.07890909,-0.03128824,-0.0020934632,-0.044164382,0.010728243,-0.07381756,-0.01127354,0.06291023,-0.005653224,0.0054711606,-0.08542359,0.02251827,-0.031838622,-0.021137415,-0.065378375,0.07494362,0.036582224,-0.035415635,0.0082945265,-0.0043393276,-0.038919255,-0.037636008,-0.026839644,0.041764982,0.076592684,-0.0028572257,0.0086503215,0.032366946,0.027072685,-0.05842997,0.047982674,-0.009051899,0.036186136,0.005054384,0.0043633953,0.009266733,-0.040469386,-0.030783862,0.020869078,0.032614563,-0.01341694,-0.02266783,-0.11023788,-0.042914644,0.048730332,0.053343933,-0.01747495,-0.0024910832,0.05535167,0.052827135,0.080011606,0.07029728,-0.017326249,-0.044528335,-0.0025780343,-0.003101375,0.021022217,-0.038334165,-0.030385485,0.013164966,-0.019795308,-0.0090388,-0.002877575,-0.033808272,-0.059220582,-0.0050697997,-0.018850494,-0.05724673,-0.1520379,0.033819932,0.013743709,0.043973863,0.007652158,0.019255849,-0.048068188,0.0153673915,-0.04542899,-0.0027382742,-0.045012314,-0.017895794,0.0052021393,0.02830618,0.052861143,-0.0034623125,0.06365838,-0.029239621,0.019257417,-0.006301961,-0.0010937225,0.013748756,0.021416698,-0.03264817,-0.03910658,0.006508676,0.03647496,0.0033515168,0.011491963,0.02675346,0.002881704,-0.02173281,0.019431362,0.011417175,0.038074285,-0.034596585,-0.02533964,-0.044472724,-0.011175728,-0.029779678,-0.009145282,0.035039347,0.018915817,-0.018600097,0.019751882,0.031850487,-0.0059880065,0.0074281376,-0.027435895,0.020624736,0.01388731,0.0055095316,-0.031730037,0.007763268,0.012177646,-0.08609002,-0.032118052,-0.017467784,-0.01904859,-0.042678036,-0.0300841,0.035365384,-0.023993038,0.07662576,0.032435425,0.107227884,0.043125175,0.016351508,-0.014720342,-0.024475403,-0.012233497,-0.03115237,-0.027347967,0.005596199,-0.012601286,0.014077343,-0.022233838,-0.01983066,0.018805215,0.011813023,0.040073313,-0.014798559,-0.014919329,-0.027922815,-0.0146710025,-0.026689272,-0.02815557,-0.035885192,0.026664121,0.040624324,0.017694209,-0.045009907,0.01540475,-0.013648007,0.022787623,-0.020088274,-0.026603082,0.0065317834,-0.011108324,-0.036940373,0.038029976,0.028220806,0.052915607,0.03822778,0.0138652455,-0.07267023,0.039637394,0.00025501123,-0.0031025847,-0.07731382,-0.050359216,0.008825362,-0.008733413,-0.011920936,-0.062195856,0.018804053,-0.021799153,0.063548505,-0.016043276,-0.045456465,-0.056680873,-0.039400503,0.040095545,0.06821246,0.06279877,0.011706214,0.01366585,-0.052833453,-0.011076037,-0.039504953,0.016094942,0.02348391,-0.010503966,0.010897599,0.042373836,-0.14360675,-0.016173832,0.0061643394,0.008399987,0.07357999,-0.009932274,-0.0042436905,-0.04515148,0.09899086,-0.076478705,0.008215913,-0.044372518,0.019024815,-0.02452203,0.03069489,-0.009943328,-0.01788521,-0.006184871,-0.005886816,0.010148577,0.00722533,-0.0448966,0.039925605,0.050869294,0.02233752,0.02724754,0.021904023,0.012184771,0.017158806,0.0039727953,-0.01765318,-0.071658134,-0.019823726,0.07733651,0.0052842093,-0.0009197325,-0.008344064,0.024079701,0.009669805,-0.04696546,-0.038951922,-0.04988346,-0.0036953082,-0.0072826934,0.010734992,-0.025754603,0.029690167,-0.00685726,0.063203,0.06531009,0.011358033,0.03812311,-0.010211633,0.067405835,-0.037562657,-0.020052757,-0.040567078,-0.012729703,0.05539214,-0.049383517,0.06734275,-0.03233679,-0.029478863,-0.039214008,0.09210278,-0.06712823,0.041168194,0.028405592,-0.052675746,0.011657646,0.0030800677,0.013804571,-0.021101816,0.042404074,-0.015136068,-0.0035004078,-0.0015118154,0.034129325,0.016237775,-0.025412774,0.06848635,-0.0056170016,-0.010861821,-0.023037577,-0.020492537,0.024435055,-0.035390053,0.05255791,-0.009005547,-0.019612812,-0.013880389,0.0019525437,-0.03625212,0.0363874,0.027843276,-0.033380203,-0.116421714,-0.0475056,-0.031816356,0.016273644,-0.008363317,-0.011490889,0.017794799,-0.03672207,0.03815024,0.0034230466,-0.010049358,0.023594737,0.037401535,-0.02092442,-0.0051165703,0.032111086,-0.010381617,-0.00014398136,-0.049622983,0.045626942,0.039543416,-0.015841132,-0.046894133,0.0075752772,0.024760518,0.044389855,-0.0373485,0.023342587,0.054243192,-0.025128858,-0.03353958,-0.06757646,0.02442598,-0.05943668,0.065902464,-0.003277597,0.003371139,-0.055470575,-0.018899955,0.01986859,-0.016163098,-0.024523832,-0.025145777,0.03762465,-0.008057625,-0.014021058,0.0005217285,0.04825374,-0.026785892,-0.05167081,0.0678673,-0.029801616,-0.097455725,0.023306608,0.067112915,-0.008099626,-0.0565116,-0.16448043,-0.05425532,-0.07408671,0.006787866,0.06155817,0.014975636,-0.050663933,-0.05003448,-0.031415164,-0.054817673,0.0012588844,-0.026254829,0.02432912,-0.02557233,-0.037509475,0.0060785958,0.016322616,-0.013907536,0.03637924,-0.023322184,0.006318005,-0.008529029,-0.01257839,0.045599222,0.018295392,-0.0012498596,-0.01285339,0.019290015,-0.031530797,-0.006369317,0.07882104,-0.0634297,0.030657962,-0.07388292,-0.0258666,0.0069479556,-0.01920578,-0.03341407,-0.0024773676,-0.046056893,0.0496145,0.0031816836,-0.01661245,-0.014793911,0.0033743228,0.011625551,-0.023388656,0.074916095,-0.033565193,-0.055099178,-0.04675821,-0.039662726,0.04067374,-0.035068322,0.061043598,0.027140323,-0.07151081,0.030159915,0.015235055,-0.018817207,-0.006351887,0.014109545,0.07422519,-0.014033331,0.054475587,0.05226064,-0.006133854,-0.028915951,-0.026000274,0.0184573,-0.025852444,-0.008057061,-0.016968317,0.019523155,-0.030824102,-0.0016175673,-0.006050032,0.023218146,-0.026753357,-0.032678977,0.0020060486,0.01611279,0.019650022,0.025512941,-0.025012236,-0.035490364,0.037318517,-0.0310068,0.0015794203,0.011508428,-0.02348391,0.03359125,-0.038135972,-0.021615526,-0.035842665,-0.047041263,0.0022464858,0.026343973,0.0071673742,0.031456027,-0.010812041,-0.012294989,-0.0005658555,0.11657333,-0.035774965,0.039771922,-0.024138736,0.043236848,-0.021505712,0.015184753,0.028473798,-0.062133923,0.0344604,-0.015430311,0.018832592,-0.019844925,-0.022551011,0.02443169,0.0674315,-0.005407896,0.023344629,0.009296755,-0.042790737,-0.033796117,0.021474626,-0.031944405,-0.0091105625,0.0080588665,-0.037851747,-0.03105182,0.056928392,-0.062492702,0.033189695,-0.0072536306,-0.055562675,0.03992749,0.010053413,-0.0024890634,0.014587549,0.012322483,-0.056266807,0.016026303,-0.004650964,-0.0033915765,-0.044540107,-0.021708565,0.025729973,0.0070476513,0.025904473,0.069034345,0.028549852,0.04198634,0.04197836,0.00092648226,-0.005184282,0.029388819,-0.0036285706,-0.060773253,-0.039897654,-0.006373812,-0.017253231,-0.04410407,-0.034115795,-0.041083135,-0.022636391,0.03928789,0.033092227,0.02596823,0.011188515,-0.027415402,0.022550058,0.0022559555,-0.0077762553,0.013844591,-0.010775023,0.009112251,-0.01092349,0.04605062,-0.022711657,0.016704017,-0.09753523,0.0078047886,0.04209071,0.03870514,0.013822463,0.0073397225,0.043251816,0.01436172,0.004514379,0.026700167,-0.010625961,-0.10559059,0.013285608,-0.06331789,0.030587526,0.009814539,0.0035776051,0.037683826,0.018758671,-0.071739554,-0.03568416,-0.015832074,-0.009938924,0.08000508,0.005514072,-0.031987425,-0.042017456,-0.014635607,0.025537737,-0.012223775,-0.011366868,-0.03772677,0.025079401,-0.035088334,-0.035911158,0.08361356,-0.011371849,-0.021135354,0.021698767,-0.029550314,-0.03162171,0.0116835665,0.07576208,-0.022993742,-0.02670438,-0.010204428,0.05304891,0.0017694229,-0.025158163,-0.0038377987,-0.02050348,0.06020533,0.027891763,-0.0009525362,0.054344438,0.04102026,-0.015883518,0.01702677,0.025130259,0.025421254,0.05886852,0.0719629,-0.047373053,-0.022536714,0.0173954,0.044673696,0.019881802,-0.044586394,-0.041835494,-0.010003285,-0.03250118,-0.013115007,0.013588478,0.053725716,-0.014586903,-0.036493775,-0.06900497,-0.03594439,-0.001659741,0.010986876,0.025334097,-0.0285653,-0.091558635,0.024204174,0.039446022,0.03302031,-0.034055244,-0.000685867,-0.05915423,0.033751685,0.03925887,0.07579461,0.01855727,0.013687082,0.06991891,-0.052785594,0.026478032,0.02016388,0.027390406,0.04193065,0.009667612,0.024181304,0.013094594,0.002655552,0.005865264,-0.009839426,-0.08978896,-0.058608994,-0.009769575,0.01422013,-0.018834561,0.036634054,0.08017455,-0.08785522,-0.068900675,-0.027870627,-0.028640356,-0.0011694157,-0.020830756,0.06349089,0.04555386,-0.05598426,-0.009860397,-0.05868183,-0.012040792,-0.038855325,-0.014735889,-0.041105792,-0.043722004,0.0016549882,0.016670505,-0.06076978,0.03964177,0.08124665,-0.035232138,0.07145063,-0.020684084,0.027004054,0.06563915,0.07401565,-0.014623934,-0.025723517,-0.026793532,0.04595452,-0.01806417,-0.06808198,0.036548052,-0.044113953,-0.045498826,-0.0061002425,-0.033713385,-0.02747586,0.051809028,-0.005609077,0.006678867,-0.030882848,-0.026777918,-0.02360326,0.03441096,0.007986193,-0.002382357,0.029852454,0.07252617,-0.02402114,0.012023241,-0.02838899,0.00018584162,0.019778859,0.020958034,-0.002482248,-0.07158914,-0.03000159,-0.0026328168,0.005335305,-0.01604835,0.00965341,0.02269334,-0.06372967,0.0030420914,0.031365685,0.07343701,-0.014446278,-0.003804983,0.0050662286,-0.0044447286,0.0077172723,-0.012376471,0.0023925367,-0.0027954478,0.017612211,-0.0059745577,0.028794205,-0.026115373,0.030788386,-0.013549349,-0.010846273,0.078901514,-0.03735278,0.026707456,-0.011768225,-0.0105458675,0.024937186,-0.022612879,-0.061658394,-0.036024477,0.0044647604,0.0069031427,0.061052438,-0.06353067,0.025990313,0.034560923,0.000940852,0.026723582,-0.03311121,-0.0024675888,-0.039571203,0.025424484,-0.028721564,-0.018230794,0.06598691,0.052072905,-0.035161175,0.021400388,2.3384537e-05,-0.05450975,-0.019288123,-0.041415177,0.07129058,0.008326729,0.010642061,0.044231564,-0.0043751383,-0.07129407,-0.0099570025,-0.066361934,0.048089046,0.01174944,0.0355489,0.007694289,0.021170974,-0.012417434,0.029457998,0.02811673,-0.011483534,0.02925068,0.009486964,0.016236017,-0.008446315,-0.004281012,0.041238155,-0.012326648,0.05415054,-0.009216161,0.014580052,-0.02918795,0.0378136,0.011287105,-0.06796562,-0.023439515,-0.051170018,-0.115692675,0.04513544,0.010193847,-0.049932327,-0.012093576,0.028416218,-0.009883471,0.0027371682,0.079726525,-0.018335953,-0.025692027,0.008009178,0.011170973,0.039252352,0.032706518,0.024456492,-0.09649436,-0.016054064,0.03354618,0.009934825,0.012037457,0.030342791,-0.049793582,0.0113784615,0.04601242,-0.027343992,0.048403926,-0.027595703,-0.027953833,-0.03395101,-0.059618898,0.0359254,0.025791304,0.035255328,-0.025187304,-0.06787808,0.032508444,0.028612722,0.029568383,-0.022702714,0.0504165,0.0035120223,0.013734363,0.006473188,-0.015006495,-0.0034392527,0.10278834,0.043601822,0.018607358,-0.007401982,-0.0025591415,0.030769318,0.012371598,-0.081022166,-0.031825766,-0.034886464,-0.04045035,-0.008300458,-0.035290528,0.02979039,0.033356186,-0.012762207,0.056395337,0.051162686,0.037631296,0.04710579,-0.031725656,0.016504027,-0.00042647062,0.013282525,0.057456803,0.021363419,-0.11727172,0.022385154,-0.0016497758,-0.015754562,0.0057882695,-0.027366696,0.03154846,0.011289755,0.0583881,0.03296761,-0.07328586,-0.045628723,0.02037232,0.02861821,-0.017883863,-0.026777599,-0.028010411,0.03116252,-0.021472372,0.005370436,-0.025035696,-0.00039283693,0.034790546,-0.044894297,0.034195654,-0.029793264,-0.03694507,0.019235412,-0.051673375,-0.037820574,0.026065392,-0.07607403,-0.03918275,0.0033015641,-0.020182291,0.04365358,0.008663606,-0.033090934,-0.03436302,0.018156158,-0.0008833764,0.03071592,0.04330761,-0.0042748996,0.004168941,-0.007756194,-0.014740111,-0.0622097,0.03485112,0.0030392935,-0.03876062,0.011220213,0.035018038,-0.015013016,-0.0011591245,-0.04398281,-0.0703998,-0.001022113,-0.008174646,-0.021170994,-0.03119749,-0.0004410448,-0.039853457,0.13452725,0.043582737,0.006471895,0.030813126,0.004878322,-0.046934664,0.0007609045,-0.06545178,0.03863153,0.009053821,0.011062389,0.028737942,-0.0236002,0.03136839,0.008958712,-0.033185516,-0.012949645,-0.04822337,-0.018816842,0.026575178,-0.018876635,-0.0393767,-0.019191697,0.056065723,-0.01225853,0.013425297,0.04646258,-0.028401775,-0.023809183,-0.03790735,0.028233202,0.04076,-0.071343645,-0.009715279,-0.041958004,0.03826631,0.0017808033,-0.032182306,0.01134322,-0.02299122,-0.03780823,-0.002431787,0.045664255,0.012492094,0.03985125,-0.018921126,0.002486395,0.035993572,-0.02120485,-0.040279157,0.0044153915,0.0050761956,-0.023042476,0.009694148,-0.019927712,-0.014356141,-0.015390081,-0.004340416,-0.015315191,-0.0657915,0.035873022,0.020572357,0.048513234,-0.040660117,0.021424692,-0.022034394,-0.056346577,-0.029374521,-0.03981608,0.024460543,-0.0011991535,-0.039162483,0.008324347,-0.08303339,-0.11438145,-0.06523998,0.030196147,-0.012275642,-0.025712082,-0.055640135,-0.020590747,-0.024467101,0.016122388,0.00664454,-0.06991759,0.0062892814,0.018182168,-0.06833612,0.0075946217,0.04083765,-0.009055657,0.05667894,-0.036535878,-0.005458334,0.008858924,0.056480598,0.003301787,0.022736985,0.063667886,-0.118360154,-0.08019141,-0.030418029,-0.02519571,0.06918024,0.04696272,-0.02491301,-0.011482456,0.02497209,0.012539527,0.045531925,0.035763018,-0.024254944,0.022186926,0.02618253,0.0045152605,0.01940544,-0.032067433,-0.03311676,0.011161626,0.03485823,0.014470315,0.016528763,-0.002437472,-0.0013569522,-0.016448926,-0.009390148,0.038076002,-0.022710942,0.034458436,-0.0026002305,-0.01784256,-0.036215838,0.009832137,-0.01011607,-0.027737783,0.022280565,0.039731164,-0.005021061,-0.005385089,-0.07394547,-0.017286468,0.022130763,0.057234053,-0.041051127,-0.026213977,0.010033323,-0.0070385956,-1.29004175e-05,-0.0038454875,-0.047299776,0.04782251,0.06918437,-0.020853335,-0.02314394,-0.024590816,-0.0027175958,-0.02507711,-0.002174561,-0.042255178,0.013509374,-0.06841719,0.0077264193,0.003908377,-0.018543093,-0.02875196,-0.000405249,0.055898223,0.016827552,0.020755079,-0.0072646225,-0.02693596,0.020008095,-0.021897241,-0.0026932515,-0.04350531,0.004370739,-0.103890866,-0.025700115,0.017106654,0.026704978,-0.0119871935,0.026566342,0.025277346,0.008964708,-0.058300443,-0.015688201,-0.008363406,0.035107557,0.04934477,-0.057836793,-0.023213778,0.020300267,0.031925503,-0.06896903,-0.0044168714,-0.0064578145,0.004551899,-0.026506687,-0.0019444951,-0.022010008,0.038214058,0.007399706,-0.050119635,-0.019526044,-0.081380606,-0.0658299,0.059406586,0.0036269089,0.048117977,-0.042875804,0.011812831,0.014441291,0.06720928,0.021058897,0.006370356,0.033434667,-0.1004809,0.038926743,0.03649984,0.03867775,-0.009000237,-0.038883857,-0.053014718,-0.043661006,0.057983667,-0.014807108,0.10208934,0.06591865,-0.02522061,0.07568279,-0.019351326,0.0033435065,0.0076382137,-0.018733779,-0.014879091,-0.008714659,-0.074721605,-0.034149833,-0.009930905,0.027561484,-0.069839574,0.0086085135,-0.05107038,0.0050195633,0.001154739,0.04633084,0.005491231,-0.0249425,-0.030227883,0.022378204,-0.006726907,0.015789136,0.03076662,-0.07615957,0.0029140094,0.06445254,-0.026609182,-0.034289014,0.0027653791,-0.0020280122,0.017721962,-0.02475806,-0.012606277,0.0026543317,0.074681684,-0.003031401,-0.00351594,-0.053363252,-0.056014504,0.030474817,-0.037048463,-0.013799289,-0.0961658,0.029148623,-0.007621512,0.0139897885,-0.011828211,-0.0022724923,0.009111417,-0.093043126,-0.017008271,-0.025985185,0.038394008,0.034561325,0.02243309,0.06429054,0.060592815,0.061028533,-0.035208642,-0.030855995,-0.09571078,-0.06835628,-0.013356801,-0.025365938,-0.0889189,-9.1477086e-05,-0.05375163,-0.015842585,-0.022998724,0.017656377,0.013149737,0.031944368,-0.017866632,-0.0623612,0.0066983365,0.06192985,0.013185276,-0.0073791896,-0.015055789,-1.5111686e-05,-0.05044731,-0.02286193,0.020865597,-0.00751559,0.011069919,0.027732037,-0.0024024071,0.026595423,0.007951418,0.03722551,-0.060106296,-0.1316763,-0.03235113,-0.02105344,0.029073678,0.04646365,-0.0050241533,-0.15301864,-0.0013048606,0.04862852,0.044232767,0.019059595,-0.0026879285,0.014584259,-0.015893422,-0.033521526,-0.010264486,0.052127767,-0.011191732,0.02994491,-0.019849733,-0.012495969,-0.014233943,0.053671677,0.04249882,0.023266759,0.015873266,0.017967964,-0.025267676,-0.011010349,-0.023694264,-0.05989529,-0.05462257,0.041399043,0.042117983,0.07142481,0.01849243,-0.07342452,-0.00082875194,0.0366339,0.082086354,0.013713876,-0.039894823,-0.021859046,0.08923204,0.057201758,0.028060516,0.0055850497,0.026543288,-0.024985567,-0.10092292,-0.032637183,-0.069166884,0.041644666,-0.059953183,-0.050548412,-0.05686553,0.12741314,0.00604583,-0.053417254,-0.017416138,-0.06336991,0.01952754,0.029320762,-0.006896126,0.009463317,-0.011040123,0.010641216,0.048929825,0.01717834,-0.032922637,-0.06800739,0.10312392,-0.019890947,-0.024522936,-0.04388269,-0.035775952,0.026109762,0.06659373,-0.07804654,-0.012369334,0.023588417,-0.01441822,0.018323837,0.02994374,-0.017409947,0.09837863,0.16641887,-0.04576868,0.029229809,0.025580704,0.075107045,-0.005183148,-0.017545605,-0.026848994,-0.0027199197,-0.033429906,-0.02878883,-0.05931125,0.027810603,-0.03705645,-0.025338706,-0.0051973714,0.029214371,-0.065990806,0.006860704,-0.076824024,0.022363923,0.026949687,0.009221046,-0.071604885,-0.100274466,-0.0046696053,0.024527328,0.047646917,-0.034150477,-0.04486799,0.045830365,0.03734467,0.008591365,-0.058536995,0.08119485,-0.0031204973,0.04382429,-0.017623156,0.016156465,-0.0066332812,-0.024949105,0.06621057,0.0063085533,-0.019056313,-0.043212485,0.001827867,-0.017749114,-0.035476666,-0.037264217,0.020378254,-0.033414084,-0.041293018,-0.072234385,-0.007629062,0.051680014,0.042526156,0.0017130325,-0.002196011,-0.025974048,-0.005450882,0.029641528,0.0010703191,0.022906832,-0.004708928,-0.0118120145,-0.0592616,0.023793181,0.061701965,0.032471318,-0.038827993,0.020048497,0.03246225,0.0015588944,0.028422426,0.051052205,-0.0010907884,-0.07378722,-0.0791614,0.042851184,-0.0048951874,0.014005348,0.0132288635,0.016241997,0.0046416274,0.009259704,-0.005023837,-0.017658552,-0.0005286554,0.016867451,0.038644902,-0.023127733,0.029174104,0.053637072,-0.01834633,0.022788381,0.038628485,0.06877246,0.023526037,-0.0631206,-0.02917914,-0.019108513,0.054071087,0.07166639,0.018735388,-0.05060651,0.042061094,0.03147198,-0.02492482,0.037588015,-0.016687766,0.0076402035,-0.013799752,0.06757942,-0.056375515,-0.07489809,-0.029609933,0.038446087,0.021244915,-0.0007846841,-0.057764456,0.00056307594,0.0025832418,-0.0010276062,0.016203547,0.0025244555,0.0073316526,0.011882617,-0.047953445,-0.06331111,0.08146572,0.06297048,-0.041841567,-0.072826356,-0.028794657,0.0067757936,-0.000274148,0.09766907,-0.008857481,0.01044134,0.061039537,0.05676924,-0.00927231,0.060688082,-0.041299097,-0.108908385,0.096434996,-0.010200917,0.019188926,0.018553542,0.01555785,-0.022580782,0.02110498,-0.016681237,-0.05801412,-0.012275055,-0.023747107,0.0074228966,0.058803666,0.0147614945,-0.030421646,0.01937252,0.032753594,0.02807418,-0.008307296,0.013476061,-0.03180051,0.0017709365,0.04354031,0.046361413,0.053715695,-0.032970693,-0.031477295,-0.017331308,0.041734476,0.06279787,-0.0055051204,-0.09148186,0.054982077,0.05233066,0.031721245,0.045465346,-0.012983764,-0.027990391,-0.016365875,0.058146264,-0.01901376,-0.045408912,0.014486297,-0.0137859,0.02204822,0.012211601,-0.03276958,-0.043979093,-0.010404519,0.055301275,0.045572918,0.050319795,0.022342669,-0.016322574,-0.036626227,0.031967983,-0.06328894,-0.031316627,-0.10091053,-0.055883944,0.07489978,-0.051652413,-0.049685903,-0.010620271,0.051230874,0.035710603,0.07877431,0.01473313,-0.021701662,-0.04290938,0.026942192,0.008766358,0.01471043,-0.11894014,0.0445834,-0.0026998587,0.060989197,-0.04424194,0.0138078,-0.015332682,-0.09099395,-0.036798578,0.016267352,0.017102083,-0.049061414,0.02412862,0.006324788,-0.07246194,-0.008169868,0.067724824,0.025047211,0.0032528408,-0.038815692,-0.00025740874,-0.046360664,-0.0046185544,-0.033402625,-0.011377814,-0.0013566653,0.013942737,-0.016104164,-0.039505843,-0.004168823,0.012974526,0.03570536,-0.006242308,0.015504708,-0.0030016035,-0.0071560866,0.045869675,0.0029071814,0.014876769,-0.054013625,-0.04745362,-0.0035043652,0.030021885,0.016076712,0.049523115,0.027152648,-0.012803217,-0.082319945,-0.061539948,-0.0052455124,0.022556642,-0.032132365,-0.061985325,0.012744561,-0.0049023363,-0.081887186,0.0004843215,-0.08343134,-0.06887654,0.0028681112,0.038153645,0.016412418,-0.07258642,-0.036617097,-0.0399742,0.055156022,-0.021420104,-0.06334847,-0.05706087,0.036117136,-0.05403085,-0.032012656,0.095068194,0.020989036,0.07074722,0.017746273,-0.08466178,-0.012905585,-0.026427373,0.058559086,-0.029488478,0.043379247,0.03943779,0.03830291,0.12874734,0.0013858952,0.017210292,-0.025310284,0.06989275,-0.04441539,0.00429516,0.014269589,-0.009417007,0.0036684135,0.059736453,-0.0004394775,-0.07062399,0.027604366,-0.0726063,-0.030452322,-0.004544538,0.024558876,0.06393526,0.07759177,-0.041794844,-0.007134119,-0.0074761715,-0.04560682,0.009799313,-0.052296896,-0.06850535,0.14189179,0.121396944,0.009673972,0.07259915,-0.020504573,-0.05978606,-0.070541255,-0.00063992455,0.07992945,0.043163426,0.049178865,0.06571599,0.05412714,-0.00089083996,-0.062954925,-0.060750775,0.052554946,-0.001993097,-0.01170925,0.0041790856,0.007058788,-0.0047507496,-0.034950733,-0.047930084,0.040784005,-0.05935649,-0.034000617,-0.025150463,0.023627287,-0.022412572,-0.0035123215,0.011860442,0.04809704,-0.041608088,-0.0036832674,-0.019862065,0.010177971,0.024795843,-0.00485797,-0.0046252403,0.059725393,-0.048602976,0.002507102,0.033015735,-0.005759228,0.023104835,0.009317038,-0.022592517,-0.046933025,0.02165138,-0.0032817677,-0.035347395,0.011083987,0.0029011029,-0.0555145,-0.022502972,-0.016247112,-0.094947144,-0.06820572,-0.032822203,0.010466435,-0.03477443,-0.03871831,0.011574267,-0.021325288,-0.014136592,0.0012817222,0.008955495,0.017930975,0.057335235,0.049495023,0.016963862,-0.12986837,-0.0058558006,-0.052278757,0.012035677,-0.0099159805,0.018330274,0.05795815,0.012022974,-0.029097,-0.028085897,0.054020092,-0.07200148,-0.028237976,-0.0057049985,0.06310013,0.0652316,0.01308763,0.017002542,-0.0041277856,-0.009659504,-0.0044402475,-0.024615657,0.0014511283,0.0015817672,-0.05250175,0.04235239,-0.016959747,0.0019279858,0.02221936,0.03585211,-0.017205173,-0.08706106,0.058335476,-0.02200328,0.0050263805,-0.029537661,-0.018588936,-0.028153986,-0.018853402,-0.0046974933,-0.0416995,-0.037479576,-0.02691946,0.007283983,0.009446229,0.0341525,0.005942705,0.023198612,0.04344616,0.03988414,0.020664187,0.026420712,0.00066771114,0.08278008,-0.031039199,0.060897987,0.13146113,0.017164463,0.015103829,-0.025450904,0.0015599582,-0.005434594,-0.0023137901,0.018214095,0.13191316,-0.042496048,0.0347051,0.0067164693,-0.007959272,0.025095101,-0.027628705,-0.055774163,0.018108256,0.023755021,-0.023127632,-0.009720268,0.007759006,-0.00426966,-0.07171238,-0.08547516,0.08537195,0.011714306,0.018984148,-0.009309842,0.002820656,0.02143081,-0.008097169,0.010844269,0.045058295,-0.002757698,-0.03017781,-0.024580332,0.06583518,0.07136233,0.040953044,0.1006241,0.090499565,-0.012774741,-0.038740307,-0.009334027,0.018466763,0.024931563,0.04621067,0.028931959,0.067229375,0.025045812,-0.01899866,0.04409274,-0.008988335,0.006055379,-0.010047355,-0.027403066,0.086428195,-0.07435313,-0.048967093,-0.035413418,-0.024362324,-0.03284299,-0.021655275,-0.052022718,-0.03279383,-0.15712261,-0.035021756,-0.020500446,-0.051075723,-0.018281382,0.023306765,-0.056726757,-0.013912917,-0.07058691,-0.0021412433,0.00024094734,-0.022767395,-0.03728607,-0.09151261,-0.05604752,-0.03198972,0.02555884,0.04435095,0.010420693,0.03288826,-0.04997236,-0.025328035,-0.023122294,0.047571424,0.061793108,0.020248627,0.018235898,0.03757256,-0.0015762425,0.0075160568,0.11522033,0.015617113,0.020587001,0.0014582112,0.005494091,0.014608439,0.041012645,-0.017113488,-0.025248365,-0.04802335,-0.0047959033,-0.033287227,0.029317716,0.037491743,-0.030037373,-0.026336847,0.017845888,0.014519499,-0.059922755,0.038666476,-0.030385861,0.047275532,0.018920282,-0.021838265,0.08109438,-0.02553741,0.026670022,0.022008158,-0.018068757,-0.016166424,-0.013789494,-0.01856896,0.05218864,-0.11708764,0.02654582,-0.033245284,-0.052932367,-0.010814397,0.03807919,-0.02731813,0.01584463,-0.06805017,-0.07072226,-0.09955705,-0.04924483,0.033878826,0.015421512,0.073185414,0.020708557,0.04316687,-0.06088298,-0.062509604,0.019643836,0.014366348,0.0040337974,-0.016682036,-0.06258098,-0.08704942,-0.033383727,-0.02459866,-0.044419695,0.061282225,0.0630168,0.08372194,0.006838123,0.008847036,-0.00844421,-0.051175367,0.0104099475,-0.024186347,0.07662949,0.1158389,0.022882292,0.05010548,-0.04070933,0.04326476,0.012576518,0.036394183,0.020465912,0.023498818,-0.029337954,0.11105574,0.008336852,-0.005694868,-0.058563333,-0.09026026,-0.02395063,-0.0684509,-0.02378781,0.08050475,-0.025602434,-0.02960635,-0.04580036,-0.011458088,-0.0019097625,-0.0098225,0.010560269,-0.046314266,0.024689002,-0.10142328,-0.020913508,-0.006550905,0.056254033,0.038436547,-0.014552867,0.05257405,0.026571447,-0.04205267,-0.01431329,-0.011764045,-0.030854048,-0.027086368,0.034147143,-0.06451634,0.00528458,-0.009620387,0.0018439337,-0.042233158,-0.072370835,-0.04764449,0.012471527,0.029168388,-0.006637089,0.010275873,-0.0039407867,0.008741269,0.053754162,-0.0045537064,-0.07412072,0.05547993,0.018927263,-0.0070411223,0.010120041,0.11696144,0.10438641,0.047236197,0.017848743,0.030394167,-0.03563462,0.035277188,-0.06799069,-0.053431064,0.019394364,-0.030631285,0.046011433,0.1196155,-0.017247688,0.00082052156,-0.060138315,-0.05666605,-0.084345385,-0.042858798,-0.0066745933,0.11756205,0.038195472,0.0444151,-0.03336917,-0.012594565,0.027573127,-0.043875474,0.052517455,0.07802657,0.047890324,-0.02052344,0.05606358,0.04233903,-0.06790034,-0.009916599,0.008628248,0.06863976,0.059359558,0.07281912,0.051266015,-0.0024031987,0.003982543,-0.022883527,0.04504518,0.076184705,-0.024751041,0.07639975,0.0026135563,0.042054404,-0.0362243,-0.02449017,-0.01254538,-0.004393771,0.052384086,-0.008411193,0.0034852535,-0.080030136,-0.07604071,-0.0060793306,-0.07954029,0.011616743,-0.023835838,0.035688166,-0.032382604,0.037900448,0.011450385,-0.09330254,0.16218689,-0.09673494,-0.05631377,0.0079714665,0.028063802,0.025083842,0.05675957,0.03826776,0.071270995,-0.023681741,0.04441213,-0.02045226,0.016106693,0.030030502,0.048322644,0.051572867,-0.0066983043,0.0358417,-0.0048384196,0.005683734,0.06505809,-0.031871907,-0.06313369,0.059047624,-0.010289347,-0.015638655,-0.031805042,-0.024499414,-0.023092315,0.06709381,0.034386605,-0.042504262,-0.052848324,-0.09599497,-0.09855167,-0.07888362,-0.10182827,-0.07704275,0.048759237,0.048209287,-0.112509355,-0.08658225,-0.022650076,-0.0067367894,0.01852147,-0.009006207,-0.0010585968,0.071532555,-0.016044261,-0.03874856,-0.0048310873,0.030185847,0.022370154,0.0054386905,0.0031958155,-0.07115439,-0.04234517,-0.13054039,0.043392636,0.029441824,0.026603404,0.0077913175,-0.035999242,-0.07384097,-0.055801958,0.03700883,0.011050407,-0.014073391,-0.0010450899,0.0011734981,-0.019158153,0.008703337,0.021960353,0.04001006,-0.05719214,0.008760702,-0.045342475,0.028060507,-0.009540243,0.03582938,0.09607323,0.0046550576,0.071394935,0.014771273,-0.031641763,0.052454844,0.047800127,-0.022543706,0.028930472,-0.102584414,0.011926383,0.015557388,-0.00028848735,0.0030660566,0.038375888,-0.026054997,-0.04013513,-0.063758805,0.0578551,0.016732836,0.040790867,0.014811028,-0.038993455,0.030953193,0.031429663,0.074312806,-0.027587414,-0.043231405,0.03341638,0.013018995,-0.040264763,-0.03772078,0.08285816,-0.02046312,0.07071472,0.0013305098,0.01717697,-0.024081541,-0.0546502,0.0035654572,0.023001352,-0.02756155,-0.006001131,-0.013242137,0.0051992554,0.016111024,-0.012112839,-0.0044613075,-0.018353116,-0.043460574,-0.056676064,0.031275332,0.020434111,0.024535164,0.04888725,-0.01947956,0.025009377,0.089945905,0.011383108,0.0012627695,0.00059654086,-0.008726832,0.027961506,0.026911093,-0.019336844,0.037096925,0.047352895,0.009007165,0.014884015,-0.036556922,-0.03715559,0.018287709,-0.040481064,-0.06942225,-0.13437425,0.023798484,-0.0036150995,-0.037992477,0.007969949,-0.06568209,-0.09571595,0.054267015,-0.00070920435,0.036919277,0.0003184212,0.043762878,-0.028762197,0.08889014,-0.04823074,-0.06288676,-0.07048192,-0.01726994,-0.02404532,0.07713994,0.03712203,0.00045798466,0.008361329,-0.05020201,0.036022678,-0.11115764,-0.05562537,0.035095703,0.023252934,0.025441244,-0.016653353,-0.034926716,0.054255936,-0.039910834,0.042733237,-0.06769713,0.015804404,-0.033080228,-0.008840498,-0.009930936,0.04747131,0.049022954,0.044561375,-0.072097674,-0.079150975,0.0030440206,-0.024885558,0.031808373,0.06676406,-0.013229478,-0.043999832,-0.03120409,-0.040364157,-0.034961745,0.04705409,0.032758936,0.029497992,0.09870134,0.028629988,-0.030963635,0.057161067,-0.072579674,0.011989438,0.1488568,0.019932358,-0.082709074,0.05218047,-0.006843727,0.044786636,0.048901465,-0.017613752,0.027604897,-0.018844659,-0.06399368,-0.009193257,-0.017632592,-0.037581667,0.034939475,-0.038736183,-0.014974022,-0.0029338829,0.017079173,-0.011894399,-0.027296418,-0.027526934,0.048143156,0.07567177,-0.056284007,0.03488202,0.019333122,0.019407002,0.09432576,-0.016341515,0.030942567,-0.02029577,-0.08903097,-0.03053772,0.028285136,0.027222598,0.005552775,-0.018087184,-0.02737431,-0.03392828,-0.021253848,-0.025221646,-0.010717248,0.00055024977,-0.0044683204,-0.02767196,0.0029767326,-0.017107064,-0.05919121,0.014192823,-9.555342e-05,-0.016914468,-0.042444192,0.010171826,-0.019578787,-0.054674998,0.02063977,-0.061608683,0.013319707,0.02589842,0.02632454,0.06175167,0.03865311,-0.047015738,0.04882331,-0.059728753,0.008040584,0.021921543,0.0040236753,-0.038749345,-0.00034147987,0.00272053,0.08052763,-0.038193982,0.0791421,0.021903077,-0.019972637,-0.03276483,-0.0211396,0.0069223405,-0.0067660115,-0.036712486,0.018596957,-0.021382835,0.007384367,0.008101834,-0.001208122,-0.0705304,-0.03570739,-0.0021533864,0.021138415,-0.01935072,0.03411872,-0.00083366706,0.021050408,-0.06824032,-0.07933032,0.061426744,-0.022621349,-0.052953742,0.019328762,0.028464036,-0.044221465,0.074271105,0.039954823,0.019920968,0.019725846,0.027357606,0.0027267186,0.0016819225,0.02098903,0.0046725296,0.04119891,-0.051360883,-0.04558805,0.003750049,-0.01065373,0.06258526,-0.002261489,-0.0026715172,-0.019468226,0.05346322,0.05767834,0.10296659,0.04967411,-0.03402439,-0.004656336,-0.0002203457,0.11023515,0.037128553,-0.086422615,-0.09233768,-0.05936509,-0.013037959,0.0045010834,-0.045485318,-0.0009803228,-0.020295063,0.032043554,-0.0036906216,-0.044844303,0.05789583,0.019797444,-0.056677453,-0.0825025,0.028353117,0.046915453,-0.047141142,0.023362523,7.0496484e-05,0.06347926,0.055009883,-0.07552992,0.025343543,0.027847322,0.012266015,-0.055339716,-0.05161258,-0.029378237,0.029918697,-0.010732312,0.03461558,0.0045892093,-0.008250519,0.013029185,-0.03248063,-0.021570709,-0.09854577,0.07823918,0.011718079,0.011092051,-0.0070409067,-0.031734534,-0.089263454,-0.0062253904,0.0031919363,-0.07524494,0.01264576,0.0822617,-0.02803408,-0.019415567,-0.047517605,-0.002746825,-0.026462331,0.010360636,0.013590883,0.023715705,-0.028602336,-0.018177621,0.055055946,0.012751634,-0.021946516,-0.08457839,0.048119534,0.0059637157,0.011361839,-0.025765125,-0.013119477,0.020411275,-0.032378193,-0.035862632,-0.0058484464,-0.06492792,0.03812421,-0.022052828,0.039120123,0.06008027,0.11727346,0.013310802,-0.02502266,0.024008596,0.023114534,0.033154976,-0.0018121484,0.0032196285,0.04187974,-0.018505782,0.013268308,-0.034112945,0.0063583693,0.05966947,0.049490143,0.043627992,-0.0064483397,0.10666383,0.0804722,0.11252807,-0.022491293,-0.040129565,0.022876395,0.009879556,0.03765994,0.000823681,0.031439766,0.03907038,0.010828172,-0.050394233,-0.0048980284,0.008377187,0.025836071,0.044218358,-0.03309823,0.004550333,-0.03932553,0.004002308,-0.0416746,0.054580227,-0.03843829,0.037692837,0.029129103,-0.0028395203,0.016365409,-0.04972893,0.04150754,-0.0038427955,0.016486846,-0.017938983,0.042486172,-0.03126766,0.03503772,-0.019599032,-0.007132521,0.06549218,-0.00035172465,0.04359826,0.0066693374,0.025920713,-0.021958873,0.049308766,-0.09480478,-0.043466493,0.03392497,0.0101835085,0.025038023,0.0842062,0.11389183,0.017865231,-0.0015962913,-0.04833223,0.052414205,0.043728925,-0.047212154,0.016125323,-0.049865957,0.019819591,0.010302206,-0.080969624,-0.09425992,-0.0041928943,-0.0886483,-0.06027715,-0.00013454602,-0.001771117,-0.019910518,-0.061141778,0.007671671,0.02719046,-0.022212721,0.038651448,-0.0011712193,0.01974029,-0.03638931,-0.030721586,-0.020139262,0.020159807,0.07099465,0.026868189,-0.023311408,0.03052337,0.011893982,0.037375905,-0.06773817,-0.10210402,-0.025772586,0.016686631,0.041694798,0.043255772,0.05284041,0.010562368,-0.05264225,0.06856355,0.027114065,0.08804508,0.07788847,0.04821164,0.00822688,0.049778104,0.004862191,0.042215742,-0.0075011603,0.09303286,0.011540421,0.009947808,-0.046334296,-0.032865327,0.041524455,-0.028448109,0.011559521,0.009415865,-0.06617138,0.0511073,0.048954755,0.030617064,0.008220467,-0.025986006,-0.024569873,-0.013063203,0.004970955,0.0016592295,0.006290638,0.019600954,0.0220264,-0.06328654,-0.011776238,0.0076295338,0.04747443,-0.020418728,-0.011231462,-0.020585269,0.012442993,0.02360771,0.06999661,0.011204172,0.047246993,0.009776979,-0.055523705,0.005817658,-0.047858912,-0.03804014,0.008328053,-0.0030525394,-0.024629356,0.008044259,-0.043257535,-0.04902778,-0.044594508,-0.06944497,-0.006975637,0.025616355,0.071187146,0.04524224,0.09880275,-0.010940673,-0.031928893,-0.03653562,-0.02710164,-0.028455265,-0.0047455197,-0.03329674,-0.032739993,-0.01329695,0.0107703395,-0.02625553,0.027978621,-0.048104193,-0.0278519,0.016210942,0.018356489,0.01927199,-0.07131365,0.038812928,-0.0087734405,-0.03086669,-0.043202173,0.0153763,0.013889016,0.014437296,0.062408138,0.024764435,0.030705791,0.07728415,-0.015840609,0.04032329,0.008509944,-0.010266412,0.09634484,-0.028819785,0.033650197,0.004156826,0.065093696,0.0066238632,0.020630358,-0.021988425,0.019210018,-0.008702261,0.017825142,-0.02113058,-0.03253398,0.020851072,0.009811393,0.039770912,-0.023288615,0.0668034,-0.05849016,-0.057969674,0.0045128735,-0.055809576,-0.047051486,0.01580206,0.03806065,0.036098283,-0.006783639,0.031237543,-0.06200524,-0.09169661,0.016156493,-0.016178485,0.048695825,-0.088261664,0.020284496,0.009665901,0.021136152,0.005671266,0.025278656,0.016684249,-0.13288385,0.12088171,0.033264954,-0.087931186,0.03988206,-0.03984417,-0.03539624,0.0045980657,0.114564836,0.029668348,0.0022243776,-0.022323998,0.07095093,-0.00067117455,-0.03760332,-0.054512862,-0.009120031,-0.048403922,-0.042241246,-0.042368412,-0.0066884435,0.0051274435,0.025293795,-0.022669178,0.042347245,-0.14883596,-0.018257642,0.0070114066,-0.006961549,-0.038376782,-0.00922065,0.05218506,0.10042188,-0.0532931,0.038556077,0.030412994,0.048845716,0.032463327,-0.004898829,0.0420154,-0.0017583395,0.033382952,0.037385777,0.0013111219,0.020488013,0.041196883,-0.013565222,0.01783971,0.017022021,-0.055645816,-0.042932253,0.04295321,0.022338588,-0.016273636,0.027303519,-0.02872932,0.06391988,0.01045693,-0.123958126,-0.031651746,-0.052145682,0.08020831,-0.044594087,0.0040859235,0.054822028,-0.009139069,0.0010201454,-0.08332319,-0.027941093,-0.014980212,-0.014782914,-0.02852186,0.0015011511,-0.009174911,0.012950718,-0.016333155,-0.016982283,-0.0068034166,0.0035758317,-0.010472085,0.025055472,-0.010105942,0.08591088,0.019035518,-0.020273777,-0.06730174,0.017725872,0.037484538,0.039502177,0.08495718,-0.018365696,-0.0066564432,-0.0034912815,-0.06785256,0.015110765,-0.015828988,-0.028305689,0.020972649,0.005428262,-0.028568724,0.028212696,-0.0107697025,-0.009337004,0.008167936,0.025082592,0.035132233,0.044674546,-0.050299976,-0.0057681506,0.011203568,0.005047404,0.046713497,0.021740526,-0.0981648,-0.045844007,-0.032255486,-0.0056642583,-0.015961595,-0.012111348,0.0013259203,0.05267942,0.06604945,0.029344829,-0.06640904,0.014407516,0.0505689,-0.012306272,-0.027037939,-0.0798286,0.018752892,0.032490693,-0.02510792,-0.05738465,0.0072889687,0.005508191,0.026687516,0.05428455,-0.030309336,-0.019006416,0.02083215,0.105733246,0.014268031,0.0039554923,-0.0372586,0.019796867,-0.035576213,-0.055654492,0.1183106,0.04059184,-0.04559449,0.009540504,-0.054148927,0.019977078,-0.042709004,0.016088929,0.0045961416,0.0029839154,-0.06746447,0.029891325,-0.020556275,-0.008699758,0.0024711369,-0.010278122,0.029425433,0.0031091098,0.007970395,-0.0057132477,-0.033710774,0.044338252,0.108865984,-0.0013283627,-0.037850812,-0.05216937,0.016873732,-0.00075386855,-0.07886244,0.017120399,-0.07803956,-0.019574307,-0.04488305,0.006880287,0.010216552,-0.0131615875,-0.03978158,0.03575765,-0.033575725,0.014970669,-0.0015036727,0.05977773,-0.0037586496,-0.016906353,0.012367584,0.001152396,-0.04680956,-0.020023677,-0.014312882,-0.055633742,0.002470449,0.01448638,-0.04839453,0.0024981785,0.13889205,-0.0119592715,-0.023950707,-0.0012527298,0.044874556,-0.010216447,0.008471938,-0.06501865,0.06994246,-0.03651651,-0.030494027,0.03777426,-0.0141254915,0.02081205,-0.038428172,-0.0024927533,0.035288382,-0.020475304,0.039512582,-0.020117845,-0.033390556,0.023218699,0.0176428,-0.03040757,-0.050448548,0.015368286,0.018573554,0.024441076,0.0018291771,-0.0028792147,-0.009714557,-0.021685762,-0.040166277,0.04850149,0.02943822,7.9753925e-05,0.012540524,0.055633053,0.017490607,0.016155735,0.042201027,-0.031508103,-0.026352515,-0.042048533,-0.028676778,0.03738141,0.047741715,0.0023109901,0.023660587,0.091910735,-0.060163617,-0.013536187,-0.018223763,-0.005897125,0.033722878,0.0129122455,0.05138537,0.013242478,0.02148393,0.01060213,-0.0054327026,0.051650662,0.049536,0.037443783,-0.037302252,-0.026026582,-0.03476556,0.015049297,0.03176545,-0.035877302,-0.025143027,0.036953084,-0.010388162,0.030062675,-0.012180188,0.015175211,0.030846775,-0.019293932,-0.051447652,-0.035032395,0.08888333,0.007950515,0.01754036,0.016934654,-0.0021382917,0.022210212,-0.030811308,-0.04677146,-0.0393013,0.00544018,0.032624934,0.014712662,0.0028607475,0.03147742,0.018062335,0.02898512,0.027534407,0.01584273,0.035189208,0.020664698,-0.014563702,0.010904726,0.07868051,-0.0057925126,-0.042393025,0.062199052,-0.013314197,-0.01579016,-0.009680764,-0.02107523,0.00991392,-0.03647028,-0.075183205,0.015423526,-0.09496497,0.080111675,-0.034305017,0.0096273385,-0.04155134,-0.020246256,-0.0052621556,-0.016628921,0.031325374,0.009957627,0.02077816,-0.08554254,-0.06995249,-0.019856665,0.0533833,-0.010776216,-0.017173195,0.06050574,-0.037299458,-0.03393761,-0.032212578,-0.04806941,0.04555897,0.015705416,0.026292365,-0.0032539773,-0.000761231,-0.019077316,0.019887963,-0.037781443,-0.019244328,0.033725336,-0.0046648937,0.052641157,0.08312269,0.021421766,-0.008094594,-0.007574694,-0.07723467,-0.025467332,-0.007832737,-0.06342605,-0.02801003,0.016205076,0.0523029,-0.02779055,0.027891088,0.0014947922,-0.0025359474,-0.024019739,-0.029502118,-0.024358645,-0.04688013,0.05833867,-0.09633386,0.04554594,0.0130794,-0.0036274157,0.036222063,-0.04703568,-0.02517143,0.040401667,0.10473612,-0.025442623,0.1195675,0.051536474,-0.009320469,-0.028417993,0.0018372826,-0.003986468,0.06998592,0.011682835,-0.06499507,0.02375272,-0.004847158,-0.045585833,-0.02445646,0.08255822,0.0039549363,-0.03239591,0.1292811,0.0719379,-0.026113741,0.021052856,-0.0021523044,0.04748844,-0.12202892,0.059324466,0.008939365,-0.038102735,-0.025512539,0.0317005,0.025451506,0.039607424,-0.018239135,-0.06449098,-0.015494654,-0.026985012,-0.014067662,-0.030294359,0.031845868,-0.014059637,0.07101114,0.03230462,-0.05461529,0.03007861,0.014360439,-0.033235725,0.026634835,-0.05843613,0.012203397,-0.08415542,0.01989251,-0.0075080665,-0.0044959025,0.06810753,0.04095069,0.087007955,0.025047032,0.036235284,0.057846047,-0.05880049,-0.017834516,0.037068028,-0.012785199,0.0068542506,0.014092481,-0.043522567,0.019949118,-0.041385356,-0.026180906,-0.014710141,0.051563136,-0.0037342475,-0.07163623,0.007486364,0.053148575,-0.0030557788,-0.13167581,-0.03911016,0.030017683,0.06311675,-0.035510454,0.012155344,-0.02361227,0.010311819,-0.004211927,-0.008879354,-0.05608405,-0.0018633672,0.0046623377,0.07263074,0.03474012,0.06605989,0.030942086,-0.092371754,-0.047238026,0.02836002,0.0081593925,-0.0014678424,-0.042858064,0.045530688,0.008196514,-0.047543265,-0.050462227,-0.034490384,0.009587229,-0.04421015,-0.037758574,-0.012482654,0.034800168,0.028436625,-0.04474595,-0.002047179,-0.055845864,0.042014126,-0.022501571,-0.016394746,-0.0088953655,0.02261403,-0.049220566,0.08557501,-0.067586206,0.036367167,-0.06970053,-0.07150512,0.028457081,-0.0011989743,0.014446342,-0.034536615,-0.09861907,0.15735637,-0.073885284,-0.030691825,0.021708554,-0.005887184,-0.0024771504,0.04599721,-0.0012849327,0.032945592,0.012960098,-0.02454575,-0.029876895,-0.0031390768,-0.029680569,-0.03363651,-0.010900639,-0.07622321,-0.058136355,0.06609143,0.022126459,-0.0001506528,-0.047568243,-0.0063565886,0.031288475,-0.025057543,-0.033232853,0.013170183,0.0065861237,-0.012638134,-0.026492814,-0.01378482,-0.039576687,0.03597014,0.012016563,0.04876985,-0.05975503,0.017437361,0.008865219,-0.029190654,0.013414429,-0.033178307,0.0014527428,0.009164776,-0.008583039,0.04181341,0.020073814,0.016352795,0.0072118416,-0.057293326,-0.05586213,-0.010874732,-0.034620836,-0.045927983,-0.0047805947,-0.010890298,0.0027150712,0.0028564064,-0.060046516,-0.06172311,-0.027550384,-0.022432312,-0.026547099,-0.046545252,0.033689924,-0.025647767,-0.06815381,0.0027129378,0.04752596,0.008837563,0.012344539,-0.025037503,0.0017084517,-0.059821237,-0.037445504,-0.07636458,0.062185615,0.04744939,-0.0008492502,0.037434973,0.071727335,0.014262634,-0.020787591,0.039684966,-0.005541601,-0.08168267,0.08036984,-0.017909443,-0.014612159,-0.0011751121,-0.03766095,-0.05424289,0.008255032,0.01353494,0.01151348,0.03445019,-0.058084726,-0.022261836,0.04435251,-0.037252404,-0.023395417,0.026188012,-0.005745642,-0.009961018,-0.033308826,0.048208278,-0.004939087,0.03091301,-0.01993357,-0.0038986905,0.058539245,-0.038750865,0.051254474,-0.05810734,0.091415815,-0.031626616,0.02147863,0.0012414262,-0.05431642,-0.021134587,-0.03725848,-0.0794151,0.061711304,0.051253196,0.080529094,-0.051894635,-0.0013739326,0.05826942,0.024895482,-0.024507094,-0.11741156,0.04237528,0.031442754,0.03349592,-0.05482911,-0.05066665,0.034172773,0.011900387,-0.044753388,-0.048306502,0.050414316,-0.03399958,0.044148803,0.022202166,-0.030141568,0.0150908725,0.028350627,0.02723773,0.046070278,-0.0119453585,-0.047685187,-0.014081943,0.080509886,-0.007888221,0.027809616,0.008911989,0.0015415655,-0.014920664,-0.043058697,0.079925194,0.0715237,-0.07688477,-0.048103012,0.033314835,-0.023758775,-0.019561887,-0.037621014,0.057274647,-0.0066991583,-0.05058904,0.014898328,0.01880905,-0.018096931,0.035011526,0.0014236058,-0.025635364,0.041349027,-0.038161974,0.0077838684,0.022040144,0.022537664,0.03698356,-0.0337021,0.05207499,-0.02756557,0.03433157,0.013537711,-0.046927426,0.027907817,-0.02508604,0.025390668,-0.0071322694,-0.060874116,0.015564572,0.017508632,-0.04304481,-0.012244306,0.094914906,-0.012132957,0.039966706,-0.09355879,-0.06744509,0.011270743,0.014586996,-0.020286866,-0.07672032,-0.024723198,0.050842315,-0.032791343,0.012976687,0.02367723,-0.034097552,-0.016214581,0.015773943,0.021317909,0.056587454,-0.0011167959,-0.09598504,-0.021424843,-0.009020623,-0.002790341,0.0346986,0.03323256,0.009570892,-0.03732618,0.04946375,0.008806794,-0.06234643,-0.010856703,-0.0052999863,0.004179642,-0.0088532055,0.05817773,-0.038201112,-0.015260409,-0.0042341617,0.00088252063,0.020310152,0.00017123464,-0.018831542,-0.01794398,-0.027972966,-0.016645413,0.011260986,0.025914293,-0.007611133,-0.023835229,0.008289475,0.009341086,0.08054656,0.026094282,0.07082932,-0.030400936,-0.016534442,-0.0058768773,0.044891246,-0.10828332,-0.08437541,0.06537821,0.055003397,0.025204541,0.045452878,-0.047324605,0.098856196,-0.014377359,-0.03461464,-0.020890912,-0.003983627,0.048791032,0.027817005,0.054778356,-0.028224763,0.018600933,-0.0056861336,-0.015598027,-0.009982222,0.08014958,-0.06076935,0.03137819,0.07293881,-0.04528457,0.08327559,-0.0008245381,0.003241937,0.010917177,0.039303742,-0.011575717,0.11174152,-0.05644889,-0.010055794,-0.047784567,-0.057733435,-0.002692138,-0.027793698,0.002230936,0.046942852,-0.09062211,-0.06884161,0.021703992,-0.019583028,0.0026696394,-0.00055318244,-0.08249016,-0.005924875,-0.05614038,-0.06473911,-0.031501804,0.06320148,0.04342015,0.06661034,-0.010227031,0.069158554,-0.0854809,0.008423521,-0.027732551,0.018274616,-0.018595604,0.0024559454,0.06618015,0.056367747,0.00197104,-0.05376456,-0.03315479,0.04434299,-0.012537405,-0.02260092,0.0329588,-0.0041550705,-0.03074501,0.046286475,0.07786264,-0.0035606164,0.007028932,-0.0022890621,0.009085428,0.03599446,-0.03374124,-0.001749989,-0.024779823,-0.021659913,0.03421943,0.04489311,0.030482348,-0.058744736,0.03956397,0.04555615,0.012765441,0.009012878,0.010682164,-0.01090063,-0.024187889,-0.07835594,0.11098076,-0.015375446,0.022380121,-0.017834289,-0.038579572,-0.010335802,-0.013124215,0.075825825,0.09803389,0.0019924873,0.008011109,-0.011986201,-0.04190872,0.045820743,-0.0065167043,0.006207609,0.048696782,0.020062847,0.013700528,-0.0101175485,-0.022573736,-0.015709737,0.058263138,0.030917788,0.09122645,-0.07765271,-0.07806738,-0.033434115,-0.014751419,0.01988096,0.005174747,0.0016678626,-0.028929915,-0.066295296,0.026329415,0.00013217564,-0.002493163,0.009934832,-0.014369444,-0.03667982,-0.05982012,-0.03828069,-0.025951479,-0.014849343,-0.02321517,0.005161795,-0.021385077,-0.0031671464,0.009089003,0.017308963,-0.00416288,0.0013872212,0.04356049,-0.014852004,-0.023273634,-0.03873907,-0.08154605,-0.011861433,0.024890715,-0.0029336421,0.011730497,0.005532385,-0.05672505,-0.027936902,0.007102049,0.00056384836,-0.059965454,0.017137645,-0.02002538,0.0014181376,0.063641936,-0.015504623,0.0047420487,0.035218675,0.039962895,0.044482164,-0.06410662,-0.040318567,-0.016815169,-0.010376145,-0.06964035,0.021135978,0.044906933,-0.06042151,-0.06402875,0.034112327,0.08671299,0.013099871,0.040243182,-0.007899364,-0.026248435,-0.02642894,0.012535893,-0.0137262475,-0.07326631,-0.03906449,0.02822593,0.023227576,-0.012015107,-0.016594157,0.010387286,-0.009580264,-0.006512783,0.09020088,-0.038370747,0.07139922,0.061541278,-0.018247124,-0.04066338,-0.043979928,-0.026398363,0.02042368,-0.03279208,0.00045656983,0.010773912,0.012351825,0.013623075,-0.012882942,0.05808534,-0.045865662,-0.0342415,-0.033709973,0.0019361209,0.029506678,-0.017807618,0.038930837,-0.005859342,0.052295566,-0.017845364,-0.010300188,0.033927664,0.003422084,0.01721665,-0.10342055,-0.0544155,0.029413639,-0.034387402,-0.114347786,-0.0003936449,0.06783657,0.04006492,0.07009155,0.06675313,-0.032433465,-0.024855804,-0.04571032,0.005425691,0.034644783,-0.016245516,-0.0420715,-0.064161904,-0.041738853,-0.015908394,0.015019372,-0.004316714,0.035055187,-0.020794867,0.005210173,0.007307748,0.048822206,-0.025667258,0.076902434,0.00023610772,0.0069837146,-0.012862411,-0.039667375,-0.0011648812,0.035156734,0.041405164,-0.024265653,-0.062656626,-0.024754716,-0.0017578999,-0.010069716,0.026704619,0.023570541,0.0717628,0.04496123,-0.040793926,0.012259862,-0.04957227,-0.018010868,0.03514786,0.059242606,-0.07638026,0.013003673,0.054760844,0.023207387,0.0047544553,-0.036537465,0.035685185,0.031599253,-0.13137336,-0.03278168,-0.03835584,-0.028116507,0.049331028,0.029649138,0.026655361,-0.0043282104,-0.063090056,-0.013729078,0.005257861,0.015869295,-0.014021535,0.0032957904,-0.010963017,-0.023216518,-0.07862177,0.0019128711,0.030058607,-0.02717664,-0.021379663,-0.01066558,0.002680238,0.039726093,-0.053851232,0.019547286,-0.0070579685,0.02574731,-0.014077467,0.02871145,-0.029229112,0.022767132,0.10426612,0.007514308,0.03133457,-0.04565633,0.01028672,0.002589032,0.066810645,-0.028669387,0.069420956,0.011962207,0.028344862,-0.00403641,0.04534863,0.00061590405,0.03747171,-0.0012319117,0.06499992,-0.018366437,0.019805873,-0.056565672,-0.0011361585,-0.019787168,0.03927352,-0.026029633,-0.028169839,-0.033217624,-0.005660032,0.016337411,-0.019757103,-0.006523613,-0.123136304,-0.009914403,-0.12959932,0.05332714,0.04612377,-0.0055896607,-0.02529475,0.018774055,-0.056073476,0.021284293,-0.10759124,-0.104172796,0.0068270448,0.056076426,0.053342726,0.09984858,-0.008989299,-0.0683448,-0.037472587,-0.037331235,-0.011280523,-0.035579823,-0.024506131,-0.047401797,0.034557704,0.018697567,0.0908976,0.048369434,-0.01529487,-0.031876095,0.017024845,-0.01628798,-0.008614075,-0.03326545,0.0128814485,-0.015425688,0.095807604,-0.030235682,-0.0028812794,0.03596474,-0.021048257,-0.074773304,-0.062526196,0.015408423,0.03383874,-0.031068036,-0.011629775,0.026080592,-0.013568986,0.047241133,0.06131558,0.018611329,-0.04358411,0.015510997,0.06980888,-0.026568936,0.049578127,0.021667244,-0.071437016,-0.013135967,-0.011548937,0.018059319,-0.008448715,-0.025432976,-0.026242761,-0.023307724,0.055336386,-0.017540958,-0.061191782,0.008728622,-0.027380003,-0.047559556,-0.012111557,-0.0062427004,-0.03748362,-4.6606e-05,0.017188083,0.032075692,0.0024274644,0.033745248,0.016345507,-0.01661032,-0.036588542,-0.037846677,-0.004014918,-0.045626145,0.0566047,0.04126827,-0.009434883,0.021801906,-0.046301253,-0.038644124,-0.035367273,0.027193755,-0.045933686,-0.041426968,-0.041937783,0.04905112,-0.073870465,-0.024347296,0.0072493227,0.00980231,-0.0220213,0.042314727,0.0019053898,0.012548848,0.025291078,-0.05972847,-0.011333556,-0.007448255,0.013377436,0.045209087,-0.019079508,0.019095516,-0.041816007,0.05526717,